954 10
pr_1 -0.092048 -0.167252 0.441798 0.407208 0.090795 0.009789 -0.294117 0.576172 -0.252748 0.334440
pr_10 0.156219 0.095771 0.292948 0.262355 -0.703010 0.094665 -0.226998 0.287053 -0.219609 0.355577
pr_14 -0.044196 -0.062486 0.441584 0.413414 -0.188463 0.011969 -0.357762 0.494467 -0.330096 0.333344
pr_4 0.287119 0.230308 0.481683 0.002242 -0.335274 -0.254077 -0.483568 0.111877 -0.342662 0.302920
id_12 0.430143 0.234302 0.289177 -0.285489 -0.513084 -0.059915 -0.179520 0.277510 0.195829 0.424874
id_0 0.438769 0.221373 0.299423 -0.255023 -0.484391 -0.049975 -0.191950 0.328259 0.209237 0.422224
id_7 0.435588 0.227182 0.289760 -0.285100 -0.500125 -0.061316 -0.183889 0.302561 0.217116 0.408688
pr_25 -0.052025 -0.086144 0.460848 0.402797 -0.109011 -0.004382 -0.350711 0.523368 -0.299050 0.342053
id_17 -0.072144 -0.159154 0.448508 0.664375 -0.290873 0.262056 -0.114824 -0.000698 -0.022573 0.399921
pr_22 0.128511 0.067922 0.444084 0.251634 -0.460399 -0.029777 -0.353668 0.432030 -0.227223 0.376995
pr_30 0.150993 0.093415 0.413425 0.261113 -0.536240 -0.000697 -0.315944 0.357067 -0.260520 0.382926
pr_19 -0.003822 -0.038065 0.451281 0.374011 -0.242737 -0.003278 -0.367816 0.503159 -0.276006 0.362531
id_44 -0.372394 -0.011558 0.242133 0.423782 -0.193446 -0.204818 -0.169039 0.653156 -0.294659 -0.039828
id_35 0.466105 0.242630 0.230609 -0.324096 -0.528098 -0.056094 -0.157771 0.229630 0.258840 0.372833
id_32 0.456611 0.249565 0.221756 -0.327500 -0.536386 -0.026729 -0.141497 0.203626 0.229798 0.412402
id_51 -0.263188 -0.020350 0.307347 0.407642 -0.233252 -0.240529 -0.213056 0.639571 -0.319072 0.034238
id_49 -0.334570 -0.061450 0.317232 0.435199 -0.193694 -0.181963 -0.206798 0.612808 -0.321464 0.044571
id_181 0.473600 0.262596 0.189769 -0.408303 -0.525305 -0.079495 -0.137500 0.154175 0.266296 0.328889
id_28 -0.337950 -0.081625 0.276077 0.419426 -0.168244 -0.186788 -0.196410 0.630021 -0.358071 0.008763
id_207 0.496744 0.272478 0.211205 -0.343008 -0.544125 -0.076385 -0.115657 0.176884 0.217971 0.350224
id_255 -0.026672 -0.134786 0.448856 0.638935 -0.372482 0.258174 -0.124286 0.014793 -0.054590 0.383888
id_86 -0.320245 -0.084124 0.297674 0.474668 -0.192515 -0.191495 -0.225750 0.588305 -0.312171 0.090542
id_72 0.470636 0.279490 0.213788 -0.417360 -0.501087 -0.088248 -0.149672 0.152340 0.257816 0.330968
id_18 0.465369 0.212924 0.155428 -0.392158 -0.549021 -0.076218 -0.115109 0.131707 0.313740 0.351975
id_145 0.513297 0.223187 0.213958 -0.362641 -0.552902 -0.073633 -0.133442 0.055032 0.266196 0.326511
id_36 0.492328 0.286808 0.175169 -0.462286 -0.496670 -0.053172 -0.119789 0.092878 0.286044 0.276869
id_46 0.498450 0.255559 0.120562 -0.481303 -0.451612 -0.063115 -0.065052 0.105173 0.339909 0.318247
id_53 0.483825 0.316273 0.148174 -0.394528 -0.483112 -0.095804 -0.085476 0.125288 0.298955 0.365136
id_82 0.487941 0.235313 0.226961 -0.374663 -0.540814 -0.021754 -0.151124 0.052868 0.273384 0.348329
id_262 0.494954 0.301514 0.150798 -0.341469 -0.543512 -0.114440 -0.127017 0.164290 0.252734 0.330556
id_161 -0.204713 -0.065719 0.350462 0.464280 -0.254568 -0.138887 -0.230136 0.594680 -0.313227 0.163040
id_21 -0.184796 -0.068728 0.385190 0.441165 -0.252556 -0.145578 -0.261816 0.539759 -0.387490 0.152035
id_26 0.470855 0.283383 0.163052 -0.470718 -0.467777 -0.013907 -0.063280 0.063255 0.343157 0.324126
id_190 -0.214741 -0.043766 0.449172 0.377128 -0.160605 -0.045167 -0.227839 0.591019 -0.345007 0.244769
id_218 0.510938 0.232510 0.204181 -0.468859 -0.533215 -0.130558 -0.098842 0.012044 0.223811 0.248985
id_67 -0.082334 -0.117554 0.410326 0.617230 -0.355643 0.295432 -0.161156 0.034185 -0.086096 0.426317
id_108 0.445590 0.311680 0.139137 -0.483090 -0.528970 -0.062068 -0.054836 0.061581 0.329053 0.229856
id_54 0.505027 0.302111 0.077331 -0.496259 -0.426323 -0.064230 -0.043750 0.055593 0.323537 0.325372
id_132 -0.215091 -0.047983 0.414138 0.427680 -0.208064 -0.104947 -0.260651 0.571838 -0.352954 0.152299
id_69 -0.043860 -0.103312 0.421224 0.665988 -0.393600 0.233387 -0.183250 0.008695 -0.083384 0.341224
id_349 0.500984 0.236705 0.131932 -0.492752 -0.410073 -0.047030 -0.086739 -0.003677 0.424855 0.272700
id_97 -0.152355 0.026138 0.383728 0.443492 -0.287541 -0.144435 -0.239157 0.563402 -0.363966 0.146772
id_148 0.504079 0.311176 0.063906 -0.524700 -0.455890 -0.012896 -0.021539 0.020956 0.304948 0.260350
id_5 -0.027796 -0.105869 0.448091 0.637512 -0.296583 0.184704 -0.245501 0.130170 -0.196073 0.378253
id_177 0.479877 0.223336 0.123391 -0.573193 -0.467053 -0.150208 -0.028516 0.113014 0.258312 0.234632
id_66 -0.307936 -0.020824 0.306812 0.478412 -0.104033 -0.137850 -0.266963 0.616635 -0.310221 0.064488
id_428 0.517092 0.297834 0.096120 -0.398894 -0.502550 -0.043018 -0.107316 0.021111 0.317681 0.329036
id_113 -0.258874 -0.089544 0.425901 0.426237 -0.145921 -0.083451 -0.207058 0.556558 -0.420678 0.063562
id_485 -0.060411 -0.086684 0.444450 0.415781 -0.349536 -0.044892 -0.288690 0.518976 -0.312097 0.210126
id_397 0.491206 0.169769 0.243588 -0.377536 -0.575383 -0.014879 -0.104667 0.078074 0.270173 0.326644
id_164 -0.165838 -0.095181 0.449204 0.413493 -0.202082 -0.046638 -0.246895 0.542820 -0.356182 0.255322
id_230 0.508202 0.266402 0.086386 -0.468406 -0.556202 -0.056569 -0.034618 -0.060134 0.280851 0.218270
id_361 0.437744 0.290337 0.073796 -0.496900 -0.550011 -0.005239 0.012227 0.032688 0.260757 0.316194
id_100 -0.222331 -0.126930 0.359801 0.429082 -0.185758 -0.123687 -0.232874 0.610552 -0.341650 0.165396
id_42 -0.028755 -0.070753 0.520011 0.593677 -0.344064 0.144946 -0.254174 0.173403 -0.105632 0.355081
id_254 -0.065510 -0.101691 0.430299 0.482191 -0.242110 0.008602 -0.293648 0.502397 -0.357169 0.206904
id_151 0.332475 0.027111 0.475775 0.103083 -0.536125 -0.054799 -0.297579 0.298600 -0.167250 0.394483
id_136 0.516965 0.271679 -0.001162 -0.561902 -0.446942 -0.053014 -0.007382 -0.084133 0.323437 0.169972
id_263 -0.041181 0.029014 0.446781 0.336423 -0.407788 0.030653 -0.394987 0.397322 -0.341280 0.295105
id_579 0.443658 0.355749 0.096637 -0.508644 -0.384542 0.003682 0.013041 -0.025142 0.438591 0.259814
id_334 0.561255 0.267001 0.300083 -0.484834 -0.394931 -0.090228 -0.063146 -0.021324 0.147812 0.313349
id_192 -0.176738 -0.090270 0.449109 0.474265 -0.180144 -0.112807 -0.336573 0.464689 -0.315338 0.245268
id_91 -0.002842 -0.132838 0.435255 0.436341 -0.200077 0.006362 -0.366347 0.481439 -0.335654 0.289442
id_285 -0.117155 -0.120724 0.440754 0.679394 -0.194605 0.162277 -0.184618 0.193134 -0.169643 0.389220
id_234 0.446123 0.222408 0.087481 -0.570864 -0.499355 -0.118089 -0.114179 -0.044708 0.229828 0.294639
id_58 -0.072047 -0.099127 0.389830 0.410421 -0.347172 -0.174899 -0.229016 0.552072 -0.348761 0.185972
id_123 -0.019554 -0.122873 0.481648 0.376860 -0.255091 -0.090804 -0.327163 0.429177 -0.338277 0.362677
id_289 0.015570 -0.035681 0.524688 0.366312 -0.269017 -0.047318 -0.406516 0.395222 -0.296434 0.324135
id_154 -0.312163 -0.044771 0.233247 0.475740 -0.052648 -0.165429 -0.181804 0.600870 -0.442237 0.002678
id_203 -0.052551 -0.135516 0.422661 0.610933 -0.291897 0.267494 -0.224162 0.142307 -0.094653 0.436779
id_326 -0.221023 -0.020989 0.307164 0.596856 -0.152493 -0.083383 -0.280191 0.495167 -0.371936 0.088774
id_121 -0.127123 -0.178999 0.489293 0.452864 -0.094347 -0.003186 -0.347422 0.484826 -0.337181 0.170132
id_93 -0.043654 -0.046900 0.485978 0.565591 -0.165617 0.089821 -0.341904 0.397123 -0.277250 0.229908
id_143 0.533634 0.282273 0.176758 -0.476630 -0.444599 -0.099843 -0.006019 -0.008204 0.315518 0.264282
id_45 -0.312168 -0.125340 0.396944 0.424662 -0.163190 -0.133683 -0.211784 0.608738 -0.229104 0.191137
id_184 -0.060154 0.033030 0.399739 0.421995 -0.367447 -0.028517 -0.348068 0.445294 -0.248581 0.374643
id_440 -0.125380 -0.142780 0.397211 0.427026 -0.198944 -0.112687 -0.302616 0.496783 -0.299129 0.379000
id_404 -0.217186 -0.050161 0.347850 0.499595 -0.197328 -0.115791 -0.279963 0.532607 -0.264246 0.309027
id_159 -0.206215 -0.073630 0.409050 0.383727 -0.198734 -0.073169 -0.264419 0.629593 -0.298330 0.193211
id_374 0.517055 0.263765 -0.022893 -0.531360 -0.448944 -0.064585 0.093663 -0.137166 0.294784 0.244964
id_288 -0.081741 -0.097111 0.460821 0.364090 -0.239487 0.046557 -0.373388 0.503035 -0.191421 0.387743
id_102 -0.142969 -0.011533 0.374128 0.394313 -0.313881 -0.189262 -0.251228 0.527792 -0.324638 0.320252
id_452 0.087109 0.058248 0.486328 0.384709 -0.407533 -0.068368 -0.290224 0.459496 -0.193212 0.317881
id_76 0.071221 0.009325 0.353643 0.280924 -0.380837 -0.135544 -0.450217 0.451982 -0.201453 0.424127
id_587 0.482083 0.346108 0.100310 -0.460418 -0.396058 -0.125456 0.074839 -0.141647 0.386997 0.278794
id_380 0.501025 0.344198 -0.006871 -0.540842 -0.338453 -0.109766 0.066236 -0.102999 0.379707 0.228412
id_227 0.041617 -0.023956 0.503168 0.359906 -0.413368 -0.088353 -0.274590 0.368235 -0.241072 0.408891
id_103 0.611169 0.370333 0.115694 -0.384511 -0.431591 -0.136523 -0.084132 0.154881 0.179536 0.244709
id_61 -0.078209 -0.107496 0.477211 0.443002 -0.213278 -0.148140 -0.374769 0.429469 -0.372037 0.166152
id_39 0.068070 -0.001068 0.438299 0.324603 -0.375084 0.094918 -0.313089 0.361435 -0.322390 0.464327
id_114 -0.028911 -0.052576 0.431631 0.359093 -0.298714 -0.127763 -0.365167 0.442467 -0.358753 0.343170
id_329 0.506522 0.205935 0.116960 -0.575168 -0.351568 -0.112433 0.000199 -0.095534 0.381325 0.256422
id_356 0.551185 0.340996 0.194837 -0.384587 -0.463699 -0.103766 -0.168921 0.051190 0.221122 0.297008
id_599 -0.082183 -0.003617 0.382309 0.485640 -0.224595 -0.064682 -0.382535 0.480260 -0.268609 0.327820
id_135 0.082772 -0.056450 0.315232 0.504986 -0.175829 0.087412 -0.386925 0.477550 -0.320057 0.341793
id_88 0.079040 -0.100267 0.412432 0.470766 -0.336878 -0.064395 -0.396678 0.275680 -0.366095 0.327057
id_11 -0.269046 -0.144442 0.379094 0.530094 -0.188127 0.017450 -0.275292 0.499295 -0.273792 0.215174
id_348 -0.019808 -0.118838 0.451509 0.375460 -0.150697 -0.037528 -0.348870 0.556770 -0.317372 0.290014
id_29 -0.073777 -0.010039 0.452866 0.404452 -0.260756 -0.035720 -0.366199 0.459526 -0.369736 0.273034
id_90 0.469439 0.300285 0.187009 -0.452276 -0.519221 -0.007128 -0.001656 0.064786 0.330561 0.258492
id_209 0.179536 0.010211 0.483656 0.209855 -0.358325 -0.117158 -0.401403 0.344717 -0.253268 0.451086
id_447 -0.148418 -0.147969 0.344057 0.574390 -0.099763 -0.035734 -0.221674 0.560178 -0.294306 0.216784
id_152 -0.017087 -0.112080 0.374790 0.459936 -0.234456 0.007783 -0.377575 0.469037 -0.396290 0.245973
id_56 -0.097763 -0.167334 0.429186 0.512513 -0.084946 0.019594 -0.368613 0.449475 -0.327808 0.250220
id_260 -0.223551 -0.175754 0.348373 0.427767 -0.167400 -0.063284 -0.391398 0.503246 -0.351484 0.229714
id_89 -0.086197 -0.052996 0.533119 0.372246 -0.307771 -0.084598 -0.302136 0.421369 -0.324079 0.302049
id_595 -0.146570 -0.076998 0.558885 0.558804 -0.286276 0.152875 -0.259302 0.096317 -0.193558 0.358706
id_647 0.397395 0.266016 0.009489 -0.522141 -0.550576 -0.143616 -0.014287 -0.108492 0.232627 0.329762
id_331 -0.188409 0.339625 0.463804 0.109934 -0.122403 -0.268150 0.080022 0.714332 -0.125278 0.051990
id_237 -0.460261 0.176952 0.432021 0.142471 -0.242770 -0.099340 0.153669 0.673094 -0.028877 -0.059986
id_213 -0.109530 -0.053957 0.475142 0.401290 -0.359859 -0.040356 -0.324858 0.445994 -0.289889 0.280520
id_217 -0.172193 -0.059133 0.469007 0.423169 -0.116351 -0.077187 -0.338651 0.485342 -0.384921 0.223411
id_57 0.093579 0.015886 0.488060 0.338931 -0.368291 -0.143641 -0.279735 0.449787 -0.254268 0.369366
id_449 0.492101 0.363255 0.044586 -0.419061 -0.447106 -0.134946 0.067471 -0.004320 0.423467 0.215110
id_122 0.007998 0.063981 0.506900 0.388190 -0.181733 -0.082915 -0.408160 0.354153 -0.332268 0.381944
id_375 0.013629 -0.016016 0.531600 0.404468 -0.175727 0.021182 -0.384481 0.432732 -0.271627 0.336410
id_94 0.192193 0.016296 0.375558 0.356423 -0.387479 0.085231 -0.296407 0.387115 -0.271858 0.475067
id_79 0.151829 0.376322 0.243886 -0.296862 -0.232586 -0.357663 0.202351 0.491692 0.254882 0.397531
id_498 -0.065647 -0.027798 0.373929 0.567283 -0.212156 -0.132777 -0.388362 0.441961 -0.278094 0.217152
id_31 -0.112796 -0.051433 0.499403 0.553587 -0.098972 0.058098 -0.297349 0.387859 -0.310421 0.283525
id_339 0.030919 -0.067632 0.338127 0.413933 -0.307039 -0.074395 -0.348740 0.425821 -0.378416 0.403546
id_365 -0.100038 -0.026018 0.439271 0.411025 -0.354687 0.021475 -0.347488 0.401673 -0.299590 0.359592
id_193 0.273588 0.409005 -0.165452 -0.502509 -0.362331 0.070744 -0.145498 0.117681 0.550005 0.064522
id_393 -0.101868 -0.065529 0.383085 0.282168 -0.356972 -0.168969 -0.358098 0.460351 -0.375044 0.349516
id_325 -0.052569 0.382396 0.279137 -0.103227 -0.152950 -0.369933 -0.077889 0.690164 0.315380 0.142600
id_352 0.353184 0.354323 0.063591 -0.706211 -0.276916 0.099888 0.154012 -0.037056 0.329993 0.162143
id_509 0.131749 -0.106357 0.457232 0.401389 -0.478656 0.041889 -0.190640 0.309483 -0.177345 0.454660
id_131 0.082513 0.101234 0.600423 0.323408 -0.147999 0.057656 -0.260290 0.405265 -0.452961 0.235481
id_540 -0.139867 -0.099914 0.448354 0.474846 -0.143871 -0.066558 -0.277742 0.419694 -0.421032 0.297110
id_68 -0.108272 0.008789 0.388127 0.551786 -0.225618 -0.032444 -0.275712 0.511516 -0.256868 0.278365
id_126 -0.312892 -0.118504 0.331897 0.455914 -0.187183 -0.104230 -0.300071 0.479997 -0.410695 0.187165
id_277 -0.040848 -0.058414 0.371400 0.449707 -0.275934 0.019163 -0.333074 0.455250 -0.368777 0.352209
id_275 -0.027874 -0.075253 0.425046 0.493531 -0.076129 0.012550 -0.338313 0.385966 -0.487010 0.250531
id_450 0.324669 0.134451 0.519175 0.279513 -0.442898 0.177616 -0.399862 -0.017822 -0.170600 0.334403
id_15 0.167619 0.129150 0.353201 0.217215 -0.481493 -0.061419 -0.321672 0.470121 -0.307124 0.358985
id_492 -0.071157 -0.150490 0.404468 0.280061 -0.028040 -0.098085 -0.396209 0.399559 -0.493199 0.399974
id_413 0.429739 -0.074062 -0.336033 -0.441930 -0.174432 -0.220378 -0.074928 0.357381 0.471687 0.258461
id_412 -0.323375 0.144203 0.095003 0.470004 -0.198309 -0.349357 -0.368173 0.480906 -0.332352 -0.077768
id_146 0.187585 0.046100 0.295844 0.383610 -0.281917 0.036385 -0.441944 0.333910 -0.318247 0.488992
id_205 -0.092350 -0.135965 0.473446 0.532720 -0.059987 -0.002427 -0.424418 0.439860 -0.265372 0.131942
id_340 0.488144 0.201751 0.258511 -0.492789 -0.322930 -0.163785 -0.188435 0.357904 0.223760 -0.257997
id_259 0.164014 0.117842 -0.189910 -0.736829 0.052406 0.054537 -0.035395 -0.018055 0.595463 0.135478
id_482 -0.083278 -0.006944 0.381171 0.535464 -0.136205 -0.103577 -0.220887 0.512862 -0.430994 0.184797
id_671 0.481985 0.199180 0.072696 -0.527268 -0.305133 -0.015122 0.115102 -0.008494 0.543181 0.207413
id_226 0.306335 0.274135 -0.074798 -0.436853 -0.596782 0.039904 0.086239 -0.058164 0.439480 0.269943
id_503 0.426300 0.021249 -0.147788 -0.259126 -0.356467 0.042010 -0.069866 0.381211 0.595090 0.309290
id_105 -0.250874 0.058289 0.412968 0.574396 -0.131337 0.106746 -0.315076 0.412210 -0.339909 0.140778
id_73 -0.252136 0.314286 -0.181875 0.244698 0.138728 -0.427690 0.257925 0.544556 0.275574 0.321752
id_333 0.060675 0.220499 0.255015 -0.127409 -0.653541 -0.128721 0.076293 0.638267 0.089578 -0.038969
id_466 0.268173 0.075499 0.199064 -0.451741 -0.463288 -0.129362 -0.454954 -0.206345 0.402884 0.188254
id_468 0.378027 0.362243 -0.037488 -0.531172 -0.275051 -0.023850 -0.151824 -0.093504 0.522106 0.248427
id_235 0.126479 -0.224963 0.554625 0.366688 -0.028209 0.094940 -0.278858 0.488550 -0.277167 0.297071
id_111 -0.173951 0.150390 -0.117217 -0.017648 -0.056104 -0.188676 -0.147147 0.903397 -0.148001 -0.186129
id_448 -0.012469 -0.127667 0.458744 0.557221 -0.170498 -0.106742 -0.293487 0.445387 -0.275689 0.248259
id_328 -0.253145 -0.183731 0.506646 0.271000 -0.383685 0.016795 -0.396975 0.510741 -0.072285 0.029370
id_170 -0.004909 0.011565 0.406279 0.399293 -0.260262 -0.126098 -0.289170 0.516766 -0.378116 0.313160
id_475 0.455774 0.450675 0.057045 -0.647283 -0.112778 0.075238 0.248761 0.067514 0.277897 -0.069902
id_353 0.238282 0.309623 0.015923 -0.710739 -0.172811 -0.254346 -0.026542 0.130650 0.479189 -0.000642
id_505 -0.002935 -0.140025 0.486882 0.617729 -0.228274 0.075960 -0.175242 0.386351 -0.326874 0.130534
id_437 -0.008743 -0.160404 0.339023 0.468846 -0.332900 0.036032 -0.374601 0.477746 -0.326916 0.227770
id_436 0.534499 -0.011863 0.341778 0.327128 -0.402212 -0.029929 -0.330869 -0.055375 0.156343 0.436682
id_87 0.359345 0.294636 0.062837 -0.497611 -0.637722 0.032345 -0.130095 0.015154 0.209933 0.252059
id_83 0.584646 0.424673 0.085721 -0.290330 -0.323885 -0.232884 -0.076471 -0.268234 0.319899 0.216639
id_383 -0.173574 -0.055164 0.300928 0.446222 -0.258351 0.026972 -0.336340 0.485854 -0.351767 0.369818
id_317 0.479632 0.069202 -0.419461 -0.462280 -0.189660 0.086485 0.173136 0.043173 0.473203 -0.276230
id_542 -0.290027 -0.137143 -0.294246 -0.424135 -0.308645 0.431203 -0.087710 0.543451 0.215230 0.007144
id_214 0.427498 0.021455 0.349643 -0.180209 -0.395032 -0.117285 -0.043333 0.576167 0.100648 0.385068
id_81 -0.017138 -0.243853 0.495291 0.489326 0.119815 -0.019166 -0.364614 0.374262 -0.273625 0.304762
id_150 -0.115869 -0.028643 0.390913 0.427546 -0.257166 -0.164971 -0.174050 0.523298 -0.379784 0.329281
id_124 0.090367 0.035509 0.389116 0.311000 -0.282505 -0.003903 -0.402453 0.637034 -0.177858 0.251399
id_372 0.014931 -0.038461 -0.217940 -0.621401 -0.439132 0.095325 0.401830 -0.151983 0.421984 -0.010009
id_301 -0.204893 0.100577 0.508523 0.520128 -0.160799 -0.083160 -0.271238 0.413050 -0.231755 0.296836
id_118 0.184262 0.413450 -0.084877 -0.516148 -0.137478 -0.232757 0.498014 -0.201549 0.393571 -0.069858
id_280 0.242548 0.444750 0.126343 -0.186269 -0.216420 0.141261 0.315522 0.400639 0.473160 0.376791
id_274 0.331246 0.249758 -0.242833 -0.514065 -0.414761 0.077730 0.038954 -0.204753 0.450519 0.283177
id_271 0.442648 0.682137 -0.162690 -0.130098 -0.117922 0.074138 0.343450 0.322824 -0.009341 0.231722
id_574 -0.030751 0.024421 0.047575 -0.651252 0.063406 0.076506 0.231908 0.437422 0.506841 0.245325
id_576 0.550894 -0.041260 -0.021056 -0.110973 -0.626978 0.135564 -0.070631 0.252424 0.177324 0.412827
id_577 0.333325 0.401426 -0.070081 -0.549433 -0.107356 0.015721 0.156877 -0.084673 0.614287 -0.007945
id_278 -0.160591 0.171076 0.316572 0.526467 -0.211097 -0.078513 -0.212427 0.302117 -0.296428 0.540890
id_104 -0.085192 -0.163789 0.405993 0.649697 -0.194220 -0.126632 -0.347194 0.273406 -0.314156 0.176731
id_590 0.529649 0.393683 0.051313 -0.501259 -0.371745 -0.090690 0.002399 -0.094998 0.339499 0.199707
id_74 0.513662 -0.167076 -0.083574 -0.175908 -0.120417 0.030660 0.311592 0.194793 0.574273 0.435941
id_247 0.305365 0.140419 -0.019121 -0.702112 -0.198870 0.092651 0.239046 0.198643 0.366760 0.338318
id_243 -0.144711 -0.108924 0.427939 0.459175 -0.278960 -0.097716 -0.235520 0.445900 -0.400944 0.266084
id_527 0.210651 0.316510 0.098445 -0.515185 -0.680081 -0.217545 -0.169383 -0.016031 0.166713 -0.117323
id_488 -0.244644 -0.184890 0.418536 0.384778 -0.180743 -0.072877 -0.405924 0.548765 -0.185012 0.211219
id_487 0.318249 0.250959 0.092414 -0.378911 -0.449894 -0.318275 0.406468 -0.096058 0.426506 0.153524
id_529 0.162583 0.020700 -0.181055 -0.772877 -0.257667 -0.007236 -0.066695 0.036720 0.462578 0.238328
id_664 0.055293 -0.105711 0.337700 0.650636 -0.238475 0.009510 -0.378032 0.411840 -0.242190 0.142346
id_37 -0.023436 0.102771 0.309777 0.109937 -0.408569 -0.372423 -0.426806 0.529912 -0.175898 0.285137
id_34 -0.085688 -0.017040 0.505551 0.465009 -0.162258 -0.067340 -0.228754 0.498141 -0.348870 0.259819
id_233 -0.092538 0.136896 0.577670 0.497548 -0.084244 -0.053199 -0.333649 0.424227 -0.150156 0.260143
id_338 0.051931 -0.051271 -0.690327 0.145862 -0.022735 0.184703 0.609841 0.214650 -0.061259 -0.201203
id_109 0.362849 0.144836 -0.007269 -0.354964 -0.303518 -0.379525 -0.327104 0.596179 -0.150736 0.000983
id_512 0.232885 0.171657 0.114417 -0.607917 0.032871 -0.443334 0.413559 0.204946 0.218098 -0.274624
id_194 0.208556 -0.178706 0.609046 0.354913 -0.146470 0.092186 -0.426647 0.258655 -0.095003 0.373846
id_195 0.136394 0.345008 -0.153052 -0.658494 -0.289309 -0.264108 0.081402 -0.166713 0.459969 -0.076697
id_562 0.441292 0.308591 -0.021501 -0.065267 -0.702327 0.167771 -0.253263 0.057287 0.320652 0.116870
id_584 -0.414799 0.017214 0.447168 0.196332 -0.234390 0.001638 0.114802 0.506070 -0.495358 -0.139763
id_581 0.079732 0.268111 -0.173725 -0.455438 -0.309391 -0.114320 -0.312910 0.084041 0.596977 0.337649
id_601 0.178796 0.323628 0.547330 0.212747 0.052257 -0.056959 0.015912 0.660870 -0.230849 0.148983
id_395 0.062935 0.403814 0.209790 -0.573341 -0.365756 -0.243904 -0.014095 0.266044 0.396576 0.196783
id_396 -0.225134 -0.366009 0.032280 -0.029316 -0.129427 -0.582559 -0.275673 0.450938 -0.282153 -0.313646
id_253 0.390664 0.030033 -0.046807 -0.454389 -0.436593 -0.046685 -0.249974 0.522735 0.326058 0.054534
id_176 -0.163416 -0.180024 0.352382 0.529541 -0.141952 0.045614 -0.232001 0.504871 -0.273206 0.361536
id_272 0.560532 0.386564 -0.089567 -0.282351 -0.314110 -0.140912 0.029791 -0.105612 0.560972 -0.058098
id_342 0.431917 0.077448 -0.149904 -0.446209 -0.064032 -0.339320 0.462681 -0.195438 0.460536 0.047695
id_354 0.661664 0.233789 0.000090 -0.459845 -0.226475 0.023313 -0.225049 0.076777 0.360868 0.239758
id_219 0.013263 -0.060704 0.436805 0.416085 -0.248709 0.045940 -0.443136 0.416473 -0.308519 0.321315
id_138 0.490538 -0.127082 0.260601 -0.394846 -0.349491 0.155347 0.342150 -0.046848 0.449381 -0.227871
id_645 0.331117 0.324375 -0.254789 -0.450100 -0.247684 -0.129170 0.123035 0.480043 0.382593 0.218282
id_479 0.126358 -0.165458 0.532600 0.345108 -0.107726 -0.106832 -0.143012 0.460876 -0.352289 0.417026
id_387 -0.157556 0.054805 0.177698 0.600912 0.028828 -0.162675 -0.097063 0.425219 -0.526775 0.290659
id_264 0.467410 0.325268 -0.174798 -0.473873 -0.291669 -0.252434 -0.152759 0.185663 0.381202 0.262113
id_508 0.402739 -0.102280 -0.598281 -0.496459 -0.136224 0.260171 0.074517 0.209254 0.285711 0.075576
id_316 0.083556 0.099448 0.331711 0.410025 -0.303601 0.086225 -0.410490 0.458988 -0.300161 0.368915
id_687 -0.046956 0.098588 0.174161 -0.595924 -0.245123 -0.378261 0.096504 0.619808 -0.052668 0.056588
id_446 0.533683 0.037588 0.162823 -0.430933 -0.571946 -0.138838 -0.206315 0.085171 0.287969 0.149698
id_867 -0.216189 -0.000217 0.138811 0.397343 -0.090602 -0.103388 -0.385206 0.744246 -0.234285 -0.006199
id_268 -0.035743 -0.161179 -0.480821 -0.459922 -0.239187 0.212433 0.126505 0.495557 0.046636 -0.404886
id_538 0.386790 0.055041 0.378835 -0.041427 -0.719199 0.103120 -0.353283 0.170548 -0.048942 0.134017
id_408 0.691971 0.058630 -0.148344 -0.369402 -0.287361 -0.251149 -0.118326 0.322264 0.211977 0.225462
id_158 -0.088746 0.236998 -0.002379 0.029965 -0.358706 -0.359233 0.073936 0.812927 -0.015951 -0.103742
id_653 0.046447 0.126121 -0.197787 -0.422156 -0.423712 -0.099559 0.310616 -0.293995 0.625257 0.035991
id_875 0.606672 0.445240 -0.049995 -0.031478 -0.572158 -0.063023 -0.275731 -0.102704 0.110756 0.006386
id_659 0.479874 0.478923 0.110372 -0.463762 -0.455030 -0.199714 0.041192 -0.125274 0.188287 -0.115396
id_379 0.031606 0.147272 0.587588 0.563579 -0.081319 -0.096582 -0.334623 0.196222 -0.225907 0.311417
id_373 0.309714 -0.476876 0.704134 0.138904 0.026183 -0.065331 0.060912 0.269708 0.158084 -0.234883
id_302 -0.120255 0.528876 0.292960 -0.142556 -0.616239 -0.308476 0.340217 -0.066296 0.029159 -0.061489
id_306 0.520799 0.352633 0.022299 -0.604904 -0.124415 0.017878 0.133784 -0.276993 0.245239 0.259706
id_99 0.210272 -0.027215 0.300678 0.388960 -0.499365 -0.089042 -0.418618 0.398843 -0.275359 0.214278
id_119 0.355618 0.283602 0.307173 -0.401753 -0.327410 -0.168204 -0.375087 0.509946 -0.001478 -0.033438
id_279 -0.288705 -0.130102 -0.480267 -0.467499 -0.396927 0.106445 -0.237763 0.172973 0.437948 0.058138
id_754 -0.130087 0.168997 0.657272 0.511112 -0.215057 0.034811 -0.273536 0.340331 -0.140325 0.058958
id_615 0.132701 -0.050726 0.554868 -0.289251 -0.217299 -0.360751 -0.439079 0.459887 -0.000792 0.081396
id_2 -0.106726 -0.145049 0.198670 -0.012672 -0.588892 0.006345 0.419475 0.362956 0.465870 0.237434
id_70 -0.063766 0.349101 0.244882 0.316545 -0.330856 -0.376545 -0.419997 0.529296 -0.074516 -0.023226
id_78 -0.092603 -0.225455 0.270653 0.478708 -0.270257 0.160978 -0.289247 0.296196 -0.418170 0.439278
id_557 -0.296967 -0.099598 0.010034 -0.233616 -0.320365 -0.168672 -0.169247 0.648933 -0.391144 0.336716
id_491 -0.218636 -0.103142 0.217751 0.394114 -0.358016 -0.195398 -0.249805 0.557902 -0.238974 0.376427
id_806 0.448778 0.432888 0.032154 0.082643 0.105467 -0.080252 -0.367816 0.354030 0.523430 0.226215
id_238 0.559259 0.359015 -0.037749 -0.395278 -0.036083 -0.339452 0.188453 0.160264 0.338847 -0.328819
id_336 0.483510 0.157413 -0.085441 -0.227576 -0.201246 -0.001910 0.342686 0.693797 0.034648 0.204588
id_481 -0.318724 0.380751 0.194277 0.247075 -0.051697 -0.215707 -0.061769 0.719088 -0.024498 -0.289739
id_429 -0.137282 0.324709 -0.144706 -0.033006 -0.339008 -0.081826 0.302590 0.441036 0.617672 -0.253918
id_144 0.229373 0.182243 0.058806 -0.458847 -0.327491 -0.232754 -0.024952 0.266216 0.318066 0.605056
id_427 0.343556 0.441340 -0.176715 -0.523424 -0.420022 -0.341498 0.208072 0.091780 -0.031756 -0.190320
id_101 0.337104 0.055405 0.468715 -0.100864 -0.391728 -0.004474 -0.296099 0.283267 -0.202594 0.539438
id_513 -0.052540 0.038779 0.478569 0.384801 -0.294894 -0.046710 -0.298123 0.372728 -0.449940 0.315025
id_106 0.240764 -0.187544 -0.277997 -0.439707 0.308427 -0.499004 0.338372 0.319052 0.185746 0.203253
id_298 0.357554 0.002854 -0.078027 -0.348507 -0.347517 -0.279734 -0.245306 0.334488 0.611080 0.010321
id_292 0.016742 -0.227301 0.468432 0.610446 -0.336882 -0.094383 -0.220440 0.300671 -0.226239 0.208333
id_295 -0.068489 -0.020946 0.342209 0.439473 -0.167334 0.086330 -0.481867 0.547942 -0.239952 0.243229
id_201 0.029840 -0.038800 0.179190 -0.288979 -0.028856 -0.286194 -0.168280 0.468268 0.362747 0.648126
id_565 0.341664 -0.113296 0.063349 -0.643063 0.044149 -0.082999 -0.048308 0.390898 0.461977 -0.274755
id_421 0.179348 0.220254 0.455472 0.143560 0.247210 -0.288582 0.169142 0.628900 0.123553 0.327836
id_112 -0.278615 0.252283 0.387992 0.171438 -0.491126 0.003782 -0.272076 0.602572 -0.017522 -0.012381
id_110 0.463283 -0.011671 0.132169 -0.286220 -0.587582 0.002135 -0.191787 -0.216812 0.381549 0.333489
id_637 -0.100496 0.561194 -0.161317 -0.190488 -0.416527 -0.056597 -0.044042 0.638681 -0.041037 -0.156262
id_516 -0.142880 -0.052344 0.401287 0.639054 -0.040572 0.144388 -0.200672 0.368560 -0.437734 0.131201
id_608 0.017925 -0.140129 -0.154182 -0.538287 -0.483168 0.196926 0.084348 0.420365 0.261368 0.377030
id_256 0.403682 0.027967 -0.177605 -0.621715 -0.377434 -0.128317 -0.150066 -0.003863 0.440881 0.205796
id_171 0.275107 0.136930 0.324576 -0.399476 -0.669357 -0.040473 -0.198017 0.090730 0.277880 0.257486
id_173 0.597556 0.003500 -0.239579 -0.311055 -0.411389 -0.440983 -0.248460 0.224326 0.092057 0.067267
id_179 0.154927 0.148886 0.282142 0.129257 -0.575257 0.130350 -0.385786 0.291023 -0.372022 0.371054
id_555 -0.083374 0.186925 0.514801 0.389931 -0.190662 -0.190549 -0.097012 0.640453 -0.199244 0.095348
id_678 -0.149410 0.263492 0.157512 0.202652 -0.489627 -0.279073 -0.387668 0.502936 -0.335137 0.095954
id_470 0.262199 0.065352 0.137114 -0.451801 -0.208087 -0.459645 -0.300070 0.281749 0.517974 -0.108452
id_573 -0.048651 0.053933 0.109466 -0.686936 -0.281940 0.245102 -0.324539 -0.000797 0.239141 0.456924
id_229 0.324667 -0.271619 -0.174953 -0.120002 -0.273069 -0.683511 -0.402655 0.204748 -0.153147 0.080905
id_168 0.176874 -0.180105 0.217361 0.043249 -0.490146 0.265321 -0.070376 0.637096 0.350341 0.207219
id_350 0.281954 0.299337 -0.091593 -0.579430 -0.066275 -0.225101 0.102954 0.218854 0.389964 0.470255
id_355 0.038289 -0.130258 0.425075 0.469145 -0.070220 -0.107028 -0.411968 0.399112 -0.360173 0.325057
id_357 0.277531 0.304807 0.265374 -0.384585 -0.020277 -0.142716 -0.271257 0.670804 0.245848 0.083436
id_222 0.204942 0.059652 0.327864 -0.294359 -0.460727 -0.365476 -0.331159 0.527816 0.150720 0.059031
id_593 0.503293 -0.059853 0.310725 -0.572156 -0.296050 -0.110788 0.271505 0.274126 0.149475 0.219268
id_157 -0.201004 -0.001059 0.470365 0.452338 -0.069558 0.010044 -0.083007 0.476149 -0.402682 0.364751
id_500 -0.022786 -0.121052 0.435063 -0.269376 -0.358111 -0.512018 -0.500384 0.133665 -0.126500 0.219832
id_153 0.232187 0.328304 -0.033944 0.128774 0.200472 0.449649 0.636845 0.084629 -0.005548 -0.406735
id_431 -0.182672 0.453606 -0.117583 0.202115 -0.449052 -0.346829 0.360875 0.464721 0.154512 0.119112
id_433 -0.171012 0.467723 -0.313717 -0.446011 -0.044835 -0.424002 0.077336 0.440840 0.229418 0.141084
id_137 0.376079 0.328018 0.063377 -0.721044 -0.185281 -0.108481 0.036714 -0.000771 0.379667 0.188294
id_139 0.260867 0.304869 -0.087138 -0.540706 -0.203849 0.140860 0.319610 -0.049622 0.270580 0.547563
id_55 0.503108 0.337246 -0.114487 -0.444420 -0.373674 0.065235 -0.342234 0.277020 0.210993 0.200654
id_385 0.055984 -0.131679 -0.179528 0.329028 -0.557071 -0.065554 -0.387038 0.251222 -0.516426 0.211669
id_384 0.372053 0.286129 0.050708 0.302997 -0.322793 0.305279 -0.289061 0.308425 0.530465 0.166920
id_261 0.367217 0.139603 0.294578 -0.249719 -0.582160 -0.284339 0.343976 -0.237771 0.034639 0.317352
id_163 -0.043998 -0.048948 0.540698 0.414896 -0.248758 -0.103880 -0.285527 0.339852 -0.287717 0.422726
id_160 0.258025 0.199215 0.134202 -0.528625 -0.690229 -0.070442 0.119597 0.118362 0.147390 0.254690
id_572 0.193854 0.437515 -0.324266 -0.414881 -0.437603 -0.171726 -0.065980 0.483213 0.184020 0.032091
id_444 0.052886 -0.245708 -0.197939 0.040972 0.033625 -0.247567 -0.459153 0.760055 -0.099356 0.187553
id_591 -0.149250 -0.091971 0.379566 0.482420 -0.196703 0.005927 -0.347500 0.442727 -0.413684 0.256596
id_65 -0.274782 0.237925 -0.091318 0.028338 0.001189 -0.276039 -0.424415 0.744354 0.106671 -0.192292
id_60 0.247972 -0.278288 0.041564 -0.069022 -0.350385 -0.371599 0.392097 0.235997 0.294803 0.545321
id_62 0.191033 -0.040663 0.134420 -0.542841 -0.001880 -0.321140 0.427493 0.062855 0.595225 0.070565
id_533 -0.108048 0.179300 0.442180 0.445179 -0.339972 0.047725 -0.373781 0.221184 -0.451413 0.228478
id_80 0.099129 0.071063 -0.412225 -0.253442 -0.311705 0.065004 0.419847 0.162390 0.647775 0.165293
id_405 0.429909 0.450942 -0.176352 -0.605550 -0.336549 -0.008419 -0.200138 0.216788 0.015991 0.115734
id_382 0.315912 -0.055992 0.159129 0.456308 -0.711693 -0.109750 0.042813 0.017079 -0.010038 0.377820
id_228 0.250088 0.342214 0.041767 -0.442013 -0.701841 -0.151614 0.207334 -0.120410 0.138147 0.176316
id_120 -0.253461 0.135108 0.219122 0.201767 0.331010 -0.389150 -0.081622 0.741923 0.038254 0.095912
id_712 0.493663 0.358989 0.109699 -0.497354 -0.386720 -0.070167 -0.043193 -0.178823 0.285166 0.313671
id_658 -0.176498 0.205773 0.397112 0.127886 -0.232590 0.427163 -0.059576 0.341194 -0.303659 0.551105
id_377 0.451464 -0.136851 0.517346 0.055564 0.345939 0.472873 0.115823 0.286269 0.255631 0.052181
id_95 0.448937 -0.205669 0.513989 -0.507541 -0.137168 0.251713 -0.048644 -0.351856 -0.139907 0.080347
id_96 -0.046252 0.123605 0.218151 0.451866 0.007373 0.271269 -0.381604 0.385398 -0.455276 0.394638
id_287 0.092581 0.111323 0.408504 0.557606 -0.271334 0.008241 -0.216854 0.250991 -0.515377 0.227836
id_276 0.021486 0.014956 0.028705 -0.541926 -0.047417 -0.407251 0.148155 -0.002707 0.669245 0.258569
id_690 -0.335519 0.219376 0.450949 0.066714 -0.097026 -0.000059 -0.359783 0.483627 -0.496838 -0.109062
id_456 0.047974 -0.075565 0.578329 -0.184526 -0.216961 0.269764 0.012376 0.435462 0.363914 -0.425929
id_616 0.415503 0.287773 -0.252992 0.083763 -0.067117 -0.112959 -0.473034 0.577933 0.278926 -0.143844
id_8 0.406224 0.440268 -0.083688 -0.615238 -0.409069 0.164910 0.006930 0.006792 0.232789 -0.082508
id_9 -0.094661 -0.412731 -0.039725 -0.098179 0.289916 -0.269934 0.595951 0.176521 -0.406338 0.318013
id_620 -0.176969 0.101275 0.301986 -0.417757 0.275382 -0.333001 -0.481296 0.226755 -0.114193 0.458127
id_623 0.359732 -0.247844 0.291717 0.066067 -0.694068 -0.123951 0.355387 0.029917 -0.118127 -0.285408
id_625 0.419786 0.225951 -0.309766 -0.301824 -0.075089 -0.324497 0.317666 -0.348946 0.312506 0.392940
id_626 0.452153 0.077484 -0.316892 -0.586046 -0.508991 -0.084488 -0.074346 0.068274 0.244076 -0.098549
id_627 -0.465529 0.507670 0.057753 -0.349629 0.005079 0.259594 0.144805 0.331106 0.369401 -0.255943
id_494 0.064110 0.053115 0.188831 -0.068562 -0.512300 -0.101533 0.357133 0.517210 -0.499937 0.186985
id_245 0.057301 0.236493 0.223098 -0.678512 -0.331419 0.113185 0.247356 0.059352 0.488337 0.069320
id_241 0.132086 0.354050 -0.124007 0.302457 -0.026217 -0.382103 0.019297 0.707137 0.213168 0.240413
id_646 -0.428269 0.448691 -0.514658 0.103612 -0.089104 -0.087056 -0.066837 0.281111 0.085175 0.483104
id_332 0.032133 0.255026 0.617026 0.236385 -0.296080 -0.269752 -0.491872 0.197124 -0.084017 0.221464
id_337 0.428297 0.171733 -0.067157 -0.032407 -0.321577 -0.135916 0.012852 0.452685 0.568162 0.362943
id_149 0.187765 -0.205601 0.229892 -0.685657 -0.378191 0.272233 -0.347859 -0.072485 -0.120926 -0.203653
id_797 -0.418457 0.414486 -0.424049 0.162636 -0.280126 0.265007 -0.338720 0.028624 0.103110 -0.414663
id_489 -0.360338 0.298834 0.347817 0.376646 -0.516267 -0.406732 0.059436 -0.023217 0.285621 0.020089
id_480 0.233041 0.105537 -0.173353 0.048049 -0.134377 -0.036363 -0.343712 0.805699 -0.079030 -0.330575
id_462 0.432627 0.409573 0.021813 -0.253700 -0.567693 0.031577 -0.155016 -0.173736 0.436638 0.110020
id_705 0.484582 0.161600 0.063614 0.317161 0.080061 0.224903 -0.161599 0.518586 -0.319661 0.424510
id_346 -0.101552 -0.197471 0.110843 -0.051196 -0.623343 -0.216325 0.029643 0.555346 0.282895 0.333339
id_846 0.375519 0.134302 -0.087849 -0.468409 0.041790 0.074760 0.198055 0.644128 -0.372464 0.116762
id_391 -0.131690 0.024535 -0.398322 -0.688170 -0.215917 0.254032 0.243446 0.401672 0.069392 -0.115079
id_362 0.353800 0.452512 0.202061 -0.080213 -0.518822 0.171785 -0.108413 -0.109793 0.477522 -0.268839
id_410 0.301557 -0.158767 -0.096631 -0.427632 -0.604254 0.051713 0.244858 0.173439 0.475275 -0.089047
id_140 -0.313122 -0.055748 0.307640 0.628089 0.055163 0.113618 -0.126642 0.259605 -0.467348 0.303166
id_142 -0.135258 -0.166848 -0.410892 -0.292363 -0.592036 -0.238438 -0.251247 0.477482 0.031746 0.008741
id_519 0.512575 0.199416 0.066067 -0.480432 -0.284409 -0.185241 0.167601 -0.219882 0.414036 0.315048
id_744 0.063069 0.239396 0.190681 -0.079706 -0.741169 -0.015846 0.090096 -0.206985 0.201863 0.504686
id_586 -0.038027 0.528049 -0.079255 0.143710 -0.084162 -0.317616 -0.223723 0.535382 -0.355453 -0.348981
id_420 0.213201 0.358616 -0.274742 -0.556751 -0.321128 -0.259004 -0.137747 -0.259959 0.344056 0.255638
id_588 0.247869 -0.020695 0.190731 -0.555738 -0.410202 -0.270617 0.297777 0.375902 0.314572 -0.149938
id_117 0.364909 0.199212 -0.239740 -0.297431 -0.431049 -0.321864 -0.091266 0.258886 0.440938 0.349338
id_732 0.055616 0.400361 0.256995 0.364916 -0.356601 -0.001607 0.371148 0.424809 -0.356680 0.254570
id_630 0.612220 0.367557 -0.088325 -0.333610 0.090887 0.246592 0.146055 -0.074978 0.523983 0.020309
id_47 0.606200 0.243515 -0.081510 -0.224545 -0.226483 0.051432 -0.328102 0.179635 0.542901 0.166002
id_48 0.312009 0.069718 -0.286935 -0.335344 -0.255796 0.214157 0.412191 0.422955 0.357411 0.339372
id_609 -0.034682 -0.107202 -0.724406 -0.368572 0.005866 -0.395007 -0.051439 -0.041732 0.378866 -0.150681
id_522 0.122543 0.331195 0.129038 -0.191799 -0.390927 0.146668 0.201662 0.619951 0.367551 0.295668
id_323 0.357511 0.490114 0.431635 -0.402266 0.122364 0.202860 -0.353836 0.258176 0.032990 0.186494
id_174 0.100521 -0.189844 0.458990 -0.027882 -0.684074 0.299974 -0.204951 0.017237 -0.363426 0.100417
id_639 -0.220315 0.073798 -0.356616 -0.307125 -0.307794 0.386092 0.100240 0.678824 0.085167 0.051059
id_553 0.017904 0.342525 0.003171 0.485817 -0.330976 0.064450 0.205013 0.648318 0.109995 -0.241213
id_551 -0.027253 -0.063233 0.604772 -0.070385 -0.145522 -0.184837 -0.496463 -0.250116 -0.020234 0.509677
id_273 0.633166 0.453336 -0.209556 -0.460537 -0.005223 -0.092552 0.118214 0.092288 0.282165 -0.163943
id_497 -0.058391 0.427795 -0.260796 -0.552149 -0.399128 0.203400 -0.226785 0.350405 0.249973 -0.057642
id_675 0.211912 0.185929 0.590439 0.558059 -0.158654 -0.131959 -0.180195 0.137605 -0.328058 0.242619
id_778 0.409093 0.016760 -0.296180 -0.303645 -0.543823 0.201492 0.309494 -0.303611 0.253611 -0.252611
id_779 0.013070 -0.452142 0.407915 0.230570 -0.047179 0.127702 0.372111 0.073918 0.161985 0.622203
id_473 0.466170 0.275648 0.036107 -0.428980 -0.427889 -0.271394 -0.138394 -0.218073 0.375812 -0.238094
id_772 0.104352 0.249863 0.219457 -0.537156 -0.648147 -0.176974 0.014753 -0.269534 0.007391 -0.256216
id_773 -0.192801 -0.098586 0.323572 0.523093 -0.187450 -0.148930 -0.310999 0.516608 -0.363269 0.147981
id_770 0.338761 0.635476 -0.411953 -0.030907 0.049791 0.431773 0.024977 0.239966 0.061267 0.244706
id_785 -0.043106 0.457481 -0.175129 -0.351459 -0.042721 -0.175495 -0.513309 0.580904 -0.032899 0.004188
id_782 -0.044806 0.034411 0.284568 0.304457 -0.540335 0.214146 -0.296851 0.181889 -0.289637 0.529360
id_347 0.414956 0.446211 -0.115038 -0.389472 -0.189250 0.197712 0.157446 -0.238207 0.522424 0.185528
id_344 -0.150501 0.436679 0.212950 0.207597 -0.448860 -0.476757 0.361418 0.240497 -0.162721 -0.233462
id_794 -0.193496 -0.123681 -0.332486 -0.695437 -0.101103 0.381528 -0.088425 -0.221191 0.236738 -0.290701
id_358 0.016784 0.184000 -0.277683 -0.808274 -0.142550 0.027161 0.328713 0.200659 0.135058 -0.218705
id_359 -0.143427 0.180173 0.123335 -0.383987 -0.599926 -0.011552 -0.110959 0.604120 0.123661 0.178043
id_225 0.257359 -0.420270 0.342376 0.305382 0.130775 -0.004139 -0.311742 0.625937 0.185123 -0.079309
id_156 0.406652 0.411264 -0.130303 0.207782 -0.477835 0.103309 0.081961 0.552150 -0.218198 0.084547
id_507 0.221398 0.109952 -0.072643 -0.531845 -0.403561 -0.037029 -0.113799 -0.093008 0.617345 0.289499
id_187 0.397431 0.172835 -0.101191 -0.631194 -0.342438 -0.195521 0.222380 -0.128603 0.422359 0.060499
id_189 0.450668 0.298398 0.460180 0.105134 -0.405664 0.020938 -0.086146 0.318771 -0.315775 0.333597
id_211 0.472735 -0.097320 0.234223 -0.469353 -0.462491 -0.106639 0.183247 -0.249453 0.308439 0.275111
id_215 0.448911 -0.057115 -0.149527 -0.492401 -0.234396 0.242172 0.448963 0.196075 0.299172 0.295455
id_598 0.149872 -0.182325 -0.290003 -0.674105 0.234128 0.282161 0.404044 0.292589 0.139958 0.053833
id_216 -0.058407 0.461602 -0.158027 -0.376932 -0.389925 -0.427183 0.388124 0.142639 0.034792 0.331268
id_727 0.304413 0.256777 0.519079 -0.210183 -0.354642 -0.341405 -0.167803 -0.163507 -0.237120 0.417531
id_642 -0.212230 0.286159 0.431390 0.032631 -0.203598 -0.007346 -0.500518 0.247610 -0.473432 0.329298
id_643 0.199707 0.217569 -0.159605 -0.453854 -0.567525 -0.372023 -0.195862 -0.064547 0.371284 0.201142
id_269 0.698537 0.187202 0.135313 -0.077908 -0.273430 -0.397355 -0.007675 0.376013 0.224873 -0.167194
id_318 0.278770 0.504656 0.029777 -0.435613 -0.448860 0.119984 -0.090206 0.027045 0.221091 0.450936
id_312 -0.381833 0.172830 0.167924 0.030666 -0.409917 -0.089401 -0.377811 0.348873 -0.518687 0.292713
id_167 0.297869 0.032273 -0.142584 -0.670456 -0.331356 0.144489 0.166532 0.182999 0.486476 0.108796
id_689 -0.024405 0.498806 0.038870 -0.481337 -0.245206 -0.421376 -0.346479 0.364945 0.076151 0.143825
id_445 0.259798 -0.027978 -0.529576 -0.454798 -0.314033 -0.428356 -0.262567 -0.158343 -0.189708 0.179784
id_764 -0.079906 0.515546 0.012118 -0.223042 -0.320042 0.150290 0.147944 0.514745 0.231935 0.460734
id_64 -0.128248 -0.024179 0.034742 -0.388394 -0.294413 0.371741 0.309331 0.599458 0.329187 -0.206497
id_539 0.537109 0.316969 -0.044194 -0.440149 -0.396305 -0.104901 0.198789 0.422296 -0.170505 0.019399
id_530 0.134305 0.619157 -0.316651 -0.107874 -0.502129 -0.461643 0.038475 -0.098192 -0.024369 0.098680
id_535 0.337209 0.455484 0.107341 -0.663252 -0.252931 0.031468 0.273032 -0.113407 0.196051 -0.191289
id_511 -0.098431 -0.208694 0.293391 -0.365604 -0.745362 -0.198617 -0.017446 0.291047 0.209275 0.056497
id_403 -0.139561 0.015043 0.348978 0.652123 -0.138158 0.074341 -0.228304 0.322202 -0.488282 0.119484
id_125 0.046114 0.367883 0.245930 -0.390874 -0.375552 0.127314 -0.420332 0.012627 0.208316 0.521334
id_441 0.503676 0.085860 -0.274789 -0.544326 0.041111 -0.078324 0.080506 0.253090 0.522000 0.127645
id_710 -0.010234 0.241713 0.283366 -0.314740 -0.174058 -0.323488 0.004749 -0.567645 0.506801 0.219274
id_652 0.498324 0.268488 0.458255 0.039662 -0.576073 -0.167416 -0.219300 0.006025 -0.127110 0.209388
id_654 -0.277509 0.473640 -0.437690 -0.120038 0.073211 -0.079152 0.070278 0.649399 -0.231315 -0.029714
id_656 0.546254 0.109756 0.036388 -0.315492 -0.122494 -0.404480 0.229665 0.135346 0.576936 0.078557
id_24 0.168203 -0.341025 0.263059 0.295018 -0.131864 0.125706 -0.555329 0.274267 -0.163312 0.505669
id_27 -0.512926 -0.283430 0.382693 -0.323282 0.028106 0.109569 -0.246190 0.565810 0.108687 -0.015835
id_871 0.243596 0.134876 -0.027963 -0.200384 -0.531590 -0.395123 -0.178322 0.244196 0.537002 0.251044
id_175 0.187239 -0.222335 -0.191515 -0.098461 -0.048239 -0.626046 -0.450404 0.258687 0.206958 0.402817
id_239 -0.382262 0.254711 0.158720 0.466699 -0.118764 -0.078694 -0.364919 0.434224 -0.424961 0.152945
id_370 0.560470 -0.081500 0.131150 -0.590428 -0.086046 -0.315715 0.237271 0.334146 0.187634 -0.056457
id_309 -0.023269 0.075572 0.174494 -0.244589 0.087802 0.396315 0.241013 0.580002 0.574649 -0.118278
id_300 0.404051 -0.122478 0.086987 0.271642 -0.585745 -0.242286 -0.057172 -0.235812 -0.231688 0.475426
id_307 -0.458104 -0.180317 0.349847 -0.229164 0.172862 0.101343 -0.456658 0.090234 -0.336992 -0.460786
id_305 -0.116792 0.048597 0.350205 0.045094 -0.277422 -0.309493 -0.696310 0.305445 -0.123967 0.305057
id_304 0.474280 0.456946 -0.288445 -0.043127 -0.372522 -0.372605 0.052096 0.415994 -0.000673 0.166809
id_92 -0.211346 0.201200 -0.075854 0.299846 -0.334985 -0.123722 -0.427744 0.415603 -0.569498 -0.107932
id_281 0.345861 0.044403 0.436893 -0.382457 0.126484 -0.318526 0.336248 0.490189 -0.244645 -0.102971
id_570 -0.405138 -0.202503 0.241193 0.393003 -0.046002 -0.069251 -0.159509 0.607683 -0.422583 -0.044949
id_756 0.222665 0.270886 0.168082 -0.487851 -0.111787 -0.173396 0.346389 0.092636 0.526038 0.403665
id_753 0.534659 0.564935 0.324476 -0.100301 0.028212 -0.169352 0.069510 -0.393266 -0.279359 0.112412
id_697 0.290098 0.174219 0.521605 0.129307 -0.504952 0.016182 -0.464990 0.260720 -0.027064 0.237774
id_696 0.022418 0.385868 0.682234 -0.228313 -0.231215 0.122253 -0.171935 0.004103 -0.482844 -0.043705
id_596 0.107089 -0.143487 0.141951 -0.402594 -0.559448 0.325074 -0.084818 0.527134 0.157755 0.238968
id_592 -0.373148 0.282267 0.122334 0.301114 -0.258815 -0.424348 -0.313369 0.453309 -0.043822 -0.350408
id_617 0.536994 0.097855 0.458582 -0.039498 -0.612385 -0.191613 -0.179812 0.086857 -0.193772 0.032395
id_3 -0.178039 -0.247038 0.291488 0.338858 -0.536656 -0.137511 -0.412674 -0.301355 -0.065400 0.367673
id_610 0.326385 0.179693 0.374212 0.114299 -0.067520 0.073209 0.336578 0.583234 -0.204362 0.450505
id_621 0.087035 -0.476246 -0.112879 -0.250835 0.222208 0.168194 -0.161859 0.734107 0.182180 -0.118273
id_490 -0.179471 0.510432 0.274944 -0.183705 0.280221 -0.219258 -0.052425 -0.056940 -0.331992 0.595902
id_803 -0.532700 0.163886 0.069527 0.461022 -0.065161 0.242668 -0.290603 0.263830 -0.418772 -0.281843
id_244 -0.426913 0.472911 0.047955 0.089978 0.153733 -0.146162 0.332873 0.060009 0.504614 -0.411906
id_200 0.350814 0.102120 0.046617 0.545320 -0.337140 0.362550 0.101812 -0.346609 -0.437297 0.010727
id_330 0.196850 0.222129 0.412772 0.002240 -0.560335 -0.238082 -0.353807 0.314647 -0.344954 0.166403
id_416 0.030720 -0.188674 0.370243 0.436036 -0.388146 -0.084733 -0.337993 0.484148 -0.274132 0.233724
id_414 0.144287 0.075308 0.299828 0.760830 -0.069257 -0.199953 -0.175738 0.433485 -0.169114 0.112162
id_796 0.119457 0.308230 0.511976 0.574739 -0.109020 -0.106018 0.092788 0.105715 -0.391811 -0.319146
id_477 0.233707 -0.047066 0.487055 0.278179 0.300903 0.160807 -0.105409 0.540485 -0.360052 0.281576
id_525 -0.404035 -0.192217 -0.057538 0.100557 -0.114572 0.021680 0.082727 0.510734 0.635193 -0.318789
id_524 -0.081668 -0.188645 0.381992 0.226007 -0.215592 -0.214440 -0.530792 0.436097 -0.431139 0.102373
id_520 -0.111041 -0.058859 0.205871 0.408333 -0.458648 -0.580922 -0.048057 -0.067084 -0.255313 -0.394035
id_660 -0.375491 -0.310016 -0.322386 0.276255 -0.464574 0.142284 0.484211 0.237177 -0.232133 0.044435
id_668 -0.395195 -0.371982 -0.316566 -0.168956 -0.028862 -0.175875 0.001446 0.362591 0.230231 0.600370
id_669 -0.304931 0.105636 -0.054110 -0.649037 -0.385636 -0.054666 0.524959 -0.027749 0.180734 0.104696
id_465 0.048454 -0.045222 0.624144 0.548044 -0.432228 0.126010 -0.098333 -0.008896 -0.120038 0.280788
id_463 0.264283 0.379665 0.134619 0.245736 -0.440201 -0.376360 0.261683 0.365815 0.410306 -0.037770
id_460 0.201615 0.009544 -0.066306 -0.659759 -0.475881 -0.254942 -0.179745 0.224795 0.230178 0.303812
id_703 0.268544 -0.071122 0.225852 -0.584185 -0.155835 -0.534724 -0.282711 -0.337138 0.149516 -0.066240
id_469 0.173681 -0.170273 -0.361285 -0.619536 -0.075576 0.133851 0.272506 -0.236709 0.521905 0.013656
id_33 -0.110904 0.523730 -0.304484 0.075070 -0.521007 -0.189714 -0.121861 0.073678 0.197785 0.498221
id_232 0.441768 0.043185 0.116528 -0.284524 -0.105397 0.348235 0.063643 0.157200 0.692756 -0.259606
id_847 -0.049025 0.151321 0.512271 0.263046 -0.461813 0.026401 -0.362608 0.351549 -0.196759 0.367872
id_236 0.353606 0.125150 0.051175 -0.079028 -0.558821 -0.170366 0.385947 0.281888 0.326131 0.417556
id_364 -0.248161 0.300974 0.170672 0.460305 0.314210 -0.416626 -0.159440 0.471120 0.215018 0.202257
id_419 0.347726 -0.040159 -0.323680 -0.366287 -0.328745 0.080275 0.604282 0.004545 0.202639 0.343193
id_510 0.228159 0.511694 -0.288511 -0.220652 -0.187040 -0.380089 0.243510 -0.129754 0.519009 -0.170972
id_291 0.430038 -0.323959 -0.177584 -0.328373 -0.394751 0.192553 -0.205344 0.272134 -0.278943 0.428737
id_290 0.140299 -0.117283 0.076534 -0.478047 -0.637467 -0.341849 0.381924 -0.109882 0.009716 -0.225643
id_293 -0.066416 0.088859 0.471064 -0.024446 -0.112066 0.376348 0.501788 0.151847 0.575454 0.070718
id_294 0.313022 -0.078989 0.144186 -0.370435 -0.128817 -0.029325 -0.460070 0.643159 0.161872 -0.262283
id_296 -0.168829 -0.208873 0.531102 -0.177965 -0.476270 -0.237386 -0.454712 0.334639 0.091839 0.061337
id_198 0.368083 0.423344 -0.155330 -0.484008 -0.276359 0.056044 -0.168695 0.333532 0.435660 -0.133745
id_206 -0.250564 0.236201 0.362866 0.310566 -0.400236 0.143632 0.095682 0.506558 -0.422439 -0.168149
id_204 -0.423344 -0.343776 -0.158424 -0.205100 -0.225398 -0.347257 -0.017442 0.571424 -0.121052 0.350084
id_563 0.254993 -0.272675 0.459102 0.326234 0.117807 0.395840 -0.305431 0.416212 -0.078002 0.316625
id_743 0.182703 0.308638 0.342662 -0.358582 0.100723 -0.315566 -0.359215 0.360974 0.042531 0.504471
id_741 0.240472 0.394242 0.177382 0.488079 -0.532539 0.039895 -0.072234 0.003375 0.350029 -0.322679
id_746 -0.215103 0.189456 0.455716 0.357157 -0.453029 -0.140547 -0.274334 0.473325 -0.141279 0.195847
id_589 0.230239 0.160322 0.274880 0.228600 -0.591770 0.215836 -0.206489 -0.039450 -0.075175 0.588938
id_425 -0.276622 -0.179698 -0.201430 -0.086020 0.091227 0.313682 -0.370382 0.617007 -0.451049 -0.123175
id_116 0.289969 -0.269335 0.403553 -0.607514 -0.374899 0.007499 -0.302837 -0.251497 -0.087970 0.090235
id_737 -0.186118 0.050754 0.648546 0.380151 0.022565 0.060390 -0.308756 0.362750 -0.373167 0.165319
id_115 0.167500 -0.122414 0.569386 -0.210488 0.215452 -0.106111 0.359859 0.396107 0.327610 0.370198
id_633 0.050705 0.470040 -0.022082 -0.649774 -0.374731 0.093169 -0.132638 0.168608 0.285483 -0.277799
id_632 0.088579 0.480679 0.213714 -0.337830 -0.502489 -0.207573 -0.223093 0.292000 0.106535 0.399164
id_40 0.250870 0.067667 0.486434 0.635883 -0.260512 0.368166 -0.215105 -0.063197 0.125449 0.148684
id_605 0.081531 -0.232737 -0.106724 -0.565839 -0.024524 -0.349364 -0.039078 -0.113595 0.135111 0.672517
id_602 0.165376 -0.403123 -0.025442 0.373792 0.352098 0.503468 0.235374 -0.265346 0.322722 -0.249726
id_817 0.233116 0.346644 -0.422143 0.148400 -0.617573 -0.112548 -0.125421 -0.344225 0.224274 0.216062
id_392 -0.371580 -0.179555 0.403550 0.081333 -0.291065 0.404076 0.011949 0.620240 -0.141161 -0.086358
id_257 0.397920 0.524446 -0.233559 -0.067044 -0.600614 0.025291 -0.195317 -0.028595 0.279632 0.170391
id_321 -0.473328 0.335070 -0.275544 0.245105 0.469040 -0.266601 -0.394898 0.185321 0.008802 0.215053
id_322 0.344309 0.179349 0.056164 -0.312037 -0.537012 -0.290295 -0.359178 0.442920 0.222286 -0.038879
id_327 -0.178604 0.363298 0.068599 -0.455615 -0.264370 0.047880 0.486091 -0.153980 0.354479 0.407419
id_733 -0.051572 -0.011929 -0.397320 -0.083079 -0.183713 -0.210526 0.363138 0.600935 0.351477 -0.371259
id_178 -0.272841 0.234423 0.127787 0.490600 -0.422601 -0.139893 -0.069189 0.608831 -0.111014 -0.166245
id_552 0.264197 0.318156 -0.149550 -0.475035 -0.275633 -0.005129 -0.297669 0.498517 0.054113 0.406077
id_550 -0.313487 -0.139988 -0.448589 0.145286 -0.315714 -0.194776 0.590668 -0.052451 -0.226183 0.345512
id_554 0.369508 0.559481 -0.255724 0.139131 0.025839 -0.492229 0.083596 0.042521 -0.347146 0.305662
id_493 0.353026 0.258198 0.428423 -0.452589 -0.092469 -0.109585 -0.107964 0.433933 0.423499 0.143028
id_673 0.155143 0.520540 -0.006897 -0.053069 0.003978 0.294316 -0.491869 -0.151997 -0.039033 0.590682
id_677 -0.118423 0.250959 0.009824 0.306017 0.198538 -0.053610 -0.408052 0.229380 -0.623144 0.423710
id_679 -0.254625 0.356127 -0.278401 0.215593 0.058608 0.137377 0.322960 0.153641 0.635119 -0.361607
id_471 0.254075 0.300034 -0.315997 -0.388210 -0.167693 -0.393469 0.229196 0.044968 0.468676 -0.371101
id_472 0.124009 -0.207624 -0.539055 0.314909 -0.083368 0.556690 0.045874 -0.052977 0.377973 0.295191
id_786 0.461970 0.320861 0.447873 0.165544 -0.505030 0.014506 0.105158 -0.233462 0.047010 0.364140
id_789 0.362708 -0.038059 -0.350671 -0.738889 -0.256178 -0.062611 0.188041 0.034655 0.302604 -0.019777
id_708 0.205956 0.360088 0.554209 0.051599 -0.195926 0.086997 -0.585657 0.161209 0.060612 0.315432
id_606 0.355957 0.296853 0.515860 0.394207 -0.052591 -0.007005 -0.410571 0.116599 -0.203862 0.370301
id_759 0.308134 0.066699 -0.490767 0.194130 0.452047 0.132086 0.436081 0.320740 0.082507 0.316899
id_829 -0.242012 0.244533 -0.009508 0.360937 -0.453208 0.184918 -0.351688 0.574915 -0.238244 0.026519
id_823 -0.183224 0.349510 0.487307 -0.190006 -0.436383 0.247467 -0.107562 0.318850 -0.400949 -0.212216
id_223 0.040440 0.084918 0.300252 0.463914 -0.424641 0.229281 -0.355035 0.556611 -0.033297 0.126181
id_155 0.457155 0.437395 -0.206251 -0.247946 -0.561650 0.042657 -0.175614 0.162108 0.335389 -0.093821
id_182 0.535878 0.071453 -0.103246 -0.177357 -0.646807 0.298929 -0.206328 0.181537 -0.203956 0.201917
id_188 0.326795 0.242582 0.322875 0.421569 -0.416335 -0.186566 -0.195192 0.370686 -0.168373 0.374687
id_210 -0.024611 0.273925 -0.174301 0.326048 -0.352221 0.091123 0.393121 -0.005177 -0.057907 0.705255
id_439 0.422559 -0.104651 0.527919 0.161983 -0.338636 0.184803 -0.250452 0.103442 -0.387342 0.365061
id_432 0.623401 -0.243365 0.039862 0.046151 0.063689 -0.555908 -0.403601 0.233148 -0.100021 -0.089890
id_434 -0.300835 0.399699 0.462327 -0.029142 -0.086696 0.082077 0.003494 0.148096 0.248973 0.661029
id_133 0.218044 -0.014274 0.534167 0.462960 -0.117410 0.027593 -0.316454 0.540079 -0.201070 0.076045
id_750 0.302947 0.151214 -0.479127 -0.661093 -0.250757 -0.355145 -0.138036 0.034937 0.097296 0.001660
id_723 -0.270597 -0.233939 0.431912 0.438982 0.047741 0.073684 -0.056675 0.408691 0.437370 -0.351503
id_729 0.259285 0.407311 -0.294293 -0.435561 0.366946 0.033006 -0.077229 0.466683 -0.076473 0.353841
id_50 -0.237597 0.113057 0.177364 -0.703301 0.131573 -0.040675 0.119007 0.267137 0.507130 0.207374
id_52 0.380444 0.058542 0.083966 -0.528588 -0.325550 -0.167043 -0.087897 -0.284564 0.451521 0.372719
id_166 -0.094936 -0.355123 -0.168115 0.316261 -0.304145 -0.309098 -0.439624 0.581261 0.128260 -0.030999
id_265 0.052148 0.208412 0.329844 0.504643 -0.620070 -0.041745 -0.155111 0.375484 -0.183625 0.073395
id_319 0.304658 0.276346 0.322950 0.582621 -0.205149 -0.129822 -0.324488 0.298045 -0.104582 0.350815
id_686 0.476832 0.035844 -0.172453 -0.436771 -0.059916 -0.351950 -0.010217 -0.000084 0.573926 0.306403
id_680 0.527145 0.435211 -0.166576 -0.395093 -0.441550 -0.174633 -0.113252 -0.183129 -0.276413 -0.025168
id_443 -0.315198 -0.238132 0.185050 0.226038 -0.316104 0.214658 -0.022483 0.350613 -0.500419 0.488623
id_760 0.148802 0.724818 -0.203987 -0.033505 0.420644 -0.342239 -0.052790 0.075567 0.289473 -0.152982
id_766 0.077544 0.545907 0.158910 0.009622 -0.254330 -0.399269 -0.212251 0.260578 0.387046 0.428687
id_398 0.208966 0.343136 -0.371969 -0.592355 -0.109471 -0.153231 -0.138605 -0.217013 0.432417 0.246151
id_85 -0.121571 0.189323 0.192946 0.366562 0.017563 0.348555 0.481231 0.508909 0.284824 -0.290320
id_739 0.401453 0.413673 -0.188853 -0.623426 -0.405078 -0.146078 0.120311 0.025795 0.206676 -0.010123
id_532 0.174125 0.124501 -0.078144 -0.573113 -0.593650 -0.223309 -0.265239 0.176644 0.270856 0.205936
id_534 -0.033441 -0.263451 0.241083 -0.584877 0.303351 -0.226810 -0.029554 0.154324 0.597851 0.060778
id_537 0.404309 0.152414 0.144949 -0.128015 -0.313195 -0.359851 -0.303666 0.045892 0.036466 0.672810
id_442 -0.389133 -0.312749 -0.163718 -0.040490 -0.406868 -0.082062 -0.137451 0.663720 0.297148 -0.048274
id_220 0.068046 0.438968 0.329422 0.150724 -0.484253 -0.399731 0.113489 0.335982 0.337711 0.193239
id_406 -0.100641 0.711973 -0.302784 -0.372713 0.176438 0.072549 -0.026721 0.359047 0.220787 0.193918
id_407 -0.380894 0.006439 -0.071177 -0.164774 -0.402981 -0.068227 -0.339757 -0.307059 0.657804 0.114834
id_401 0.285800 -0.048842 0.228019 -0.166887 -0.156940 -0.355990 0.538117 -0.158051 0.542296 -0.275853
id_127 0.122695 0.025397 -0.378488 -0.732282 0.254364 0.244622 0.048247 0.008156 0.383717 -0.175037
id_129 -0.029880 -0.365882 -0.333277 0.178171 -0.559192 -0.344191 -0.246807 0.329807 -0.225838 -0.265643
id_715 0.067277 0.089798 -0.384555 -0.699788 -0.258601 -0.354697 -0.025173 0.017917 0.269650 -0.288919
id_719 0.018118 0.194809 -0.166814 -0.098737 0.238645 0.309756 -0.492981 0.448583 0.457606 0.342907
id_20 -0.080481 0.002866 0.604978 0.435801 -0.085976 0.076413 -0.206897 0.589983 -0.170529 0.066314
id_874 -0.098286 0.233130 0.542737 0.306804 -0.438443 0.357155 -0.226689 -0.049981 0.181201 0.375215
id_878 0.061798 0.247880 0.083568 -0.223178 -0.410142 0.464734 -0.239898 -0.109739 -0.110046 0.641909
id_13 -0.117699 -0.319252 0.481154 0.609868 -0.310407 0.158697 0.116630 -0.186899 -0.163043 0.290042
id_378 0.203836 0.036358 -0.433579 0.389640 0.093476 0.241740 -0.004785 -0.108804 0.330429 0.655056
id_376 -0.334341 0.033498 -0.100697 0.465817 -0.551743 0.030708 0.042986 -0.501510 0.287963 -0.135359
id_371 0.325018 0.331210 0.073376 -0.174173 -0.375520 0.247064 -0.189088 0.359509 0.355216 0.505676
id_303 -0.120767 0.061791 0.476729 -0.171588 -0.168112 0.145916 0.147949 0.177099 -0.505171 0.605707
id_755 -0.019832 -0.225724 0.458641 0.559530 -0.467278 -0.021027 -0.209573 -0.093046 -0.098569 0.379665
id_698 0.205345 0.121416 -0.338240 -0.583826 -0.440227 0.317748 0.357536 -0.178277 -0.072236 0.168036
id_752 0.140755 -0.049706 0.091193 0.515100 -0.629290 0.346302 -0.210558 0.318207 -0.081694 0.189414
id_695 -0.152918 0.486494 -0.027735 0.377227 -0.384716 0.222867 -0.392345 -0.023429 -0.399739 0.291411
id_107 -0.438301 -0.269382 0.356669 -0.253659 -0.009052 -0.021935 0.227964 0.519467 -0.462785 -0.084987
id_454 0.326812 -0.285512 0.204686 -0.324681 0.014924 0.288360 -0.259223 0.502256 0.511268 -0.011680
id_451 0.452062 -0.079048 0.412187 0.305015 0.084870 -0.153578 -0.049390 -0.002897 0.057081 0.699974
id_611 -0.171611 0.194095 0.399226 0.517419 -0.406617 0.306238 -0.147050 -0.132173 -0.433341 0.140628
id_612 0.468055 0.181442 0.467983 -0.376283 -0.404830 -0.174595 0.002859 0.360773 0.233620 -0.091064
id_624 0.155496 -0.307503 0.481538 0.169508 -0.401532 -0.152581 -0.517558 0.278555 -0.123265 0.274754
id_931 -0.423230 -0.235919 0.207885 0.409160 -0.076515 0.335995 -0.259766 0.582724 -0.166553 0.032518
id_75 0.630181 0.081143 0.034354 -0.062074 0.134570 0.199903 -0.338112 -0.193060 0.335251 0.518844
id_71 0.330358 -0.322254 0.259848 0.360935 -0.521282 0.108158 -0.262652 0.139599 0.303428 0.353899
id_499 0.419634 -0.177045 -0.158451 0.410148 -0.041933 -0.207470 0.027530 0.716654 0.186407 -0.073041
id_351 -0.188047 -0.027293 0.561279 0.218712 -0.447317 -0.123151 -0.088698 0.211361 -0.396425 0.419610
id_800 0.105444 -0.307918 -0.386826 -0.531863 0.377061 0.020574 0.476819 -0.122942 0.252149 0.113607
id_807 0.328785 -0.180811 -0.101712 0.065785 -0.684546 -0.341820 -0.470074 -0.139125 -0.007974 -0.136759
id_649 0.567260 -0.208603 -0.004839 -0.231119 -0.310100 0.194338 0.082330 0.457749 0.446367 0.178258
id_248 0.368532 -0.024141 -0.308380 -0.648309 -0.201708 0.316855 -0.322006 -0.027953 0.226650 -0.226443
id_249 -0.053130 0.334947 -0.207232 -0.623287 -0.336356 -0.410463 0.093641 0.244941 0.166005 0.274990
id_242 0.032209 0.434978 0.611691 -0.306659 -0.381305 0.019427 -0.012853 0.099546 0.159094 0.400493
id_897 0.447624 0.271602 -0.397050 0.013202 0.159640 -0.295009 0.345826 0.498821 -0.235381 -0.178057
id_231 0.739742 0.097042 -0.269165 -0.091191 -0.319811 -0.425818 -0.055525 0.207350 -0.075508 -0.164987
id_417 -0.283425 0.107022 -0.231284 -0.481855 0.002876 0.117922 0.404811 0.255112 0.533371 0.308525
id_415 0.220794 0.481102 -0.184180 0.016063 -0.381718 0.240866 0.159966 -0.116033 -0.276301 0.605385
id_790 -0.422246 -0.277745 0.375796 -0.353223 0.411881 -0.222557 -0.134232 -0.086033 0.176312 0.450438
id_791 0.048494 -0.508873 -0.102321 0.472441 0.552703 0.010859 0.075132 0.065362 -0.200023 0.386654
id_793 -0.253090 0.162909 0.429507 0.266993 -0.722776 -0.040046 -0.076231 -0.247039 -0.189052 -0.164484
id_526 0.346252 -0.033281 -0.250356 -0.672169 -0.431993 -0.359228 0.168136 -0.090684 0.037057 0.104804
id_486 0.231333 0.310673 -0.626360 -0.335069 -0.363175 -0.257496 0.270854 -0.083945 0.141686 -0.216069
id_483 0.281825 0.071402 0.249252 0.294485 -0.375278 -0.074860 -0.573600 0.187030 -0.175523 0.474748
id_464 0.561136 0.414098 0.237222 0.242124 -0.550550 -0.128823 0.088721 -0.068373 -0.246746 0.074973
id_707 0.487208 0.369151 0.197805 -0.524178 -0.032317 -0.031831 -0.225616 0.098500 0.421142 -0.269153
id_704 0.225904 -0.142159 -0.458571 -0.161612 -0.682081 0.006142 0.388567 0.035274 0.269927 0.044615
id_38 0.178036 0.015745 0.408836 0.456662 -0.490440 0.089535 -0.539120 -0.152222 0.136945 0.106039
id_335 -0.213107 0.357357 0.263819 0.155415 -0.807708 0.166559 0.180529 -0.007928 0.062254 0.128313
id_844 0.576441 0.464160 0.056330 0.150762 -0.572587 0.213278 0.172811 0.101076 -0.099955 -0.054367
id_843 0.410286 0.357269 0.030345 -0.714435 -0.214419 -0.177609 0.200761 -0.096699 0.060295 0.248745
id_367 -0.259392 -0.260602 0.047157 0.512209 0.127156 -0.133295 -0.382364 0.535757 -0.138682 0.337362
id_360 0.029621 0.105399 0.374760 0.061854 -0.382326 -0.227151 -0.297876 0.401702 -0.418764 0.469589
id_363 0.147245 -0.096809 0.055796 0.510821 -0.107055 -0.304036 -0.451507 0.555111 -0.254291 -0.155970
id_141 -0.138744 -0.085217 0.572257 0.048419 -0.311181 0.139610 -0.265733 0.619949 -0.269039 0.002949
id_426 0.023004 -0.049894 0.116440 -0.453267 -0.670879 -0.230031 -0.180227 0.025675 0.426936 -0.244058
id_514 0.154907 -0.146744 0.055318 -0.290565 -0.468647 0.433097 0.145097 0.647946 -0.089056 -0.104696
id_191 0.015964 0.273128 0.112235 0.542406 -0.183386 0.287483 -0.447588 -0.160663 -0.007119 0.525234
id_197 0.497768 0.380962 -0.627510 -0.231702 -0.085730 -0.221857 -0.109174 -0.148733 -0.009447 -0.262563
id_202 0.116155 -0.242760 0.445471 0.400236 -0.347526 0.434738 -0.264145 0.424719 0.016018 0.093572
id_569 0.495987 -0.165762 0.169408 -0.551682 -0.431438 -0.289506 -0.001224 0.070706 0.161741 0.303898
id_561 -0.235449 -0.303377 0.341061 0.468227 -0.474198 0.036687 -0.348634 -0.282916 -0.292134 -0.061867
id_560 0.023972 0.122758 -0.411171 0.122950 0.494716 0.383685 0.326572 -0.073674 -0.432655 -0.330078
id_742 -0.202214 -0.103375 -0.322457 -0.342149 0.631555 0.372251 0.009463 -0.317392 -0.031352 -0.296875
id_740 0.024102 0.146489 0.498872 0.668605 0.102085 -0.094239 -0.337869 -0.177245 -0.338277 0.052425
id_747 -0.082325 -0.223167 0.410039 -0.086984 -0.278047 0.354028 -0.408738 0.109717 -0.340882 0.519395
id_749 0.352810 -0.160361 -0.112532 0.135169 0.391526 0.215278 -0.568658 -0.169041 -0.445766 -0.261885
id_748 0.376490 0.023533 0.542266 0.218800 -0.316349 0.102436 -0.443969 -0.057638 -0.074804 0.446295
id_585 0.315680 -0.177818 0.425628 0.463828 -0.315568 -0.036325 -0.042228 0.377766 -0.427618 0.210192
id_580 -0.079839 0.063774 0.487628 0.257673 -0.347723 0.036587 -0.073463 0.581991 -0.384135 0.267325
id_583 0.038615 -0.561453 -0.014081 0.410597 -0.266162 -0.327414 0.410936 0.126165 -0.282391 0.268178
id_424 -0.373929 0.121589 0.395277 0.308795 -0.066265 -0.254890 0.058211 0.469885 0.116501 0.535427
id_736 0.353089 0.180098 0.495632 -0.020924 -0.323609 -0.300701 0.410086 -0.208036 0.328394 -0.286999
id_735 0.534486 -0.018479 -0.004249 -0.454753 0.469514 0.290414 0.087245 0.372014 0.233988 0.040301
id_636 -0.032133 0.324012 0.112906 0.243620 -0.534751 0.192973 -0.241365 0.532517 0.104198 0.382099
id_925 -0.375185 -0.336846 -0.281201 0.117093 -0.357845 -0.407500 -0.038107 0.431897 -0.251788 0.327860
id_43 -0.122210 0.037117 -0.367835 0.638209 -0.207377 0.052130 -0.247791 -0.038576 -0.520231 0.248640
id_604 -0.456641 0.144064 -0.338937 -0.419770 -0.050250 -0.274209 -0.305659 0.131005 0.521686 0.138482
id_603 0.146728 -0.392938 0.091822 0.376698 -0.369506 0.346275 -0.290614 0.562398 0.048929 0.118974
id_816 0.240604 -0.035572 -0.030474 0.474732 0.374099 -0.443404 0.365286 0.457357 -0.157045 -0.103514
id_815 0.514722 0.539602 -0.358410 0.072441 -0.218109 0.001518 0.363797 -0.103071 0.163243 0.304946
id_814 0.208951 -0.263071 0.304320 0.502462 0.036168 0.154859 -0.422337 0.422915 -0.281807 0.283061
id_810 0.209922 -0.332208 0.462067 0.295549 0.194375 -0.260393 0.114438 0.640543 -0.058776 0.110829
id_818 0.506200 0.458299 -0.412496 -0.195644 0.018616 -0.065067 -0.106157 -0.150682 0.492571 0.210030
id_850 0.279702 -0.430391 -0.258909 -0.279215 -0.085856 -0.204848 -0.156814 0.376863 0.561908 -0.244633
id_394 0.191450 0.185552 0.296917 -0.297683 -0.055531 -0.055309 -0.278937 0.259890 0.754889 -0.175481
id_252 -0.165906 0.528540 -0.444362 -0.163885 -0.210318 0.018329 -0.001409 -0.099464 0.638077 -0.084838
id_320 0.016356 -0.029973 0.640689 0.473961 -0.286309 -0.044610 0.075385 0.412997 0.235919 0.218730
id_172 0.429183 0.128027 -0.249894 -0.270320 0.349339 0.424851 0.194369 0.192899 0.006872 0.535087
id_411 0.218116 0.422424 0.226653 0.113594 -0.214126 0.062418 -0.449774 -0.239662 -0.617141 0.139160
id_922 0.350963 -0.133387 0.180152 0.298769 -0.169673 -0.019527 -0.707105 -0.022777 -0.063155 0.451266
id_559 0.175880 0.413913 0.399063 -0.192806 -0.565144 -0.390719 0.054386 0.130655 -0.093948 -0.316881
id_496 0.385231 -0.283760 0.172205 0.412835 -0.024003 0.223790 -0.258190 0.411901 0.050081 0.530564
id_672 -0.408548 0.006071 -0.110822 -0.060769 -0.412009 -0.103045 -0.548776 -0.098322 -0.194443 0.536728
id_670 -0.359937 -0.092112 0.365173 -0.014211 -0.663432 -0.009986 -0.001536 0.278032 -0.238236 0.392563
id_676 -0.171874 -0.422080 -0.295080 0.080446 -0.183266 -0.284688 -0.659110 0.028894 -0.245542 -0.297622
id_771 -0.272700 -0.500272 -0.366066 -0.016459 -0.025765 -0.473320 0.069342 0.127581 0.175634 0.514256
id_478 -0.123139 -0.311444 0.232321 0.256229 -0.393266 0.506606 -0.289320 -0.182006 -0.489973 0.000019
id_774 0.271494 0.557337 0.112698 -0.424160 0.183458 -0.052921 0.093878 -0.094602 0.549621 0.258363
id_775 0.595422 0.460827 -0.157873 -0.040309 -0.533301 0.080117 0.167632 -0.222465 -0.152006 0.122625
id_571 0.050022 -0.154531 0.544365 0.595592 -0.397371 0.037896 -0.317757 0.071105 -0.120144 -0.206773
id_787 0.296157 0.282225 0.284292 0.511712 -0.127672 -0.005133 -0.495461 -0.075857 -0.212453 0.421034
id_781 -0.090540 -0.464831 0.170257 0.451356 -0.000273 0.072808 -0.259884 0.345110 -0.590354 0.050655
id_607 0.274272 0.159405 0.050299 -0.464972 0.264777 -0.328397 -0.043393 0.515920 0.456559 -0.161808
id_852 0.041226 -0.240593 0.537303 0.262878 -0.083494 0.089780 -0.388124 0.378075 -0.454268 0.260084
id_918 -0.182326 -0.305616 -0.394152 0.208217 -0.228720 0.005608 0.251666 -0.511605 0.532724 -0.115895
id_476 0.136189 0.302148 0.202568 0.652795 -0.073340 0.004823 -0.363607 0.175034 0.347358 -0.366167
id_345 0.333919 -0.097910 -0.051694 0.367841 -0.654551 0.182581 -0.283451 0.297482 0.235756 0.233962
id_343 -0.579703 -0.002412 0.342988 -0.115461 -0.564885 -0.300680 -0.086494 -0.152575 0.300649 0.048096
id_341 0.571257 0.334496 0.061593 -0.229910 0.281036 -0.202739 -0.318177 -0.019129 0.346036 0.404596
id_224 0.165938 -0.105780 0.460324 -0.165029 -0.633851 0.188805 0.233238 0.359602 -0.140129 0.285268
id_828 0.466346 0.315550 -0.506601 -0.210485 0.368086 0.404963 0.124329 0.191897 0.159005 -0.070386
id_826 0.368093 -0.088785 -0.169267 -0.350411 0.209399 -0.186427 0.263871 0.612307 -0.003466 -0.426641
id_822 0.419237 -0.115743 0.285291 0.550557 -0.205387 0.032318 -0.182968 -0.319786 -0.336324 0.366412
id_506 0.158125 -0.305185 0.356851 0.495998 -0.124173 0.138836 -0.377915 0.477966 -0.189573 0.258064
id_501 0.283644 0.357232 0.257589 0.067735 -0.011694 0.085405 0.299691 0.587256 -0.471864 0.237108
id_180 0.099264 -0.238966 0.255390 -0.297246 0.291085 -0.018214 0.113810 0.463653 -0.286115 0.620171
id_438 0.556737 0.085787 0.025115 -0.099085 -0.073273 -0.247960 -0.387590 0.360888 -0.567124 -0.057328
id_435 -0.066135 0.345455 0.184345 -0.069263 -0.580997 0.391589 -0.188414 0.453048 0.045116 0.322209
id_134 0.192891 -0.200813 0.315120 -0.639167 -0.199766 -0.051611 0.260666 -0.146417 0.428724 0.314440
id_725 -0.033977 -0.030033 0.308059 0.003658 -0.205637 -0.393944 -0.430109 0.207774 -0.042247 0.689639
id_721 -0.175399 0.179594 -0.105373 0.496912 -0.259935 0.028516 0.500000 0.569382 0.187564 0.034650
id_720 0.509663 0.050241 -0.036338 -0.273724 -0.506283 -0.288184 -0.020791 -0.470136 0.253061 -0.191318
id_728 -0.222831 0.292576 0.149930 -0.724408 -0.453755 0.034421 0.095379 0.231656 -0.210781 -0.056844
id_644 -0.389588 -0.140297 0.239771 -0.317117 -0.286146 -0.536896 0.348546 0.192963 -0.358966 -0.113010
id_751 0.008598 0.268524 -0.166197 -0.297188 0.398225 -0.312513 0.006533 0.281595 0.483527 0.492437
id_165 -0.207399 -0.158058 0.252290 -0.406925 -0.386928 -0.454260 -0.436906 0.018828 0.347049 -0.187122
id_314 -0.200323 0.460115 0.622373 0.095469 0.141982 0.212896 -0.082998 0.170978 0.063013 0.496111
id_315 0.603889 0.395246 0.014035 -0.235001 -0.336287 -0.274894 0.163611 0.167103 0.424651 0.000348
id_313 0.311234 0.374558 -0.264711 -0.004986 0.170698 -0.342391 -0.138557 0.536401 -0.349325 0.342667
id_634 -0.151136 -0.121458 0.049445 0.098866 -0.816278 0.097177 0.128863 0.389079 -0.324124 0.037258
id_84 -0.313102 0.611188 -0.175294 0.054497 -0.122737 0.476011 -0.147840 -0.396058 0.134708 0.237071
id_692 0.143174 -0.118250 0.209761 -0.081245 -0.126359 -0.432522 -0.168168 0.522349 -0.502127 0.398266
id_543 0.158133 0.274895 0.397965 0.099421 0.297508 -0.016930 -0.334534 0.699526 0.136941 0.149549
id_545 -0.175960 0.416099 -0.140209 -0.324756 -0.161681 0.165908 0.118919 0.561856 0.168428 0.508839
id_544 0.064082 0.254444 0.605079 0.167065 -0.294239 -0.295501 -0.380109 -0.236447 -0.328008 -0.235039
id_549 0.203888 -0.374665 0.241757 0.316210 -0.285034 -0.520504 0.225564 0.285348 0.038088 0.416771
id_684 -0.346713 -0.084307 0.628511 0.147700 0.366396 -0.126245 0.103273 0.433355 -0.051072 0.323399
id_685 0.084810 -0.017794 0.483250 -0.240129 -0.282556 0.377676 0.356009 0.207427 0.130590 0.540369
id_683 0.431752 -0.419651 -0.064240 0.123546 0.328767 -0.496309 0.120033 0.347532 0.352962 0.062558
id_768 -0.047023 0.473896 -0.320386 -0.253385 -0.061266 0.454832 -0.522047 -0.236309 0.239616 -0.099722
id_761 0.187515 0.014546 0.309947 0.150635 -0.588717 -0.398299 -0.501065 -0.094086 -0.257431 -0.120206
id_631 0.465123 0.143554 0.189295 -0.702717 0.047395 -0.344826 0.267082 0.159583 0.083745 -0.091897
id_399 0.026691 0.009072 0.536366 0.425005 -0.159817 0.145653 -0.297671 0.222171 -0.454535 0.373579
id_908 0.287306 0.459007 0.552966 -0.252219 0.242756 0.144596 -0.216947 -0.194569 0.076941 0.408290
id_619 -0.108294 0.037704 -0.329042 -0.151144 0.220428 0.313694 0.582456 0.030360 -0.080038 -0.601799
id_63 0.332753 -0.094569 0.339183 0.140482 -0.045723 0.312303 -0.454832 -0.219435 -0.453885 0.429991
id_651 -0.159489 0.111421 0.194360 -0.246924 -0.121880 0.238386 -0.474172 -0.237493 -0.319518 0.639050
id_390 0.028042 -0.384260 -0.441853 -0.036770 0.450918 -0.009679 0.248308 0.450694 -0.260927 0.344509
id_838 0.586325 0.087606 -0.004652 0.040266 -0.651159 -0.265678 -0.110681 -0.007561 -0.367449 0.070608
id_836 0.457468 -0.316979 -0.137454 -0.076616 -0.233649 0.020856 -0.025929 -0.315291 0.336872 0.629995
id_831 0.479038 0.026080 -0.432843 -0.093859 0.033930 0.407950 0.302882 0.456289 0.125402 -0.300737
id_830 0.600961 -0.154071 0.044412 -0.600592 -0.373676 0.064328 0.115445 0.236714 -0.146332 0.133710
id_536 -0.047084 0.139699 0.084820 0.195137 -0.407954 -0.024215 -0.482728 0.328376 -0.311371 0.572863
id_769 -0.210395 0.253966 0.364493 -0.393853 -0.235455 -0.271692 0.437800 0.307293 0.229151 -0.367962
id_882 0.033048 -0.335573 0.283331 0.252994 -0.327600 -0.201278 -0.199381 0.719370 -0.162995 0.101826
id_887 0.438037 0.016589 0.824116 0.148784 -0.116841 -0.034274 -0.116614 0.058592 -0.130191 0.240284
id_400 0.423283 0.069224 -0.340084 -0.510825 -0.436494 -0.047055 0.320815 -0.139175 0.300445 -0.184769
id_402 0.163368 0.091804 0.399302 0.329741 -0.376802 0.411248 0.384813 0.168821 0.420007 -0.180610
id_409 0.458216 0.075547 -0.255639 -0.184097 -0.150221 0.334380 0.122723 0.038194 0.729826 -0.039311
id_716 0.227382 -0.110005 0.306755 0.280153 -0.332054 0.084029 0.369432 0.645763 0.182932 -0.243594
id_718 0.028327 -0.068757 0.116035 -0.479518 0.119177 -0.226905 -0.112738 -0.457802 0.633864 0.247595
id_657 0.257026 -0.277127 -0.189917 0.197410 -0.218137 -0.226605 -0.077260 0.686193 0.353028 0.285843
id_870 -0.147869 0.143255 -0.138397 0.117377 -0.033896 -0.584457 -0.577769 0.319759 0.031287 0.380658
id_873 -0.015344 -0.247518 0.543502 -0.090728 -0.285142 -0.253920 -0.367207 -0.173215 -0.225011 0.523085
id_872 0.128275 -0.007185 0.419336 0.236797 -0.159156 0.451406 -0.448252 0.488509 0.286841 -0.025140
id_877 0.464559 0.518862 -0.146345 0.459342 0.075531 0.411358 0.238700 0.070020 0.190508 0.097267
id_876 0.133049 0.152924 -0.483960 -0.325820 -0.423095 0.296219 0.020693 -0.501544 0.013225 -0.315646
id_879 0.014508 0.110434 -0.105262 -0.452572 -0.202440 -0.309722 0.412023 -0.245620 0.636124 0.006044
id_308 0.514124 -0.031381 -0.154775 -0.027977 0.084121 0.660505 0.176440 -0.342793 -0.331691 -0.089183
id_98 0.277852 -0.518688 -0.482158 0.006302 -0.083165 0.118794 0.317592 0.540188 0.001253 0.086870
id_282 0.196735 0.344474 0.415786 0.390003 -0.477203 -0.116158 -0.019441 -0.084440 -0.154702 0.494971
id_283 -0.272065 0.082935 -0.190731 0.386112 -0.302892 0.183963 -0.474666 0.045584 0.486143 0.379913
id_286 0.053801 -0.395662 0.045238 0.188497 0.262588 0.197292 -0.493403 0.031591 -0.634253 0.219958
id_284 0.370819 -0.071762 -0.152171 -0.385682 -0.463313 -0.263298 0.230270 0.282320 0.379180 -0.353477
id_578 -0.128965 0.158346 -0.363403 0.248895 -0.213094 0.322915 -0.221801 0.171563 0.366066 0.634009
id_270 0.390104 -0.266511 0.324286 -0.337214 0.032852 0.419225 -0.275554 -0.123352 0.410362 0.348632
id_575 -0.343679 0.127511 0.568411 -0.172593 -0.042642 -0.175468 0.021581 0.606182 0.286957 -0.172834
id_699 -0.003270 0.288962 -0.363867 0.016553 -0.393889 0.170416 0.008235 0.545864 0.355068 -0.418950
id_691 0.481776 0.420016 -0.178325 0.204762 0.323038 -0.265769 -0.397848 -0.182518 -0.114166 -0.371666
id_693 0.532534 0.354241 -0.255594 -0.503931 0.130837 -0.136892 -0.054952 -0.262110 0.330690 0.233903
id_597 0.332556 0.550149 0.371792 -0.104761 0.249908 0.025823 -0.014829 0.059969 0.520702 -0.315390
id_594 -0.228358 0.343777 -0.503219 0.011996 0.355919 -0.051760 -0.115012 0.434427 0.483478 0.105988
id_458 -0.350924 -0.015715 0.363753 0.461120 -0.526101 -0.099682 0.098766 0.071229 0.183484 0.443220
id_457 0.158217 -0.319339 -0.286655 0.403118 -0.287764 -0.417920 -0.220323 0.319619 -0.160504 0.440895
id_455 -0.395966 -0.154508 -0.234445 -0.002384 0.557005 -0.349071 0.477930 0.223820 -0.155366 -0.172082
id_453 0.387597 0.075766 0.350312 -0.629735 0.233699 -0.201073 -0.244401 -0.054792 -0.165785 0.373469
id_614 -0.116104 0.121500 -0.158019 0.704630 -0.325068 -0.156874 -0.034608 0.132420 0.066524 0.544837
id_6 0.001188 0.465900 -0.212652 -0.049785 0.822781 0.175266 0.011843 0.045234 -0.033590 0.155674
id_613 0.278855 -0.218403 0.091234 0.388243 0.389678 -0.331832 0.418386 0.382529 0.154939 0.328848
id_622 -0.063086 -0.310833 0.360255 0.662720 -0.150998 0.046371 -0.444070 0.237801 -0.146798 -0.173707
id_628 -0.283154 0.411677 0.520688 -0.088779 0.041162 0.318891 0.109946 0.152460 0.366634 0.445208
id_629 0.311021 0.252593 0.377681 -0.428119 -0.121962 0.112149 -0.426450 -0.193410 0.347930 0.381786
id_936 -0.209433 -0.035827 0.073327 -0.498595 0.414012 -0.020647 0.618157 0.140274 0.354372 0.040913
id_937 0.443960 0.352565 -0.177247 -0.430695 -0.299546 -0.074446 0.190548 0.285452 0.396347 0.302539
id_930 -0.282579 0.112934 0.339144 -0.312588 -0.459192 -0.220863 -0.036431 0.418192 -0.474831 -0.182625
id_932 -0.278756 0.386856 0.548573 -0.047674 -0.533159 0.071171 0.345665 0.000955 -0.101011 -0.224544
id_895 -0.443801 0.478056 0.169894 -0.252978 -0.093242 -0.063997 -0.240401 -0.381962 -0.368903 0.359269
id_77 -0.262755 0.528898 0.341217 -0.059480 -0.383458 0.364184 -0.022464 -0.280267 0.390054 0.142806
id_650 0.330988 0.308819 0.190530 -0.376309 0.277017 0.213746 0.003890 0.343696 0.582259 0.193840
id_894 -0.228603 -0.189393 -0.347833 -0.438471 0.449851 -0.424727 0.161270 0.140360 -0.385883 0.145783
id_16 0.460255 -0.269568 -0.255588 -0.362227 -0.237762 -0.186271 -0.293506 -0.291479 0.502849 -0.061438
id_808 0.083461 0.081864 0.037606 -0.339442 -0.309230 0.404334 -0.696997 0.336405 -0.088610 -0.061351
id_809 0.002867 0.241385 -0.322650 0.340480 0.185577 0.280794 -0.501078 0.482276 -0.018248 -0.352716
id_801 -0.063533 -0.484101 0.316149 0.496692 -0.227254 0.276772 0.095260 -0.219891 -0.070819 -0.473569
id_802 -0.168335 -0.381879 -0.162631 0.004312 -0.323951 -0.294484 -0.538819 0.312661 -0.363227 0.296114
id_804 0.385321 -0.114379 -0.409400 -0.547618 -0.179921 -0.251294 0.379365 0.117034 0.066965 -0.336648
id_805 -0.184650 0.014696 0.102929 0.262210 -0.538250 -0.157100 -0.611936 -0.350263 -0.115740 0.247793
id_246 0.023372 0.437786 0.208070 -0.082219 0.131077 -0.371851 -0.355699 0.309456 -0.347209 0.509363
id_240 0.279876 -0.200728 0.513606 -0.157976 -0.617262 0.009137 -0.120781 0.436903 -0.073997 -0.024212
id_928 0.457098 0.362083 -0.529454 -0.004863 -0.285381 -0.074462 0.104472 -0.412120 -0.037337 -0.332377
id_899 0.209104 0.321033 -0.072837 0.060750 -0.103220 -0.034072 0.374632 0.521092 -0.448936 0.467944
id_898 -0.346695 -0.135050 0.127345 -0.089001 -0.318254 -0.309873 -0.336522 0.472167 0.352103 0.424211
id_896 0.558063 0.306962 0.016290 -0.162696 0.161120 0.101756 -0.026685 0.023280 -0.237218 -0.688305
id_893 0.162895 0.578141 0.361422 0.045754 0.276755 -0.437770 0.375920 0.170785 -0.134193 -0.223098
id_892 -0.237092 -0.398004 -0.147391 0.254068 -0.586223 -0.447671 0.098723 -0.243300 0.207487 0.207480
id_891 0.098063 -0.428089 -0.141165 0.350817 -0.489278 -0.353431 0.267836 -0.004916 0.463225 -0.116108
id_147 0.350929 -0.264875 0.525467 0.271067 0.180836 0.456834 -0.234724 -0.358988 -0.138757 -0.111697
id_792 -0.041788 0.413427 -0.260576 -0.258435 0.450362 -0.296596 -0.489674 0.028128 0.280013 -0.287870
id_208 0.184516 0.785602 -0.466131 0.080504 0.072529 -0.287460 -0.101363 -0.115350 -0.105101 -0.050045
id_521 -0.356764 0.200170 0.285381 0.456092 0.208832 -0.105405 -0.444598 0.278903 -0.457785 -0.058713
id_484 0.361093 0.001994 0.414569 -0.073544 -0.307501 0.516010 0.325174 -0.118695 0.119234 0.444371
id_665 -0.498397 0.131170 0.451822 0.054337 -0.526442 -0.219746 -0.186008 -0.256592 -0.268215 0.171734
id_666 0.389568 0.136318 -0.298776 -0.150837 -0.317808 0.014606 -0.463012 -0.168094 0.554821 -0.256821
id_667 0.334846 -0.461465 -0.112525 0.334598 -0.034235 -0.470118 -0.179825 0.512191 0.149188 0.105799
id_661 0.280146 -0.156298 0.319193 -0.396452 -0.584392 -0.344594 -0.257980 0.081205 -0.303476 -0.111921
id_662 -0.111164 -0.484407 0.446466 -0.471295 0.320618 -0.318023 0.051484 0.246687 -0.225949 0.114234
id_663 0.263775 -0.045559 -0.113509 -0.043429 -0.089888 -0.464085 -0.695757 0.400200 -0.122125 0.175984
id_467 -0.301698 -0.377482 -0.128750 0.262614 -0.577759 -0.496604 0.072374 0.194831 0.000977 -0.239423
id_461 -0.179465 0.176099 -0.268518 -0.444374 -0.494021 0.181228 -0.310659 0.240992 -0.153270 0.460688
id_706 0.415530 0.115956 0.234619 -0.594742 -0.313710 -0.214306 0.075539 0.348193 -0.159282 -0.329347
id_702 -0.597655 0.438999 0.251824 0.159185 0.000995 -0.358401 -0.326855 0.053155 -0.345894 -0.059827
id_648 0.372298 0.053048 0.005020 -0.190628 -0.557018 -0.173646 -0.177034 -0.497371 -0.282230 -0.351313
id_848 0.049261 0.345059 -0.384616 -0.408046 -0.237480 -0.403075 0.259535 0.119150 0.438902 -0.266498
id_849 -0.203666 -0.003532 -0.405572 -0.382289 -0.569231 -0.219974 -0.199197 -0.463513 0.118939 0.082410
id_845 -0.465290 0.597306 0.105738 0.262979 0.310598 -0.212085 0.326669 0.024052 -0.185675 0.251345
id_840 0.534992 0.332494 -0.127922 -0.098958 -0.340447 -0.191008 -0.139314 -0.224070 0.422835 0.419859
id_842 -0.281182 -0.265538 0.455726 0.308456 0.265214 -0.011460 -0.408555 -0.385925 0.345959 -0.203917
id_798 -0.280811 0.347663 -0.263568 -0.002448 0.478607 -0.217700 0.426916 -0.269402 0.226997 0.384684
id_369 -0.365522 -0.487138 -0.009897 -0.061448 -0.267572 -0.375452 -0.072769 0.514602 0.017374 0.377154
id_368 0.249418 0.144875 -0.182849 0.407430 0.067214 -0.064636 0.077418 0.076483 -0.787867 0.275855
id_366 -0.093255 0.104327 0.670425 0.163377 -0.022072 0.136077 -0.643692 -0.014288 -0.100670 0.246119
id_418 -0.218277 -0.169720 0.256757 0.308868 -0.370497 -0.239200 0.449013 -0.165502 0.434977 -0.386695
id_518 -0.286829 -0.424628 -0.195247 0.421769 0.382653 0.254600 0.150131 0.478539 -0.018630 0.241411
id_515 -0.247865 -0.299276 0.207523 -0.448952 0.117144 0.412872 0.396172 0.314094 0.404596 0.029701
id_299 -0.217017 0.261845 0.548464 0.054256 -0.398666 -0.250774 0.272584 0.408618 -0.331017 -0.088993
id_297 -0.132482 0.560138 0.357828 -0.395563 -0.242011 0.009848 -0.264041 0.505019 0.026791 0.006145
id_196 0.000262 -0.148335 0.238093 -0.479899 -0.042605 0.522186 -0.565055 -0.214948 -0.088841 0.207675
id_199 -0.119490 0.051826 0.641860 0.355805 -0.216437 -0.085919 0.483206 -0.114571 0.369925 0.082273
id_567 -0.074781 0.096372 -0.167503 0.640450 0.082434 -0.267502 -0.281534 -0.328362 -0.516618 0.120652
id_566 -0.194993 -0.250919 0.666531 0.024357 -0.339073 0.163766 -0.378003 0.230378 0.006762 -0.341122
id_564 0.077934 0.384565 0.545508 -0.145175 0.301127 -0.457157 0.159111 -0.243513 -0.331317 0.182553
id_745 0.328945 0.148307 0.388788 -0.058224 0.476803 -0.047683 0.540677 -0.246793 -0.340310 0.128803
id_582 0.367185 -0.269449 -0.279086 -0.076260 0.280274 -0.302934 -0.412197 -0.373741 -0.349205 0.327127
id_422 0.201163 0.302898 -0.065456 -0.470126 -0.378526 -0.244793 0.334664 0.567528 0.064474 0.032135
id_423 0.208715 0.222477 0.450549 0.150100 0.116401 -0.110973 -0.303269 0.551670 -0.260673 0.437368
id_734 -0.051195 0.472846 -0.565767 -0.129851 0.337919 0.348610 0.098008 0.150516 -0.096451 0.399451
id_730 0.315946 0.055770 0.000459 0.132158 -0.261870 -0.047380 -0.524554 0.246979 -0.427110 0.538705
id_638 0.244191 -0.040437 0.586019 0.193305 0.062104 0.218199 -0.631695 -0.101614 -0.170552 -0.260827
id_635 0.301549 0.174742 0.054451 0.114337 0.262290 -0.390762 0.248746 0.734486 0.188848 0.063212
id_41 -0.333672 0.274735 0.388916 0.565607 -0.048637 -0.069552 0.215538 0.225675 -0.352451 0.336462
id_799 0.060543 -0.372549 0.190201 -0.346836 0.658581 -0.200999 -0.088955 -0.227764 0.222950 0.342701
id_600 0.313656 -0.311026 0.207773 0.496397 0.205012 -0.160505 -0.413031 0.196812 0.156673 0.462208
id_813 -0.002472 0.175867 -0.348579 -0.420106 -0.624849 0.213741 -0.014112 -0.185092 0.125901 -0.429695
id_812 0.677213 -0.083844 -0.117889 0.156316 0.020815 0.033070 0.006629 -0.389589 -0.033932 -0.584396
id_811 0.397712 0.100925 0.213538 -0.344887 0.244751 0.337463 -0.457735 0.057693 0.391796 0.356308
id_851 -0.424286 0.256407 0.224963 0.154509 0.263399 -0.288445 -0.421615 0.359027 -0.376431 -0.280742
id_934 0.148475 0.142483 0.335021 -0.466834 0.215339 0.388145 0.439570 0.301819 0.274219 0.266346
id_517 -0.108589 0.013016 -0.141278 -0.454246 -0.456550 -0.391305 0.159048 0.175849 0.453773 0.371556
id_952 -0.156645 0.376698 0.238133 -0.056053 -0.291617 -0.506567 -0.340137 0.271941 -0.465315 -0.160929
id_953 0.689273 -0.347382 -0.356348 0.167925 0.160032 -0.108820 -0.119139 -0.178650 0.062342 -0.401992
id_950 0.669265 0.119790 -0.169816 -0.127055 0.277934 -0.038185 0.179060 -0.003602 -0.373372 0.492511
id_951 0.100382 0.418465 -0.167871 0.073917 -0.165092 0.251888 -0.674596 0.297013 0.008215 0.383534
id_523 0.320738 0.266489 0.107801 -0.043885 -0.464176 0.429031 -0.072659 0.493658 0.162561 0.370990
id_258 -0.278214 -0.196348 -0.210925 0.281561 -0.224659 0.182866 -0.527757 0.194910 -0.143754 0.582395
id_251 0.373997 0.119577 -0.351458 -0.631528 -0.499284 -0.148916 0.200998 -0.061131 -0.069366 0.055388
id_250 0.040385 0.329245 -0.406140 -0.594042 0.001297 0.092476 0.051129 -0.372236 0.467740 0.060200
id_929 -0.204853 0.306925 -0.565255 -0.372808 -0.030436 -0.098002 0.140218 0.006693 0.568446 0.227960
id_528 0.381870 0.541146 0.471438 0.144012 -0.050030 -0.249900 0.141152 0.021165 0.481561 -0.033432
id_731 -0.061427 -0.229981 0.328055 -0.469077 -0.564845 -0.161183 0.043143 -0.395420 -0.333127 0.038222
id_923 -0.035971 -0.129711 0.165932 0.650242 -0.384232 -0.001731 -0.527167 0.317464 0.027519 0.066717
id_921 -0.286641 0.436020 0.438575 -0.177753 -0.034846 0.352021 0.126875 0.330398 0.358020 -0.353847
id_927 0.058350 0.411035 0.277374 0.239460 -0.007940 0.153317 -0.504014 0.642810 -0.017212 0.047614
id_926 0.028618 -0.173555 0.020754 0.315814 -0.453380 0.466435 0.026094 0.423783 0.445054 0.259671
id_556 -0.408719 -0.441178 -0.377282 0.053034 -0.066802 0.258728 -0.617881 -0.073759 0.036545 0.182210
id_558 -0.300606 -0.278056 0.211233 0.309921 -0.491688 -0.122978 -0.444584 -0.027429 -0.478812 -0.084272
id_495 -0.051735 -0.476100 0.119364 0.405377 0.375441 -0.268722 0.456278 -0.300191 -0.230606 0.165601
id_674 -0.089609 0.407794 0.155768 0.147890 -0.689559 0.101051 0.170754 0.202363 0.279109 -0.381872
id_474 -0.101225 0.361678 0.488875 -0.040985 -0.238254 0.560507 0.172593 0.281239 0.372037 0.005932
id_776 -0.236432 -0.295259 0.590117 0.021783 -0.129765 -0.230189 0.053678 0.482421 -0.449586 0.025378
id_784 -0.338052 -0.323128 -0.042141 0.136939 -0.361616 0.205345 0.691107 -0.098475 -0.097192 -0.301786
id_783 -0.097831 0.210181 0.548393 0.058772 -0.220219 -0.262241 -0.252116 0.509395 -0.435143 -0.111360
id_780 -0.211021 0.333243 -0.347496 -0.169225 -0.001409 -0.304033 -0.519437 0.245684 0.083697 -0.515180
id_788 -0.284155 -0.122128 0.640381 0.278930 0.322976 0.090109 0.013124 0.413816 -0.113676 0.345948
id_709 -0.187381 -0.276560 -0.315902 0.561992 -0.143055 -0.318907 0.023104 -0.147059 0.211993 0.532453
id_859 0.421624 -0.095779 0.101089 0.342508 -0.651574 0.104415 -0.437047 -0.020818 0.123185 -0.208469
id_858 0.078548 0.283767 0.396641 -0.565017 -0.461206 0.336416 0.218611 -0.197867 0.142952 -0.058946
id_916 -0.395093 0.146158 -0.348491 -0.318066 -0.171526 0.151642 -0.303490 -0.471326 0.097986 -0.472923
id_917 -0.105082 -0.416480 -0.281732 0.403259 -0.453721 -0.426485 0.166083 0.037634 -0.260352 -0.298288
id_914 -0.397100 -0.402107 -0.335828 0.061661 -0.312430 0.083726 0.324600 -0.171153 0.334405 0.461445
id_915 -0.106893 -0.269574 0.349493 -0.458364 -0.138540 0.363617 -0.000351 -0.334438 0.498616 -0.267925
id_853 0.021277 -0.103838 0.390363 -0.052646 -0.455852 0.108670 -0.486624 0.426340 0.162811 -0.411004
id_919 0.261655 -0.058679 -0.309042 0.168403 -0.348257 -0.142577 0.301345 -0.261166 -0.366481 -0.607693
id_857 -0.267160 0.233186 0.267568 0.486175 -0.034099 0.391570 -0.162899 0.411537 -0.420569 -0.197546
id_856 -0.029780 0.380373 0.541068 0.050854 -0.442685 -0.188600 -0.385729 -0.038433 -0.394993 -0.145830
id_855 -0.039279 -0.233544 0.393499 0.125341 -0.298342 0.177883 -0.089160 0.469514 0.137578 0.636703
id_854 -0.157071 0.297020 -0.438718 -0.482626 -0.156581 0.378036 0.475192 0.232190 -0.060622 -0.104321
id_548 -0.210546 -0.381573 0.464865 0.192125 0.215082 0.174453 -0.374062 0.006583 0.354103 0.463694
id_924 0.114863 -0.230748 -0.465698 -0.006039 -0.148074 -0.107850 0.471847 0.274003 0.432534 0.445299
id_701 0.552024 -0.123015 -0.351336 -0.160632 -0.130403 -0.336143 0.093675 0.358729 0.448373 0.249800
id_694 0.346238 0.391986 -0.368047 -0.255354 -0.534365 -0.129871 -0.305943 -0.044688 -0.046466 -0.354446
id_758 -0.314620 0.140168 -0.070361 0.602987 0.232396 0.502873 0.027007 0.334898 0.263597 -0.153508
id_795 0.521764 -0.366715 0.094863 -0.122194 -0.032693 0.559472 -0.135705 -0.087292 0.379811 -0.291517
id_827 0.126878 -0.035788 0.229102 -0.787701 -0.233507 0.011045 0.429794 0.027899 -0.261375 -0.034558
id_824 0.229333 0.205531 -0.224760 0.647537 -0.129857 -0.317365 0.243842 0.505882 0.021848 -0.043650
id_825 0.162418 0.292190 -0.149889 0.036128 -0.424567 0.441628 -0.364934 -0.550712 0.218408 -0.070842
id_820 0.258926 -0.143667 0.273565 0.336328 -0.162068 0.276729 -0.587597 -0.079695 0.091069 0.511471
id_821 -0.358741 0.329147 -0.275962 0.310840 -0.394426 0.267624 -0.191217 0.256646 -0.307358 0.407548
id_459 0.355988 -0.186323 0.526831 -0.218938 -0.003843 0.162148 -0.470447 -0.072110 -0.143222 0.489625
id_504 0.404548 0.110606 -0.046426 -0.167646 -0.676568 -0.238240 0.028746 -0.034791 0.351039 0.392529
id_502 0.497250 0.344727 0.395624 0.014851 -0.253575 -0.298650 -0.340649 -0.188686 -0.348635 0.224689
id_183 0.383657 -0.237380 -0.395268 0.193621 0.247220 -0.052191 0.457978 0.027673 0.361220 0.444860
id_185 -0.099420 0.495436 -0.330558 -0.001912 -0.045456 0.004829 0.278301 0.583150 0.272529 0.376178
id_186 0.376995 0.575569 -0.056470 -0.070145 -0.235766 -0.326629 0.395078 -0.274856 -0.292070 0.198184
id_212 -0.066570 -0.422980 0.567242 -0.317472 0.097183 0.056517 0.002148 -0.268330 0.546821 0.102207
id_777 0.313325 0.193656 -0.069020 -0.721984 -0.545135 0.071866 0.096138 0.047665 0.145113 -0.058229
id_430 -0.121832 0.410893 0.491218 -0.301552 -0.411306 -0.041881 -0.103439 0.367181 0.403246 0.070986
id_757 0.396055 -0.263498 0.055950 -0.340215 0.050984 0.103385 -0.552550 0.355922 0.391186 0.237752
id_130 -0.280482 -0.146697 -0.374618 0.149478 -0.530812 0.450314 0.075127 0.473589 -0.024267 0.148541
id_913 -0.127675 0.576163 -0.019904 -0.006824 -0.268079 0.128644 0.427079 -0.303323 -0.236653 0.482153
id_724 0.369821 0.317587 0.540151 0.507482 -0.243836 -0.130101 -0.251805 -0.000179 -0.167181 0.212916
id_726 -0.035315 -0.404750 0.627047 0.115010 -0.154716 0.367717 0.030083 0.344658 0.065975 0.381202
id_722 0.338030 0.060164 0.322478 0.119311 -0.477193 0.403823 -0.228342 0.082796 -0.358817 0.430532
id_640 0.252441 0.135497 -0.110220 -0.250021 0.281176 0.303975 0.527089 -0.358384 -0.346936 0.381009
id_641 0.283450 0.056398 0.080131 -0.184288 -0.189874 0.378453 -0.484268 0.412311 -0.152821 0.518597
id_59 -0.400619 0.336488 0.458959 0.482383 0.202369 0.019279 -0.014158 0.020133 -0.243760 0.426139
id_819 0.336776 0.226250 0.139959 0.276439 0.315216 0.159687 -0.236296 -0.074622 -0.363201 0.649004
id_890 0.332002 0.034446 -0.132990 -0.106116 -0.623665 0.190336 0.229487 -0.124139 0.595114 0.110545
id_920 -0.344780 0.367267 -0.244131 -0.388433 -0.436412 -0.026439 -0.479087 0.160679 -0.229518 0.191275
id_862 0.459295 -0.057202 0.301285 -0.463207 -0.425830 0.098555 -0.252519 -0.289259 0.375742 -0.027920
id_863 0.254446 -0.276767 0.480777 0.542420 0.112661 -0.129942 -0.544483 0.052265 -0.029026 -0.060650
id_860 0.123708 -0.269498 0.336264 0.137227 -0.420829 0.403054 -0.251491 0.340523 0.154691 0.487319
id_861 0.031305 0.400137 -0.166401 0.090604 -0.281002 0.457766 -0.139985 0.058084 0.542178 -0.444493
id_866 0.240005 -0.357890 0.063803 0.318773 0.238232 0.284802 0.552764 -0.446416 0.170162 -0.192271
id_864 -0.472830 -0.438722 0.259575 0.093100 -0.275591 0.172014 0.114603 0.440517 0.229457 0.377531
id_865 0.008963 -0.616412 -0.272774 -0.209454 0.194632 0.357113 0.058214 0.390620 -0.353812 -0.234758
id_868 -0.176300 -0.110966 0.332910 -0.167025 -0.032814 0.270396 0.388676 -0.148834 -0.237881 0.716854
id_869 -0.186566 0.405494 0.281680 -0.430104 0.131855 -0.471390 0.375312 0.287986 0.060168 -0.263486
id_949 -0.118457 0.244083 0.617503 0.432370 -0.161340 0.004379 0.139805 0.532201 -0.056406 0.161625
id_948 -0.300200 -0.162868 0.061128 -0.004556 -0.405617 -0.675727 0.214039 0.072456 -0.448638 0.078265
id_945 -0.141051 0.066797 -0.168926 -0.476074 -0.287743 -0.201439 0.499984 0.206288 0.210322 0.510209
id_944 0.427159 0.338592 0.305170 0.227623 0.386144 0.204969 0.031675 0.278829 0.232045 0.483980
id_947 0.465710 -0.233675 0.158600 -0.081554 -0.029597 0.320694 -0.498761 0.404634 0.064722 0.419886
id_946 0.257890 -0.021502 0.242371 0.127648 -0.505731 0.225982 0.261469 0.323184 0.532462 -0.307947
id_941 0.420389 0.116722 -0.064824 -0.318996 -0.324043 -0.353112 -0.361507 -0.008477 -0.578827 0.090530
id_940 -0.198303 -0.404567 0.021794 -0.408669 0.131795 0.427729 -0.314927 0.107234 -0.222167 0.518805
id_943 0.243950 -0.485202 0.107155 -0.254526 0.325623 0.289444 0.206127 0.584512 -0.212780 -0.097853
id_942 -0.047247 0.599538 0.224563 -0.221856 0.313186 0.009648 0.046600 -0.599944 -0.019465 -0.279305
id_381 -0.018461 -0.100527 0.367170 -0.694593 -0.205087 0.431377 -0.164455 0.214510 0.241833 -0.112209
id_386 -0.046950 0.072464 0.310318 0.702062 -0.335258 -0.213545 0.139367 -0.149221 -0.447353 0.059516
id_389 0.352927 -0.170847 0.448802 -0.108824 0.181783 -0.206843 -0.397493 -0.259199 0.256843 0.515758
id_388 0.449862 -0.389871 -0.336068 0.030237 0.128803 0.093552 0.415406 -0.501698 -0.260584 -0.119413
id_266 0.414405 -0.321818 0.432931 0.268090 0.097940 0.328059 0.247421 0.476112 -0.191985 -0.153060
id_267 -0.631974 0.038308 0.472446 -0.281980 0.014240 0.177682 0.378698 0.109957 -0.316794 0.093750
id_841 0.545801 -0.188806 0.266935 -0.316719 -0.143627 0.310971 -0.262604 0.526936 -0.028711 0.173524
id_310 0.458542 0.515265 -0.105342 0.040070 -0.353613 -0.278207 -0.181700 -0.154792 0.470119 -0.176385
id_311 -0.163527 -0.468291 0.317123 0.159709 -0.233406 -0.195167 -0.598213 -0.105980 -0.293972 -0.282507
id_169 0.320188 0.123892 -0.172521 0.587634 0.013428 -0.014211 -0.170344 0.136133 0.401139 0.546086
id_162 0.098066 0.086840 -0.428382 0.249221 0.146863 -0.366488 0.367730 0.429562 0.500244 0.106510
id_547 -0.177787 -0.041578 0.102925 -0.684257 -0.263303 -0.313978 0.371636 0.272922 -0.131256 -0.300205
id_546 -0.350795 0.374245 0.499489 -0.354773 -0.469491 0.235590 0.035353 0.052286 0.214512 -0.188700
id_938 0.286056 -0.084009 0.576490 0.518063 0.254441 -0.329890 -0.112893 0.273981 0.115947 -0.188583
id_939 0.109070 0.340082 0.508847 0.317462 -0.478957 0.121982 -0.081979 0.390040 0.325215 -0.062007
id_688 0.210318 0.325409 -0.352102 -0.330766 0.247219 -0.279818 0.232784 -0.376333 0.526945 0.059939
id_682 0.188276 0.328568 0.491377 -0.279074 -0.392912 0.202504 -0.059505 0.518806 0.195001 0.176488
id_681 0.191658 -0.139835 0.336857 -0.136067 -0.505964 0.518139 -0.380576 -0.298740 0.073424 0.218597
id_935 -0.172273 0.250448 0.370590 0.462577 0.191545 0.365726 -0.403517 0.462466 0.031704 -0.090182
id_763 -0.200239 0.233460 -0.378135 -0.064962 0.486152 -0.375542 0.041127 0.309228 -0.062049 0.528825
id_762 0.635649 -0.305362 0.280213 -0.248476 0.256500 0.284051 -0.289544 -0.274642 0.233939 0.044457
id_765 0.125301 0.344700 0.386764 0.386611 -0.438334 0.277843 0.375027 -0.365720 -0.147195 -0.032117
id_767 -0.415032 -0.251503 0.396309 0.415002 0.122671 0.444331 -0.230569 -0.194220 0.195740 -0.305830
id_541 -0.212202 -0.177024 0.294126 -0.127180 0.379668 0.503934 0.471758 0.125117 -0.411085 0.125097
id_933 0.415759 -0.399832 -0.300623 -0.206800 0.159625 -0.163709 -0.432853 0.264524 -0.088757 0.465451
id_901 0.286880 0.165368 -0.311799 0.149403 -0.359868 0.279836 -0.485064 0.452308 -0.302570 0.177710
id_900 -0.024019 -0.254149 -0.524349 0.095415 0.046790 -0.017259 -0.363794 -0.518199 0.271214 0.416970
id_903 0.180720 -0.281341 0.088038 0.596336 0.049680 -0.222992 -0.158270 0.265460 -0.613160 0.033828
id_902 0.597671 0.028282 -0.419388 -0.483518 -0.071452 -0.387338 0.170482 -0.017011 0.099695 -0.194640
id_905 0.220963 -0.293439 0.398179 0.285303 -0.429840 -0.002003 0.248133 -0.330713 0.371079 0.362928
id_904 -0.253842 0.342202 0.441247 0.301228 -0.162140 -0.270685 -0.507840 0.322263 -0.259879 0.064602
id_907 0.387185 0.281288 0.121040 -0.281988 0.115249 0.342672 -0.158908 0.554015 -0.462478 -0.004496
id_906 0.264810 0.154703 0.579848 0.334138 0.073509 0.049676 0.030799 0.397312 -0.506869 -0.185683
id_909 0.548988 -0.218350 -0.440051 -0.394109 -0.436826 0.039438 0.232431 0.123414 -0.148235 -0.135527
id_618 0.441301 0.326697 -0.187106 -0.490123 -0.168957 0.363658 0.183407 0.201731 0.433761 -0.004229
id_714 -0.364667 0.248944 0.436465 0.016312 0.297109 -0.112954 -0.176306 0.584294 0.066796 -0.369188
id_738 0.016533 0.431164 -0.239824 0.400462 0.183145 0.135112 -0.534022 0.406081 -0.058809 0.300999
id_835 0.176436 -0.401687 0.544318 -0.042657 -0.290819 0.466162 0.084081 -0.240170 0.337188 -0.170548
id_834 0.373004 -0.281244 -0.120328 -0.038432 0.221275 0.330956 0.051706 0.605456 -0.434525 -0.221940
id_837 0.268377 0.438637 0.153555 -0.243288 0.284903 -0.248064 0.088274 0.350364 0.473749 0.393843
id_833 0.569374 -0.118164 0.247926 0.149106 -0.551545 -0.055344 -0.003464 -0.193818 0.480726 -0.047025
id_832 0.268019 0.285180 -0.171386 0.253852 -0.436598 0.146894 0.015642 0.395805 0.414776 0.460308
id_531 -0.199159 0.031660 0.205680 0.205032 -0.645553 0.040139 0.108431 0.343647 0.230631 0.523068
id_880 0.291381 0.144032 0.486028 -0.026887 -0.289161 0.258394 -0.351236 0.508309 -0.197558 0.293684
id_881 -0.223317 0.044313 0.180096 -0.734140 0.094237 -0.329085 -0.110311 -0.490399 -0.011006 0.082530
id_883 0.204933 -0.194852 -0.268844 -0.591109 -0.316609 -0.374957 0.105662 0.305241 0.242481 -0.307214
id_884 0.223419 0.129869 -0.205673 0.269639 -0.444747 -0.011175 0.028240 0.428314 0.492028 0.440391
id_885 0.380646 -0.201542 0.294953 0.299762 0.552104 -0.507614 -0.179279 -0.135027 0.139920 -0.072065
id_886 -0.016566 -0.297057 -0.143813 -0.046591 -0.464789 0.319968 -0.330124 -0.030716 0.574325 -0.361175
id_888 0.136837 -0.444929 0.472361 0.489786 -0.369075 -0.220492 -0.201015 0.022653 0.150888 -0.267915
id_889 -0.099665 0.115251 0.104169 -0.582863 0.495555 -0.147633 0.455493 -0.019698 -0.388322 -0.013356
id_221 0.261709 -0.165416 -0.193525 -0.282361 -0.136521 0.417331 -0.526814 0.057431 -0.553773 -0.081659
id_912 -0.070437 -0.506275 0.025931 -0.003111 -0.439157 0.074027 -0.463478 -0.185805 0.263250 -0.470178
id_568 -0.234623 0.261428 0.410234 0.243678 -0.506561 0.404557 -0.118496 0.425054 0.168006 -0.075689
id_128 -0.035844 0.169497 -0.441394 0.039288 -0.492816 -0.287318 -0.338974 0.250676 -0.457679 0.246946
id_324 -0.417526 -0.043273 0.144333 0.213610 -0.460789 0.010038 -0.622032 0.382681 -0.097897 -0.044245
id_910 -0.174428 -0.472190 0.361854 -0.243661 -0.516185 -0.350110 -0.173438 -0.111891 -0.098203 0.339168
id_711 -0.058069 0.111233 0.345805 0.229138 0.088943 -0.171735 -0.441420 0.045886 -0.539453 0.535536
id_713 0.306009 0.179182 0.505639 0.608293 -0.082988 0.221114 -0.014356 -0.032065 0.192370 0.393118
id_717 0.480921 -0.212221 -0.199426 -0.396957 0.024208 0.346911 0.368550 -0.117911 -0.030114 0.504738
id_655 0.380526 0.071692 0.694248 -0.100376 0.072254 -0.533759 -0.028858 0.253070 -0.051634 -0.018480
id_911 -0.043331 -0.355050 -0.078759 0.271646 0.402676 0.341524 -0.529489 0.369122 0.287502 -0.118378
id_23 0.079710 -0.150289 0.341967 -0.020808 -0.588424 0.280134 -0.492882 0.328978 0.150935 0.234578
id_839 0.255419 -0.272401 -0.592155 -0.364500 0.297267 0.432263 0.005785 0.102571 0.020443 -0.301431
id_700 -0.222631 0.231356 0.252912 -0.589647 -0.430390 0.055978 -0.347020 0.052905 -0.274266 -0.313767
