954 10
pr_1 0.200559 0.186984 -0.340384 -0.180760 -0.360084 -0.270102 -0.261601 0.453145 -0.476075 0.270626
pr_10 0.254957 0.003114 -0.316136 -0.204007 0.245717 -0.433888 0.020365 0.275857 -0.566211 -0.384299
pr_14 0.147068 0.123082 -0.417489 -0.226700 -0.194140 -0.365767 -0.087331 0.479516 -0.570218 0.057836
pr_4 -0.069283 0.057159 -0.248309 -0.469616 0.165568 -0.146597 0.246563 0.205359 -0.739792 -0.102832
id_12 0.531024 -0.033826 0.115636 -0.379198 0.180216 -0.211725 -0.241492 -0.169731 -0.577866 -0.247678
id_0 0.519903 -0.016084 0.095511 -0.386046 0.172054 -0.222378 -0.243615 -0.148278 -0.592365 -0.244954
id_7 0.538224 -0.048797 0.113035 -0.376104 0.174515 -0.207170 -0.247236 -0.169835 -0.574987 -0.244435
pr_25 0.152182 0.158075 -0.404232 -0.234426 -0.222763 -0.325958 -0.127441 0.470585 -0.569705 0.123963
id_17 -0.243365 0.204012 -0.374072 0.100346 -0.103161 -0.070996 0.029252 0.637102 -0.559910 -0.114965
pr_22 0.244277 0.048008 -0.320823 -0.290278 0.030841 -0.388683 -0.026855 0.318319 -0.680632 -0.183037
pr_30 0.232188 0.021319 -0.304503 -0.297259 0.132270 -0.385731 0.010322 0.297294 -0.663302 -0.264207
pr_19 0.196364 0.133749 -0.394764 -0.266517 -0.156834 -0.359990 -0.116722 0.411071 -0.615094 0.039365
id_44 -0.094617 0.039639 -0.571246 -0.005033 0.041385 -0.340327 0.126377 0.630518 -0.329110 -0.154130
id_35 0.547993 -0.035154 0.156674 -0.382754 0.227362 -0.179650 -0.222485 -0.235146 -0.515822 -0.269420
id_32 0.539509 -0.047584 0.174141 -0.345418 0.208482 -0.200310 -0.234602 -0.233848 -0.533744 -0.280773
id_51 -0.077140 -0.009357 -0.541212 -0.087336 0.057393 -0.354628 0.114620 0.556839 -0.442415 -0.213143
id_49 -0.089771 0.019482 -0.525575 -0.020465 0.014018 -0.328425 0.088945 0.648727 -0.398749 -0.138188
id_181 0.540962 -0.099878 0.220422 -0.361610 0.247146 -0.183386 -0.208151 -0.302634 -0.459734 -0.277591
id_28 -0.081858 0.078973 -0.556929 -0.001968 -0.044700 -0.308016 0.117755 0.622757 -0.399923 -0.135598
id_207 0.546407 -0.049403 0.185126 -0.354983 0.273443 -0.149865 -0.196993 -0.253641 -0.507140 -0.284873
id_255 -0.211256 0.156128 -0.405386 0.060179 -0.052503 -0.116415 0.064032 0.618927 -0.583635 -0.137570
id_86 -0.074862 0.036956 -0.534100 -0.051803 -0.036395 -0.322646 0.089942 0.614613 -0.439105 -0.144939
id_18 0.492050 -0.123753 0.218453 -0.313953 0.278094 -0.173676 -0.203056 -0.335758 -0.447159 -0.367244
id_72 0.568992 -0.043737 0.221804 -0.324571 0.216934 -0.140914 -0.260703 -0.280682 -0.489989 -0.256976
id_145 0.475063 -0.121124 0.211267 -0.364024 0.309010 -0.152880 -0.189926 -0.322357 -0.477145 -0.309812
id_36 0.553208 -0.066184 0.278897 -0.345809 0.236178 -0.140846 -0.230890 -0.381273 -0.378286 -0.273526
id_46 0.555250 -0.101940 0.269032 -0.309527 0.266367 -0.115654 -0.213237 -0.390546 -0.366037 -0.311149
id_53 0.532335 -0.118718 0.259218 -0.336790 0.280814 -0.162150 -0.212060 -0.334449 -0.443125 -0.252132
id_82 0.531948 -0.059631 0.186472 -0.326306 0.236564 -0.167375 -0.209200 -0.322085 -0.446838 -0.375611
id_262 0.500378 -0.058034 0.197539 -0.361579 0.278716 -0.158043 -0.190443 -0.318679 -0.492818 -0.305186
id_161 0.014027 0.073261 -0.556865 -0.160017 -0.036384 -0.340612 0.105792 0.531484 -0.469813 -0.164317
id_21 0.025303 0.115191 -0.516197 -0.128778 -0.057630 -0.330169 0.046574 0.563859 -0.519615 -0.024686
id_26 0.529007 -0.040693 0.292997 -0.366345 0.285461 -0.110282 -0.203267 -0.376918 -0.403365 -0.242284
id_190 -0.008446 0.046896 -0.499704 -0.173293 -0.102023 -0.303567 -0.065023 0.587475 -0.515243 -0.024555
id_67 -0.206240 0.210744 -0.400288 0.087981 -0.072032 -0.172179 0.070538 0.583088 -0.583524 -0.157412
id_218 0.522298 -0.149531 0.241159 -0.300400 0.367682 -0.131332 -0.158564 -0.338056 -0.414077 -0.305165
id_54 0.531033 -0.103019 0.356980 -0.327969 0.276538 -0.049140 -0.178086 -0.403094 -0.378950 -0.236012
id_108 0.562122 -0.154762 0.283309 -0.314736 0.274033 -0.139759 -0.178049 -0.372102 -0.336954 -0.320030
id_69 -0.259865 0.129027 -0.361419 0.027304 -0.058837 -0.114155 0.099380 0.639174 -0.556023 -0.200944
id_132 -0.001574 0.100846 -0.494991 -0.125583 -0.098358 -0.359051 0.072511 0.566882 -0.504193 -0.098109
id_349 0.568087 -0.054024 0.366127 -0.316416 0.256793 -0.035513 -0.173197 -0.360280 -0.340948 -0.311355
id_97 -0.035593 0.032943 -0.476657 -0.195314 0.015817 -0.363423 0.022525 0.597192 -0.488004 -0.068387
id_148 0.499675 -0.119294 0.298376 -0.302091 0.278453 -0.016809 -0.204084 -0.453147 -0.376295 -0.298993
id_5 -0.207838 0.190667 -0.440424 0.033687 -0.050598 -0.185327 0.062295 0.587882 -0.576225 -0.083157
id_66 -0.180349 0.056068 -0.545281 -0.022984 0.018025 -0.292343 0.119382 0.636115 -0.388221 -0.105223
id_177 0.599270 -0.108080 0.278985 -0.305691 0.284610 -0.069655 -0.196885 -0.352704 -0.347513 -0.296867
id_428 0.465368 -0.085502 0.329712 -0.306896 0.299510 -0.040161 -0.200140 -0.340693 -0.439185 -0.364551
id_113 -0.099670 0.037764 -0.475383 -0.153294 -0.074716 -0.353085 -0.001983 0.662557 -0.411739 -0.019614
id_164 -0.040590 0.084870 -0.514700 -0.129713 -0.035801 -0.362470 -0.003066 0.595321 -0.469234 -0.046314
id_397 0.528542 -0.082056 0.206018 -0.375413 0.315337 -0.218295 -0.255450 -0.245700 -0.422359 -0.281834
id_485 0.144945 0.156880 -0.480812 -0.159543 0.014233 -0.383969 0.052469 0.514313 -0.523506 -0.093711
id_42 -0.173974 0.202110 -0.428551 0.046838 -0.037554 -0.217631 0.026351 0.569920 -0.593601 -0.128044
id_100 0.061820 0.106364 -0.546667 -0.117051 0.001435 -0.340052 -0.023410 0.502580 -0.538090 -0.118350
id_136 0.441571 -0.117803 0.440898 -0.179635 0.277953 -0.029620 -0.232699 -0.511993 -0.275929 -0.306462
id_151 0.236244 -0.085806 -0.178471 -0.289605 0.124589 -0.341110 0.034515 0.240462 -0.711483 -0.352142
id_230 0.526200 -0.092276 0.344164 -0.305128 0.346682 -0.014816 -0.127295 -0.338653 -0.344965 -0.364346
id_254 -0.020734 0.054657 -0.440893 -0.211162 -0.091299 -0.347273 0.033964 0.573781 -0.537513 -0.096823
id_361 0.534250 -0.111066 0.335095 -0.311259 0.303509 0.010455 -0.226397 -0.398610 -0.342845 -0.270473
id_192 0.028698 0.117104 -0.442207 -0.124601 -0.125138 -0.341193 -0.021254 0.530003 -0.600713 0.010362
id_263 0.135601 0.158493 -0.462821 -0.297379 -0.005476 -0.310475 -0.018638 0.404253 -0.607229 -0.157913
id_334 0.392895 -0.133341 0.176457 -0.349976 0.373075 -0.012737 -0.124583 -0.349251 -0.507422 -0.374048
id_579 0.419442 -0.083414 0.328169 -0.318142 0.288434 0.021305 -0.293689 -0.492724 -0.289432 -0.334293
id_58 0.002310 -0.019542 -0.407171 -0.098462 -0.053445 -0.449807 0.069455 0.514065 -0.582316 -0.103769
id_91 0.103510 0.145593 -0.476525 -0.197232 -0.209023 -0.281563 -0.062325 0.554596 -0.512775 0.068886
id_123 0.141048 0.121556 -0.374393 -0.195811 -0.032227 -0.263948 0.001412 0.490253 -0.689681 0.010073
id_234 0.501769 -0.074140 0.278664 -0.243780 0.266813 -0.133663 -0.251406 -0.468690 -0.347188 -0.336420
id_285 -0.224392 0.189895 -0.446491 0.076824 -0.156746 -0.179726 0.064892 0.641169 -0.483022 -0.053327
id_121 -0.007791 0.164445 -0.508286 -0.116949 -0.161071 -0.252590 0.072803 0.607152 -0.484366 -0.050763
id_154 -0.037231 0.050688 -0.580779 -0.057579 0.037294 -0.219049 0.201383 0.682991 -0.301491 -0.090124
id_203 -0.189318 0.205258 -0.379154 0.016497 -0.116303 -0.129236 0.011960 0.649781 -0.562307 -0.096037
id_289 0.184360 0.112623 -0.349296 -0.265889 -0.116637 -0.340525 -0.043236 0.481903 -0.629544 0.025226
id_326 -0.172473 0.043210 -0.565441 -0.062564 -0.022530 -0.239656 0.148287 0.638419 -0.392330 -0.057574
id_45 -0.087498 0.105667 -0.470844 -0.095152 -0.078335 -0.367388 0.045627 0.591354 -0.498972 -0.092550
id_93 0.050949 0.147655 -0.499267 -0.086425 -0.121863 -0.379413 -0.065952 0.508913 -0.539630 -0.074278
id_143 0.525652 -0.148732 0.321465 -0.325624 0.335036 -0.043333 -0.208931 -0.421051 -0.289225 -0.271078
id_159 0.084600 0.087225 -0.495633 -0.155726 -0.002868 -0.328437 0.058803 0.581229 -0.503669 -0.111740
id_184 0.140110 0.057312 -0.369199 -0.289325 -0.122837 -0.330323 -0.004220 0.427625 -0.659609 -0.122067
id_404 0.085306 0.139703 -0.494797 -0.078354 -0.046282 -0.361671 0.017928 0.600519 -0.461872 -0.122573
id_440 0.029256 0.081800 -0.462090 -0.114183 -0.138945 -0.381823 0.018575 0.510356 -0.576046 0.090308
id_76 0.223862 0.060351 -0.403423 -0.290678 -0.018648 -0.414639 -0.034093 0.386352 -0.588106 -0.174434
id_102 0.074184 -0.001154 -0.522278 -0.296763 -0.053582 -0.329652 -0.098378 0.440473 -0.564190 -0.010239
id_227 0.006566 -0.025437 -0.347016 -0.231977 0.023728 -0.279554 -0.063623 0.473606 -0.713699 -0.092987
id_288 0.096816 0.032847 -0.510635 -0.146502 -0.181302 -0.388574 -0.081556 0.485926 -0.529188 -0.025719
id_374 0.392319 -0.104992 0.415304 -0.257372 0.391343 -0.000047 -0.231352 -0.516569 -0.197817 -0.289304
id_380 0.478931 -0.128649 0.374027 -0.243518 0.247047 0.054031 -0.188969 -0.559998 -0.188227 -0.325867
id_452 0.147492 0.132058 -0.387477 -0.290041 0.059801 -0.312149 -0.140296 0.391840 -0.672523 0.004710
id_587 0.463026 -0.159175 0.342775 -0.235186 0.402173 -0.084189 -0.091710 -0.490055 -0.228757 -0.343129
id_11 -0.040030 0.122436 -0.540387 -0.129723 -0.093669 -0.346358 0.093785 0.593586 -0.415335 -0.110358
id_29 -0.076234 0.121526 -0.482553 -0.105066 -0.078838 -0.229809 -0.090605 0.561562 -0.592385 -0.044884
id_39 0.092577 0.070613 -0.486575 -0.288607 -0.081319 -0.273335 -0.055384 0.443811 -0.618327 -0.052012
id_61 -0.019735 0.050342 -0.513042 -0.177157 -0.089045 -0.307470 -0.059218 0.429430 -0.641731 -0.016632
id_88 0.067748 0.094614 -0.375340 -0.291219 -0.059697 -0.376381 -0.147949 0.452581 -0.623465 -0.010796
id_103 0.507150 0.017472 0.308735 -0.346485 0.254113 -0.179705 -0.188092 -0.411049 -0.401617 -0.254206
id_114 0.132045 0.145846 -0.393851 -0.234811 -0.095103 -0.410429 -0.058653 0.427378 -0.622249 0.016010
id_135 0.051077 0.101492 -0.503430 -0.122692 -0.097240 -0.337613 -0.124192 0.429934 -0.627886 0.025492
id_329 0.446323 -0.193846 0.409675 -0.370825 0.348243 -0.056896 -0.118723 -0.460801 -0.233176 -0.229260
id_348 0.089544 0.055407 -0.518769 -0.233304 -0.150558 -0.416976 -0.030851 0.476587 -0.489338 -0.035858
id_356 0.460442 -0.105235 0.336651 -0.357226 0.304171 -0.077132 -0.158287 -0.293617 -0.499439 -0.277129
id_599 0.034903 0.152148 -0.503010 -0.129821 -0.084805 -0.285615 0.097359 0.510537 -0.586364 0.055159
id_56 -0.117638 0.061989 -0.502442 -0.135307 -0.130669 -0.233162 0.019906 0.626582 -0.495581 0.039010
id_89 0.115232 0.235045 -0.403730 -0.239294 -0.070582 -0.256605 -0.048547 0.578873 -0.549875 -0.023974
id_90 0.536844 -0.000648 0.363520 -0.366125 0.244008 -0.055209 -0.167687 -0.449384 -0.305811 -0.243785
id_152 0.022657 0.133397 -0.494418 -0.230119 -0.059353 -0.274175 0.058168 0.545272 -0.551800 0.020132
id_209 0.300046 -0.004215 -0.273763 -0.319880 -0.135819 -0.336689 -0.185665 0.303804 -0.688222 -0.021460
id_260 -0.107648 0.087981 -0.416831 -0.169587 -0.159016 -0.334972 0.092761 0.634212 -0.479417 0.000354
id_447 0.025659 0.136555 -0.552646 -0.145763 -0.208380 -0.378477 -0.064788 0.510236 -0.446796 0.056548
id_57 0.045272 0.087315 -0.410434 -0.344869 0.095940 -0.366659 -0.103163 0.369192 -0.630376 -0.122366
id_122 0.113743 0.165444 -0.258458 -0.232606 -0.133797 -0.331309 -0.114450 0.345581 -0.759999 -0.031529
id_213 0.090711 0.156643 -0.546734 -0.109198 0.013749 -0.365648 -0.074844 0.481172 -0.529024 -0.074233
id_217 0.006248 0.050668 -0.466992 -0.066106 -0.192344 -0.376765 -0.018745 0.502216 -0.580372 0.081183
id_237 0.571047 0.123122 -0.145746 -0.219173 -0.171826 -0.550332 0.185772 0.391080 -0.139343 -0.224069
id_331 0.233973 -0.089380 -0.502105 -0.069003 -0.181634 -0.146072 -0.392617 0.326411 -0.374864 -0.474188
id_449 0.331815 -0.114553 0.347701 -0.319735 0.332172 -0.055770 -0.194525 -0.545672 -0.339523 -0.298876
id_595 -0.125448 0.254403 -0.463129 0.020809 -0.160437 -0.174736 0.084636 0.535515 -0.585235 -0.109122
id_647 0.457562 -0.211402 0.261364 -0.271058 0.250452 -0.100648 -0.162291 -0.500198 -0.265883 -0.429041
id_31 -0.067918 0.124245 -0.520578 -0.107657 -0.265905 -0.209919 -0.052604 0.531163 -0.525250 0.147642
id_68 -0.113650 -0.013440 -0.340902 -0.146438 -0.079146 -0.400408 0.110540 0.622733 -0.527390 -0.067070
id_79 0.300741 -0.288765 0.372978 -0.474724 0.072456 -0.124330 -0.473170 -0.026280 -0.389012 -0.255101
id_94 0.103055 0.034794 -0.370958 -0.256625 -0.014537 -0.435817 -0.132090 0.393662 -0.626224 -0.173149
id_126 -0.163930 0.172321 -0.517574 0.045572 -0.093960 -0.307126 0.089087 0.611120 -0.432431 0.043778
id_131 0.039131 0.205769 -0.344078 -0.206443 -0.144349 -0.232019 -0.059171 0.405783 -0.742768 -0.024191
id_193 0.663361 -0.129170 0.235240 -0.097351 0.025391 -0.007063 -0.137744 -0.596162 -0.315739 -0.060703
id_325 0.619749 0.277668 0.126424 -0.472470 -0.050064 -0.242457 -0.307626 0.171808 -0.332213 0.061574
id_339 0.208458 0.075644 -0.414278 -0.215719 -0.031018 -0.239015 -0.078861 0.559127 -0.590328 -0.085108
id_352 0.354979 -0.241002 0.408480 -0.118946 0.206050 0.105029 -0.060295 -0.620137 -0.353131 -0.261741
id_365 0.188539 -0.016684 -0.479109 -0.112184 -0.178983 -0.227771 -0.038327 0.494250 -0.623745 -0.057619
id_375 -0.040137 0.000427 -0.453455 -0.172458 -0.170777 -0.377764 -0.085723 0.590362 -0.479855 -0.070851
id_393 0.067291 -0.017822 -0.281156 -0.337748 -0.014170 -0.487911 -0.097860 0.519412 -0.530628 0.053313
id_498 -0.212912 0.004008 -0.430645 0.005790 -0.086491 -0.253070 0.042499 0.676835 -0.482397 0.070849
id_509 0.065343 -0.054970 -0.485169 -0.163534 0.138698 -0.320105 -0.030814 0.354936 -0.692298 -0.051646
id_540 -0.032433 0.122698 -0.437396 -0.103014 -0.192924 -0.281807 0.042350 0.596019 -0.546170 0.099985
id_15 0.225271 0.022486 -0.347949 -0.384697 0.081724 -0.308010 -0.147338 0.319540 -0.664047 -0.115609
id_146 0.240295 0.040100 -0.214633 -0.386519 0.020456 -0.464751 -0.121046 0.267769 -0.662088 -0.063731
id_205 -0.159915 0.196424 -0.407976 -0.177719 -0.199434 -0.292477 0.046266 0.584167 -0.517008 -0.042552
id_226 0.423791 -0.014183 0.237987 -0.248847 0.467925 0.012222 0.019121 -0.485760 -0.308196 -0.388872
id_259 0.506472 -0.156767 0.386118 -0.125255 0.291829 0.108140 -0.162740 -0.632807 -0.132871 -0.112661
id_275 -0.027456 0.084116 -0.380143 -0.261709 -0.277730 -0.254342 0.041861 0.501184 -0.617167 0.059267
id_277 0.035554 0.163512 -0.502226 -0.200984 -0.058133 -0.276992 0.003654 0.415824 -0.648485 0.076247
id_340 0.568696 -0.270404 -0.045958 -0.379036 0.236216 -0.307184 0.118869 -0.444819 -0.223494 -0.213499
id_412 0.299557 0.177924 -0.606269 0.035795 -0.012891 -0.347154 0.185003 0.449001 -0.379436 -0.096350
id_413 0.354093 0.156420 0.588468 -0.307932 0.317467 -0.045617 -0.314172 -0.329821 0.025855 -0.313072
id_450 -0.127477 0.170235 -0.276165 -0.119827 0.006024 -0.463356 -0.076081 0.197103 -0.696909 -0.345094
id_482 0.167401 -0.069029 -0.498227 -0.042920 -0.033252 -0.454863 0.013736 0.381015 -0.597539 -0.081974
id_492 -0.030584 0.178174 -0.346521 -0.151311 -0.218229 -0.472506 0.120588 0.408482 -0.573244 0.208454
id_503 0.792838 -0.310148 0.098385 -0.118700 0.156314 0.010259 -0.141755 -0.356640 -0.278398 0.045987
id_671 0.391575 -0.207640 0.494470 -0.148696 0.413049 -0.056934 -0.105259 -0.371974 -0.176659 -0.427130
id_73 0.502386 0.181506 -0.420764 -0.259164 0.150730 -0.066418 -0.369474 0.078036 -0.542642 -0.079142
id_81 0.166950 -0.023375 -0.547586 -0.198035 -0.072670 -0.329244 -0.103239 0.554105 -0.425705 0.141121
id_83 0.415462 -0.357830 0.406135 -0.378814 0.214764 0.044895 -0.245871 -0.419811 -0.293921 -0.140287
id_87 0.359482 -0.213179 0.354013 -0.436147 0.401829 -0.063241 -0.104598 -0.399591 -0.386185 -0.156718
id_105 -0.132588 0.081295 -0.483288 -0.115883 0.023770 -0.362237 0.050715 0.514490 -0.570637 0.064311
id_111 -0.139914 -0.168846 -0.184262 -0.117553 0.201953 -0.368240 0.266009 0.392596 -0.288260 -0.647898
id_124 0.186144 0.066195 -0.435346 -0.235562 0.034391 -0.181890 -0.146263 0.573765 -0.575402 -0.000140
id_150 0.189270 0.077926 -0.441903 -0.109533 0.030779 -0.282693 -0.074251 0.586731 -0.559622 -0.083795
id_170 0.068889 0.249287 -0.523607 -0.087663 0.016297 -0.269099 -0.012393 0.621050 -0.425112 0.109572
id_214 0.519741 0.157607 -0.055597 -0.586153 0.290247 -0.280107 -0.286687 -0.029679 -0.294308 -0.161160
id_235 0.091143 0.104549 -0.398434 -0.202215 -0.009002 -0.428660 -0.115968 0.613561 -0.431804 0.144676
id_317 0.310499 -0.143768 0.259410 -0.364716 0.148468 0.000641 -0.349558 -0.682683 0.031871 -0.267030
id_328 0.170006 0.176825 -0.434851 -0.214385 -0.125015 -0.520448 -0.169490 0.297292 -0.546970 -0.044653
id_333 0.538260 -0.165953 -0.401222 0.150657 -0.193625 -0.477471 -0.312117 0.041866 -0.197391 -0.308960
id_353 0.541018 -0.164509 0.364449 -0.379831 0.362728 0.027554 -0.318087 -0.400656 -0.079825 -0.052286
id_383 0.014765 0.183154 -0.503412 -0.270635 0.018399 -0.391224 -0.009358 0.442597 -0.512728 -0.165244
id_436 0.344996 0.075570 0.079104 -0.552308 0.207083 -0.362570 -0.062244 0.157700 -0.439084 -0.409984
id_437 -0.107813 0.055644 -0.521511 -0.011323 -0.063000 -0.320508 0.023175 0.515427 -0.575440 -0.095659
id_448 0.076131 0.170325 -0.477224 -0.108030 -0.222796 -0.417358 -0.065038 0.445186 -0.533632 0.121535
id_466 0.455106 -0.092618 0.030750 -0.193034 0.352331 0.192288 0.191935 -0.178898 -0.341578 -0.632030
id_468 0.465365 -0.223764 0.464003 -0.246396 0.294988 -0.095243 -0.075484 -0.491923 -0.296013 -0.161110
id_475 0.297481 -0.555817 0.429622 -0.049039 0.443026 -0.058043 -0.015782 -0.369558 0.080730 -0.269466
id_505 -0.111445 0.026751 -0.565574 -0.240738 -0.170560 -0.194964 -0.009185 0.467430 -0.561763 0.088214
id_542 0.371586 -0.143458 0.666166 0.192986 -0.376668 -0.004722 -0.063666 0.144758 -0.382721 0.216652
id_34 -0.043573 0.170924 -0.470323 -0.168210 -0.071333 -0.373592 -0.002394 0.500651 -0.568684 0.025898
id_37 0.192006 0.120811 -0.441929 -0.435620 0.361906 -0.309429 0.178461 0.205196 -0.511484 -0.034360
id_74 0.611301 -0.110626 0.234673 -0.073361 0.642227 -0.292791 -0.118544 0.158201 -0.089298 -0.091556
id_104 -0.086881 0.106905 -0.528998 -0.002399 -0.024289 -0.152017 0.095525 0.667142 -0.465068 0.083599
id_109 0.614541 0.042854 -0.127383 -0.379254 -0.028275 -0.170433 -0.372919 -0.145970 -0.517928 -0.044388
id_118 0.602124 -0.123439 0.471696 -0.160360 0.172517 0.050674 -0.061536 -0.513781 0.253795 -0.097453
id_138 0.215951 -0.123088 0.552055 -0.400072 0.248623 0.128624 -0.464388 -0.187002 -0.053399 -0.376241
id_158 0.464805 0.115883 -0.393595 -0.147651 0.255249 -0.145736 0.139353 0.103902 -0.653341 -0.224387
id_176 -0.088981 0.249104 -0.350853 -0.130931 -0.287908 -0.253257 -0.216147 0.590413 -0.495710 0.041525
id_194 -0.092219 0.013428 -0.358606 -0.288744 -0.015361 -0.424620 -0.147924 0.367506 -0.626668 -0.221698
id_195 0.332908 -0.107812 0.395054 -0.370133 0.026384 0.134619 -0.156897 -0.680772 0.089971 -0.263633
id_219 0.002409 0.099232 -0.516877 -0.117893 -0.161135 -0.320901 -0.015163 0.425177 -0.629718 -0.050935
id_233 -0.199544 0.247598 -0.229919 -0.017117 -0.049182 -0.404386 -0.069940 0.617535 -0.511292 -0.179206
id_243 -0.102474 0.229936 -0.362454 -0.123496 -0.123852 -0.344155 0.015892 0.563226 -0.569377 -0.120645
id_247 0.373317 -0.124410 0.526453 -0.410950 0.202131 0.077288 -0.113976 -0.448767 -0.319824 -0.188743
id_253 0.615714 0.354435 0.047131 -0.215702 -0.003781 -0.476059 0.117422 0.002900 -0.151190 -0.428045
id_264 0.206169 -0.209134 0.385263 -0.450981 -0.074915 -0.202549 -0.389342 -0.577701 -0.145464 -0.093926
id_268 0.297923 -0.104600 0.089901 0.340610 0.658923 -0.161892 -0.353786 -0.269412 0.149438 -0.309412
id_271 0.777857 -0.127814 0.320380 -0.284339 0.032918 -0.077610 -0.372053 -0.089907 -0.151554 -0.136120
id_272 0.335149 0.053755 0.230421 0.355060 0.420792 -0.399193 0.095169 -0.029112 -0.493307 -0.340509
id_274 0.570512 -0.000067 0.327826 -0.201174 0.184661 -0.115562 -0.306025 -0.514998 -0.035041 -0.344990
id_278 -0.084837 0.128567 -0.451707 -0.049222 -0.123225 -0.262770 -0.060434 0.393601 -0.704049 -0.176974
id_280 0.297356 0.326978 0.119759 -0.461806 0.004769 -0.347853 -0.399243 0.255313 -0.473403 -0.085690
id_301 -0.068209 0.025753 -0.376812 -0.136983 -0.110996 -0.269907 0.097104 0.648758 -0.560817 0.062698
id_316 -0.003205 0.192326 -0.363734 -0.271760 -0.067910 -0.433926 0.109074 0.485634 -0.561527 -0.029862
id_338 0.611744 -0.034608 0.195290 -0.320080 0.319468 -0.039597 -0.156788 -0.350518 0.258387 -0.407610
id_342 0.254767 -0.130566 0.552236 -0.328894 0.275031 -0.064481 0.061757 -0.643226 0.082644 -0.026975
id_354 0.524419 0.069150 0.425921 -0.263551 0.293581 -0.120899 -0.135476 -0.506305 -0.296995 -0.074996
id_372 0.511406 -0.295039 0.123923 0.129460 0.177327 0.094078 -0.248105 -0.469865 -0.494546 -0.228253
id_387 -0.047721 -0.073275 -0.526498 -0.172719 -0.124937 -0.331971 -0.015152 0.631632 -0.392383 -0.079708
id_395 0.488612 0.128118 0.225206 -0.119513 0.278309 -0.209923 -0.359945 -0.523926 -0.358715 -0.159947
id_396 0.176180 -0.427742 -0.197168 -0.069814 0.482441 -0.017653 -0.064337 -0.155234 -0.693096 0.023835
id_408 0.594451 -0.245527 0.233377 -0.262149 0.326929 0.052755 -0.253993 -0.286081 -0.446737 -0.086967
id_446 0.237010 -0.136391 0.407789 -0.180948 0.341917 -0.214856 -0.007274 -0.355567 -0.535425 -0.387244
id_479 0.015488 0.114059 -0.491389 -0.235708 -0.295233 -0.178374 -0.035747 0.541004 -0.525763 -0.018947
id_487 0.149718 -0.009877 0.512104 -0.170421 0.134836 0.053014 -0.060606 -0.463502 0.200213 -0.637659
id_488 -0.027644 -0.037964 -0.504310 -0.114024 0.039936 -0.397563 0.169394 0.440118 -0.545896 -0.224527
id_508 0.164583 -0.214085 0.179602 -0.328626 0.412480 -0.004889 -0.453485 -0.454363 0.000089 -0.452294
id_512 0.255586 -0.272778 0.384423 -0.447685 0.318957 0.159441 -0.364838 -0.469674 -0.119530 -0.130083
id_527 0.470425 -0.294861 0.125692 -0.285159 0.280687 -0.201410 -0.323626 -0.276210 -0.318413 -0.439181
id_529 0.417937 -0.246709 0.393804 -0.287980 0.216810 -0.099706 -0.448844 -0.411426 -0.068143 -0.306800
id_538 0.266751 0.035620 0.097286 -0.335702 0.323738 -0.025592 0.001765 0.057455 -0.739456 -0.387110
id_562 0.584749 0.154018 0.019208 -0.418671 0.235929 0.106534 0.022652 -0.418775 -0.426283 -0.184600
id_574 0.523757 -0.098136 0.228945 -0.201706 -0.054599 0.071618 -0.219630 -0.500573 -0.342841 -0.445518
id_576 0.456135 0.065727 0.184737 -0.323398 0.029260 -0.304501 -0.180071 -0.165894 -0.591200 -0.381924
id_577 0.373096 -0.301915 0.610312 -0.076280 0.305689 0.137963 -0.291673 -0.431006 0.038886 -0.080726
id_581 0.201112 -0.117730 0.673160 -0.077573 0.253544 -0.160819 0.155943 -0.161849 -0.241853 -0.536078
id_584 0.032649 -0.037965 -0.338320 -0.180708 0.183802 -0.560997 0.264980 0.421213 -0.471435 -0.178859
id_590 0.455338 0.013846 0.320151 -0.195072 0.391208 0.042358 -0.279825 -0.484475 -0.282164 -0.323194
id_601 0.101889 0.230204 -0.395647 -0.005109 0.483322 -0.202043 0.272476 0.166808 -0.447949 -0.450461
id_645 0.592454 -0.268997 0.539426 -0.337181 0.023101 0.010822 -0.244960 -0.310984 -0.119319 -0.019071
id_653 0.466637 0.014706 0.411972 -0.306046 0.175189 0.343094 0.056125 -0.347118 -0.096250 -0.487175
id_664 -0.154958 0.223636 -0.318366 -0.037607 -0.086497 -0.365978 0.114711 0.558419 -0.551119 -0.230347
id_687 0.420671 -0.320214 0.206353 -0.039315 0.148317 -0.004790 -0.413132 -0.260323 -0.521890 -0.378861
id_867 -0.046679 -0.103164 -0.490547 -0.078672 -0.080534 -0.451495 -0.171734 0.434159 -0.521588 -0.199949
id_2 0.037253 -0.303113 0.470681 -0.433049 0.464143 0.052603 0.284955 -0.350121 0.075021 -0.264679
id_55 0.526372 -0.266786 0.189530 -0.287512 0.196172 0.022617 -0.382591 -0.106240 -0.337137 -0.472074
id_60 0.359574 0.231822 -0.383919 0.257402 0.082243 -0.071053 0.404215 0.192924 0.151373 -0.606613
id_62 0.498235 0.035689 0.306887 -0.205488 0.004493 -0.222526 -0.361323 -0.602966 -0.213017 -0.158262
id_65 0.605173 0.312870 -0.162766 0.220251 -0.244850 -0.117529 -0.054901 0.467006 -0.058801 -0.403168
id_70 0.317060 0.391506 -0.023872 -0.508575 -0.118679 0.095000 0.180298 0.215694 -0.608297 0.121702
id_78 0.061320 0.373139 -0.405712 -0.122891 -0.247897 -0.403602 -0.151081 0.379203 -0.515947 0.141889
id_80 0.206951 0.024311 0.603469 -0.231601 0.229846 0.088980 -0.416537 -0.337676 0.209165 -0.383069
id_99 0.125016 -0.053853 -0.324732 -0.206640 -0.205537 -0.466925 -0.012829 0.255847 -0.708710 0.071857
id_101 -0.012560 -0.248835 -0.305308 -0.444784 0.247175 -0.059926 0.312602 -0.027040 -0.605960 -0.341397
id_106 0.201154 0.164573 0.482416 0.168767 0.417020 0.119109 -0.587622 -0.274034 0.250471 -0.004866
id_110 0.124461 0.094795 0.604661 0.057292 0.315370 0.108397 -0.162514 -0.504125 -0.219866 -0.408074
id_112 0.128609 0.173264 -0.062154 0.030491 0.381627 -0.442709 -0.278752 0.301267 -0.530404 -0.396514
id_119 0.637329 -0.225025 -0.205866 -0.074481 0.253909 -0.027063 -0.427957 0.081901 -0.407953 -0.271595
id_120 0.027118 -0.125390 -0.515460 -0.094661 0.046870 -0.499961 -0.186787 0.465026 -0.440720 -0.106543
id_137 0.666277 -0.081010 0.382661 -0.194738 0.304139 0.036389 -0.179315 -0.350721 -0.095714 -0.327132
id_139 0.214456 0.218515 0.172387 -0.329191 0.040482 -0.258517 0.199444 -0.407316 -0.343022 -0.613480
id_144 0.577424 0.052004 0.100725 -0.438926 -0.209849 -0.034306 -0.256279 -0.448234 -0.328758 0.202946
id_153 0.263782 -0.414780 -0.026845 -0.045297 -0.158576 0.093997 -0.770162 0.094591 0.345469 -0.013318
id_157 -0.014172 0.082496 -0.659960 -0.165479 -0.042991 -0.194333 0.240318 0.442843 -0.486008 -0.019564
id_160 0.458498 -0.376885 0.226885 -0.421836 0.027596 -0.260235 -0.381518 0.007252 -0.424812 -0.154133
id_163 -0.142694 0.102096 -0.344088 -0.161329 -0.148027 -0.330626 0.013589 0.466772 -0.689230 -0.021617
id_168 0.629172 0.210914 -0.148594 -0.221863 0.303015 0.014153 -0.284781 0.250343 -0.501405 -0.034031
id_171 0.340999 0.140815 0.270436 -0.416023 0.491660 -0.315297 0.004618 -0.071908 -0.399613 -0.334149
id_173 0.202600 -0.277639 0.233333 0.000468 0.143178 0.006973 -0.500768 -0.312213 -0.360430 -0.573343
id_179 0.210402 -0.009445 -0.439425 -0.080531 0.036351 -0.341601 0.068028 0.456563 -0.589093 -0.279179
id_201 0.135213 -0.027370 0.117169 -0.286618 -0.279838 -0.521185 -0.435341 -0.247350 -0.532681 0.026344
id_222 0.529979 -0.330466 0.173482 -0.200438 0.052380 -0.273357 -0.193090 -0.391422 -0.323604 -0.408608
id_228 0.591911 0.033129 0.107526 -0.436575 0.086737 0.247463 -0.273459 -0.458475 -0.234211 -0.194393
id_229 0.483774 -0.360119 0.417141 0.073999 0.267825 -0.339886 0.047540 0.081038 -0.271092 -0.432695
id_238 0.583072 -0.125496 0.324202 -0.402797 0.048016 0.167800 -0.114801 -0.361020 0.191918 -0.407573
id_256 0.652693 -0.129604 0.514801 -0.274261 -0.120700 -0.079976 0.099477 -0.233443 0.030133 -0.361514
id_261 0.218290 -0.358782 0.349785 0.013340 0.422414 -0.146865 -0.079292 -0.221420 -0.409989 -0.526962
id_279 0.137203 -0.078522 0.247727 -0.190776 0.495652 -0.341533 -0.346209 0.338322 -0.527900 0.043916
id_292 0.218159 0.152747 -0.475661 -0.077012 -0.212430 -0.316218 -0.196773 0.420361 -0.579393 0.025509
id_295 -0.072526 0.168438 -0.546472 -0.311148 -0.241212 -0.329680 -0.122183 0.475280 -0.343860 0.212116
id_298 0.300054 0.077332 0.376480 -0.113355 0.313001 -0.266475 -0.540577 -0.462961 -0.179064 -0.204455
id_302 0.335996 0.269999 0.496917 -0.109869 0.717610 0.049004 -0.161630 -0.098158 0.023186 0.039327
id_306 0.402123 -0.131120 0.403714 -0.323846 0.250237 0.115531 0.005438 -0.605498 -0.109245 -0.314141
id_336 0.780357 -0.155456 0.018882 -0.491045 0.096767 -0.281415 0.033718 -0.043158 -0.177572 -0.048005
id_350 0.432471 -0.263576 0.335630 -0.264093 0.038960 0.203596 -0.101809 -0.410997 -0.463468 -0.352205
id_355 -0.047832 0.020043 -0.294904 -0.268295 -0.114667 -0.208751 -0.018926 0.529316 -0.705063 0.063146
id_357 0.364500 0.130114 -0.101249 -0.475272 0.080271 -0.269789 -0.305564 0.036446 -0.628745 0.211727
id_373 0.654068 0.089216 -0.244039 0.128127 -0.231353 -0.345777 -0.077310 0.483257 -0.252072 0.110112
id_379 -0.058921 0.186729 -0.501717 -0.021617 -0.233062 -0.374441 -0.176753 0.479868 -0.502618 0.028436
id_382 0.196024 0.192484 -0.070993 -0.216913 0.185050 -0.262974 -0.125845 0.145420 -0.737905 -0.433066
id_384 0.659573 0.027135 0.051639 0.145817 -0.168145 -0.323725 -0.619391 -0.011208 -0.122774 -0.091564
id_385 -0.059256 0.061283 -0.144160 -0.340824 -0.074919 -0.690001 -0.032866 0.410692 0.179138 -0.415014
id_405 0.570100 -0.180249 0.285894 -0.186613 0.472259 -0.019974 -0.325542 -0.171388 -0.221106 -0.343904
id_421 0.408214 0.152716 -0.625137 -0.434814 -0.054966 0.000680 0.264124 0.287051 0.251816 0.107641
id_427 0.767877 0.223071 0.271597 -0.394491 0.177720 0.126732 -0.112314 -0.182494 0.181343 -0.069040
id_429 0.616657 -0.410632 0.261851 -0.204853 0.137925 -0.257680 -0.044892 0.015297 -0.123713 -0.487451
id_431 0.573200 0.251700 -0.389704 -0.048527 0.615041 -0.128766 0.033012 -0.165489 -0.022831 -0.173234
id_433 0.684564 -0.037659 0.001670 -0.087516 0.414873 -0.018211 0.115311 -0.410668 -0.409572 0.012123
id_444 0.216192 -0.096004 0.178537 -0.417640 0.080475 0.031296 -0.486263 0.611812 -0.186106 -0.291357
id_470 0.645186 -0.109289 0.181147 0.046404 0.329495 -0.290272 -0.431984 0.022229 0.056947 -0.391984
id_481 0.030728 -0.422289 0.018795 -0.016575 0.741637 -0.154531 -0.295228 -0.200365 -0.344310 -0.018413
id_491 0.230459 0.182219 -0.391743 -0.327649 0.120198 -0.467858 0.035312 0.492406 -0.387315 -0.160644
id_500 -0.077807 0.053257 0.072455 -0.367469 -0.197099 -0.450753 0.177823 -0.119092 -0.590018 -0.463545
id_513 -0.106038 0.256881 -0.522348 -0.033854 -0.257871 -0.174226 -0.045743 0.579646 -0.455976 -0.076982
id_516 -0.071205 0.227331 -0.535563 -0.165101 -0.279192 -0.152873 -0.061749 0.545325 -0.424376 0.215777
id_533 0.391208 -0.068837 -0.213509 -0.355825 -0.237058 -0.510693 0.116264 0.320394 -0.415414 -0.253530
id_555 0.276955 0.315640 -0.338808 -0.203464 0.036470 -0.484338 0.002414 0.568602 -0.295068 0.145554
id_557 0.512694 -0.303337 -0.250252 0.119287 0.430517 -0.114642 0.189673 0.049702 -0.575531 -0.010315
id_565 0.174529 -0.334820 0.493945 -0.006360 0.683889 -0.215255 0.027613 0.064727 0.195544 -0.237033
id_572 0.284268 0.020861 0.224957 -0.437586 0.520026 -0.001315 -0.212137 -0.017412 0.005076 -0.600757
id_573 0.657139 0.005679 0.591660 0.093368 -0.241812 -0.246910 -0.102748 0.092189 -0.196645 0.179425
id_591 -0.115961 0.149088 -0.470197 -0.183771 -0.241449 -0.350113 -0.075493 0.524586 -0.497454 0.015530
id_593 0.614168 -0.312969 0.022260 -0.446315 -0.169301 0.137167 -0.341156 -0.171051 -0.178017 -0.316767
id_608 0.598006 0.030822 0.141250 0.057520 0.472222 -0.488496 -0.235358 -0.317389 0.017479 0.011091
id_615 0.392435 0.234795 -0.332604 -0.418896 -0.159751 -0.180043 -0.236511 0.286858 -0.424434 -0.358416
id_637 0.146842 -0.148333 0.080317 -0.156642 0.272213 -0.270316 0.146623 0.050635 -0.376337 -0.782678
id_659 0.366839 -0.297611 0.617428 -0.275390 0.126846 -0.131397 -0.264005 -0.407457 -0.096387 -0.203554
id_678 0.004902 0.007085 -0.620096 -0.055038 -0.103546 -0.293949 0.003476 0.559338 -0.356591 -0.274264
id_712 0.559371 -0.036234 0.201799 -0.021409 0.266114 -0.071547 -0.336409 -0.547012 -0.100531 -0.382328
id_754 0.180148 0.018746 -0.289843 -0.247962 0.303788 -0.135864 -0.020262 0.083124 -0.602346 -0.583793
id_806 0.075131 0.099494 0.501122 0.461257 -0.177619 -0.092130 -0.027723 0.429259 -0.289908 0.459848
id_875 0.574632 0.196436 0.194819 -0.441508 -0.011321 -0.157195 -0.390409 0.014529 -0.444593 -0.152299
id_8 0.128720 -0.157495 0.222755 -0.367699 0.182989 -0.204020 0.126366 -0.537415 -0.381929 -0.498038
id_9 -0.007352 0.284418 -0.200512 -0.586427 -0.119473 0.017469 -0.326933 -0.010576 -0.142976 -0.626844
id_24 0.210172 0.168219 -0.520095 -0.070825 -0.037984 -0.156622 -0.021802 0.563942 -0.553107 0.040114
id_27 0.439056 0.338141 -0.253415 -0.038772 -0.276638 0.099695 -0.002273 0.544036 -0.477825 -0.128075
id_47 0.568632 0.056061 0.166534 0.118673 -0.046245 -0.249553 -0.081596 -0.049732 -0.547975 -0.507814
id_48 -0.088118 0.344069 -0.501696 0.186514 -0.439123 0.148261 -0.477732 -0.127860 -0.254436 -0.251478
id_64 -0.241887 -0.243621 -0.420975 -0.077421 0.078559 -0.392022 0.127840 0.138355 -0.626460 0.333369
id_95 0.134844 0.341979 0.574888 -0.503391 -0.132191 -0.131837 0.202542 0.062275 -0.384314 0.231332
id_96 0.110613 -0.254805 -0.455890 -0.042504 -0.165013 -0.483593 -0.003073 0.567670 -0.334183 -0.134789
id_117 0.483214 0.162428 0.354760 -0.364648 0.268696 0.100258 -0.089678 -0.490140 -0.386443 -0.037849
id_125 0.417926 -0.098474 0.296361 -0.530048 -0.237399 0.144102 -0.291065 -0.229804 -0.464776 0.127242
id_140 -0.125234 0.297113 -0.569967 0.027885 -0.102688 -0.187210 0.104938 0.683924 -0.210579 0.041231
id_142 0.630252 -0.188245 -0.323326 0.016639 0.272513 0.328521 0.371969 0.083613 -0.100640 -0.353355
id_149 0.682978 0.246497 -0.182510 0.225100 -0.098228 0.130596 -0.044764 -0.492340 -0.342225 -0.023979
id_156 0.571855 -0.199877 0.070098 0.139640 0.249150 -0.096958 -0.359971 0.445159 -0.456068 -0.037371
id_167 0.411689 -0.036425 0.428456 0.184043 0.166572 -0.095587 -0.204969 -0.620353 -0.267866 -0.276140
id_174 0.505513 0.380857 0.314365 -0.115196 0.402763 0.131052 0.051203 0.432036 -0.236645 -0.250277
id_187 0.287443 0.133386 0.574021 -0.328174 0.188728 0.126558 -0.442577 -0.407807 -0.033408 -0.217840
id_189 0.202797 0.123792 -0.510727 -0.223977 0.063365 -0.180074 0.226264 0.199920 -0.706484 0.076267
id_211 0.321480 -0.210732 0.250558 -0.069103 0.327150 0.251413 -0.553777 -0.421590 -0.333078 -0.138219
id_215 0.604180 0.309877 0.126899 -0.488568 -0.013052 0.054566 0.003296 -0.240102 -0.150512 -0.447971
id_216 0.250409 -0.001246 0.314122 -0.103762 0.538485 0.043611 -0.337442 -0.561887 -0.297963 -0.132746
id_225 0.251314 -0.065765 -0.488005 0.129105 -0.316538 0.184963 -0.332396 0.253889 -0.330218 -0.509216
id_241 0.370198 -0.217785 0.368681 -0.433444 0.245684 -0.473734 0.327947 -0.215029 -0.227755 -0.035779
id_245 0.353636 0.278635 0.168210 -0.148072 0.374388 -0.343074 0.005953 -0.366027 -0.247231 -0.542295
id_269 0.335270 0.215866 0.422282 -0.000532 0.399972 0.154174 -0.224987 -0.475243 -0.038187 -0.448323
id_273 0.496482 -0.140173 0.482521 -0.296065 0.373208 0.218459 -0.339884 -0.274963 0.091927 -0.163678
id_276 0.143932 -0.323095 0.142669 -0.064207 0.170121 -0.193471 -0.392233 -0.758414 -0.167839 0.163816
id_287 -0.121120 -0.002579 -0.490807 -0.335160 0.205294 -0.169253 0.061213 0.278384 -0.684768 0.105618
id_312 -0.279764 0.282629 -0.089973 -0.326514 0.216358 -0.502249 -0.051554 0.634017 -0.145622 -0.047329
id_318 0.266145 0.078317 0.065650 -0.464232 0.426782 -0.092935 -0.251771 -0.301869 -0.546864 -0.242605
id_323 -0.160383 -0.062174 -0.499880 0.250598 0.308944 -0.169950 -0.294126 0.548190 -0.072372 -0.375690
id_332 -0.095356 0.297155 -0.394622 -0.407941 0.255498 -0.308728 0.100814 0.293338 -0.568901 -0.003697
id_337 0.645428 0.152765 0.234221 0.088621 -0.010944 -0.370517 -0.075558 -0.468131 0.191346 0.313848
id_344 0.393094 -0.116646 0.321710 -0.235826 0.457390 -0.521829 -0.277916 -0.289679 0.084493 0.151520
id_346 0.271391 -0.044526 0.145541 -0.574747 0.313443 -0.248128 -0.426013 -0.207986 -0.418072 0.116209
id_347 0.298581 0.050236 0.440543 -0.275332 0.304625 -0.035628 -0.426676 -0.582587 0.128917 -0.079336
id_358 0.582494 -0.146014 0.604964 -0.060583 -0.017583 0.267691 0.018215 -0.287621 -0.003895 -0.338656
id_359 0.389754 0.157819 -0.244174 0.022384 0.324671 -0.355179 0.077760 -0.249592 -0.594914 0.330507
id_362 0.419605 0.026950 0.266319 -0.439547 0.465404 -0.089370 -0.052265 -0.149590 -0.404300 -0.381998
id_377 0.278646 -0.281337 0.266981 -0.695599 -0.357571 -0.348074 -0.111448 0.056879 -0.129377 0.081628
id_391 0.579234 -0.294707 0.507182 -0.005149 -0.140178 -0.270355 -0.061329 -0.236848 -0.157239 -0.378220
id_403 -0.160370 -0.002762 -0.532014 0.031297 -0.180202 -0.451782 -0.115314 0.533610 -0.390130 -0.058625
id_410 0.558025 -0.171694 0.344858 -0.099387 0.047506 0.239543 0.040876 -0.479428 0.034416 -0.487833
id_420 0.433009 -0.337639 0.441080 -0.293251 -0.092474 0.285095 0.092815 -0.548341 0.101399 0.092469
id_441 0.173288 0.352924 0.536130 0.124953 0.229693 -0.461049 -0.353302 -0.266094 -0.080543 -0.273729
id_445 -0.519089 0.070588 0.139091 -0.031481 0.069748 -0.012785 -0.465948 -0.539269 0.385618 0.208755
id_456 0.546177 0.120496 0.441829 -0.044828 0.287194 -0.206039 0.044721 -0.001711 -0.335103 -0.500718
id_462 0.695863 -0.260305 0.094836 0.179588 0.074358 0.147937 -0.120497 -0.444318 -0.161936 -0.375759
id_473 0.419040 -0.000236 0.506329 -0.034749 0.032722 0.216441 0.196716 -0.522623 -0.376472 -0.255634
id_480 0.392408 -0.472956 -0.045222 -0.448192 0.304055 -0.329847 0.357260 0.158908 -0.000027 -0.255485
id_489 0.198762 -0.369397 -0.052772 -0.236492 0.583693 0.060166 -0.002711 0.297835 -0.153103 -0.555747
id_494 0.028425 0.339412 0.138843 -0.408589 0.287500 -0.390442 -0.292853 -0.081795 -0.607868 0.026663
id_497 0.205163 -0.367657 0.168039 -0.078355 0.200799 -0.321768 -0.311189 -0.580313 -0.084672 -0.451368
id_507 0.390194 -0.327477 0.363772 -0.189445 0.311956 0.082903 -0.382650 -0.481791 -0.230200 -0.191215
id_511 0.236974 -0.139702 -0.277290 0.176589 -0.155550 0.021761 0.312084 0.019655 -0.528791 -0.643569
id_519 0.393185 -0.302452 0.379362 -0.052419 0.367949 0.066783 -0.463928 -0.365632 -0.015943 -0.343872
id_522 0.310084 0.244831 0.448758 -0.412971 -0.100689 0.137317 -0.135497 -0.316425 -0.462194 -0.332979
id_530 0.527621 -0.190093 -0.063408 -0.367738 -0.210340 0.025653 -0.202797 -0.008549 -0.544942 -0.403939
id_535 0.379222 -0.261795 0.063211 -0.441656 0.664117 -0.179448 -0.129411 -0.231118 0.183375 -0.107502
id_539 0.361511 0.226635 0.126292 -0.477663 -0.305727 0.304319 -0.549766 0.032847 0.051106 -0.286047
id_551 -0.259407 0.028323 -0.166696 -0.439825 0.293915 -0.259453 0.124480 -0.006066 -0.735820 -0.002730
id_553 0.016882 -0.135965 -0.012940 0.291672 -0.019158 -0.653065 -0.031208 0.528207 -0.428763 -0.072892
id_586 0.518729 0.233215 -0.311068 0.000211 0.472924 -0.311094 0.021483 0.157150 -0.062323 -0.479885
id_588 0.591839 -0.027654 0.363868 -0.422229 0.057100 0.059981 -0.201060 -0.105007 -0.326606 -0.416296
id_598 0.683282 0.337364 0.255876 0.101637 0.395884 -0.156407 -0.215191 -0.118452 0.317184 -0.037110
id_609 -0.074131 -0.250565 0.251021 -0.273824 0.497469 0.309322 -0.360660 -0.355097 0.302484 -0.320795
id_616 0.520105 0.299224 0.051622 -0.338607 0.041546 0.081005 -0.629293 -0.343200 -0.023432 -0.001834
id_620 0.573756 0.351624 0.146506 -0.212901 0.262228 -0.255303 -0.083240 -0.217916 -0.538699 -0.042647
id_623 0.717325 0.205615 0.239570 -0.482088 -0.211437 -0.068448 -0.069803 -0.241413 -0.201750 0.010822
id_625 0.554938 -0.273134 0.104570 -0.113340 0.451163 -0.113979 0.031139 -0.482578 -0.305288 0.223761
id_626 0.375270 -0.310022 0.483942 -0.253456 0.226007 -0.107307 -0.351265 -0.447771 -0.045589 -0.275791
id_627 0.516325 0.182418 0.240910 -0.501064 -0.415800 -0.028192 -0.014306 0.131215 -0.064638 -0.442430
id_630 0.593844 -0.310416 0.212563 -0.184566 0.396824 0.026874 -0.006499 -0.156132 -0.396303 -0.363424
id_639 0.469822 0.239080 0.364908 -0.100959 0.076701 -0.062740 0.298029 -0.310357 0.123568 -0.607063
id_642 -0.169094 0.522086 -0.000505 -0.144677 0.145726 -0.132383 0.391480 0.327653 -0.615223 0.005315
id_643 0.096762 -0.386959 0.141090 -0.352553 0.559763 -0.092019 -0.305777 -0.043967 -0.307067 -0.430320
id_646 -0.017980 0.469180 0.320264 -0.074131 0.293594 -0.102851 -0.374403 0.191087 -0.555841 -0.298422
id_652 0.089921 -0.172244 -0.171921 -0.264452 0.198054 -0.270582 -0.001074 -0.014558 -0.671825 -0.546583
id_654 0.363850 -0.515417 0.546391 -0.094389 0.046891 0.039549 0.043751 0.235647 -0.355980 -0.326463
id_656 0.744764 0.041561 0.554654 -0.012162 0.209261 -0.112290 0.026796 -0.237294 -0.054413 0.139372
id_658 0.300483 0.225707 -0.167433 -0.206916 0.226739 -0.045570 -0.000961 0.333969 -0.731515 -0.296277
id_675 0.119973 0.142759 -0.372530 -0.246406 -0.029198 -0.222798 -0.146126 0.490518 -0.664376 -0.109014
id_689 0.428030 0.040175 0.252473 -0.167483 0.267466 -0.052575 -0.415539 0.010895 -0.678600 -0.125661
id_690 0.203684 0.291553 -0.605047 0.098704 -0.197335 -0.077848 -0.186206 0.559098 -0.222151 0.236790
id_705 0.400763 -0.013156 -0.001573 -0.497561 -0.148572 -0.391280 0.029434 0.303700 -0.404645 -0.399543
id_710 0.402008 -0.317610 0.144420 -0.014217 0.674909 0.226618 -0.210222 -0.101004 -0.293105 -0.263231
id_727 0.014185 0.073158 0.026588 -0.426183 0.461628 -0.017928 0.389412 -0.258003 -0.507912 -0.350006
id_732 0.021486 -0.309163 0.065450 0.192166 0.680519 -0.274016 -0.238084 -0.024039 -0.355463 -0.375418
id_744 0.141676 -0.213085 0.229316 -0.209120 0.454673 -0.087727 -0.070229 0.129380 -0.306455 -0.712879
id_764 0.324566 0.043531 -0.243244 -0.343971 -0.102427 0.379226 -0.684957 0.048625 -0.083020 -0.287318
id_770 -0.172142 0.330344 0.515220 -0.139253 0.327819 0.237484 0.346656 -0.419123 -0.186328 -0.286323
id_772 0.133001 -0.045919 0.428790 -0.456933 0.150821 -0.233930 -0.430690 -0.376559 0.116804 -0.411278
id_773 -0.146618 0.021011 -0.502682 0.031317 0.069546 -0.234711 -0.168818 0.602485 -0.507310 0.124959
id_778 0.404245 0.101587 0.222771 -0.301857 0.093697 -0.199465 -0.329648 -0.499151 0.259910 -0.459982
id_779 0.517780 -0.168718 0.489141 0.122243 0.484771 0.252630 -0.016202 -0.073779 -0.291613 0.244268
id_782 0.134607 0.015701 -0.369397 -0.216784 0.073949 -0.079561 0.197348 0.281901 -0.764842 -0.288078
id_785 0.343442 0.294407 0.172186 0.010485 0.230831 -0.464689 -0.442925 0.221018 -0.096083 -0.492069
id_794 0.318396 -0.312880 -0.079199 0.358922 0.440412 -0.297837 -0.152624 -0.367801 -0.242869 -0.406702
id_797 0.156235 -0.013310 -0.283313 -0.436228 0.060981 -0.378681 -0.642949 0.246294 0.252147 0.141819
id_846 -0.099419 0.209452 -0.196518 -0.153387 0.233994 -0.002112 -0.008320 -0.048561 -0.754446 -0.507666
id_3 -0.498732 -0.123311 -0.160647 -0.116169 0.342293 0.193419 0.376016 0.114795 -0.537936 -0.313437
id_20 0.114540 -0.145126 -0.538394 -0.086363 -0.178312 -0.165414 -0.263236 0.377562 -0.625461 0.079295
id_33 0.650110 -0.094927 0.192388 -0.102189 0.489461 -0.283473 0.047436 -0.345436 -0.214316 -0.182904
id_40 -0.295184 -0.032008 -0.018001 -0.140029 -0.168661 -0.303548 0.073093 0.669911 -0.441865 -0.349219
id_50 0.628977 0.256056 0.291414 0.329824 0.311200 -0.309809 0.058282 -0.368213 -0.114327 -0.015563
id_52 0.412375 0.013527 0.293953 -0.263027 0.334116 0.158029 -0.179663 -0.407542 -0.190599 -0.550334
id_85 -0.279441 -0.274655 0.073549 -0.332353 -0.323399 -0.520349 -0.410027 0.272516 -0.080715 -0.326124
id_92 -0.176846 -0.250621 -0.333793 -0.232615 -0.244113 0.256555 -0.222347 0.575755 -0.200170 -0.440426
id_115 0.413741 -0.312888 0.280532 -0.275838 0.071455 -0.435395 -0.520851 -0.328161 -0.048565 0.011208
id_116 0.113232 0.197880 -0.141037 -0.060315 -0.402937 -0.484312 0.120730 -0.383217 -0.302219 -0.524222
id_127 0.044715 -0.337503 0.458904 0.200378 -0.037790 -0.118096 -0.071756 -0.626676 0.309809 -0.352305
id_129 -0.115859 -0.100036 -0.210388 -0.636450 0.464670 0.386402 -0.077238 0.325033 0.018666 0.223724
id_133 0.206319 0.211097 -0.391809 0.014239 -0.168498 -0.223391 0.158206 0.558643 -0.360955 -0.462016
id_155 0.515597 -0.215025 0.167595 0.140934 0.242833 -0.475356 -0.067068 -0.248818 -0.537173 0.008849
id_166 -0.153988 -0.033781 -0.713967 0.096791 0.345984 -0.291580 -0.020652 0.022494 -0.154709 -0.475855
id_175 0.125421 -0.209532 -0.112154 -0.582839 -0.167876 -0.111247 -0.109659 -0.093279 -0.621571 -0.374767
id_178 0.191891 0.227587 0.100379 -0.497005 -0.131972 -0.737699 -0.141309 0.096660 0.101530 -0.230340
id_182 0.309681 0.291418 0.159140 -0.496681 0.398875 -0.373025 -0.113823 -0.274097 -0.400981 -0.005997
id_188 0.241024 0.197880 -0.364199 -0.379370 0.334557 -0.445083 -0.169086 0.155333 -0.495483 -0.133939
id_198 0.417918 -0.170896 0.115466 0.065792 0.072875 0.245815 -0.380778 -0.566581 -0.021474 -0.496260
id_200 0.172654 -0.116354 -0.399709 -0.376491 0.286870 -0.061454 0.389220 0.463815 -0.372333 -0.252626
id_204 -0.331960 -0.169906 -0.408761 0.003804 -0.110942 -0.217073 0.077433 0.191820 -0.460214 0.616293
id_206 0.155141 0.014968 -0.730391 -0.226136 -0.020347 -0.260598 -0.018825 0.379046 -0.381739 0.181710
id_210 -0.340181 0.004699 -0.455949 -0.358757 0.512044 -0.143318 0.294281 0.329801 -0.251973 0.077905
id_220 0.265601 -0.054917 -0.067513 -0.409167 0.379937 0.228311 -0.457003 -0.395788 -0.399218 0.181964
id_223 -0.113252 -0.114158 -0.431580 -0.127097 0.201171 -0.256108 -0.090338 0.344526 -0.640795 -0.358034
id_232 0.588387 -0.241985 0.087689 -0.368903 0.597354 0.136380 0.049040 -0.261154 -0.017494 0.071560
id_236 -0.120662 0.102175 0.579794 -0.107697 -0.052962 -0.065576 -0.527902 -0.146718 -0.548494 -0.138147
id_239 -0.122923 -0.315671 -0.170167 -0.160078 -0.154440 0.111386 0.093210 0.278552 -0.727050 -0.423699
id_244 -0.058242 -0.432653 -0.226367 -0.188676 -0.145428 0.457085 -0.419300 -0.148377 -0.084792 -0.536176
id_257 0.636303 0.057167 0.340670 0.156454 0.198784 -0.218104 -0.388681 -0.456284 -0.027731 0.064771
id_265 0.222115 0.131921 -0.400485 -0.470674 -0.241339 -0.043292 0.266761 0.510464 -0.166509 -0.362988
id_281 0.502389 0.293287 0.470287 -0.359578 -0.124099 -0.184404 -0.239225 -0.368570 0.115574 0.235131
id_290 0.636176 -0.345246 0.127720 -0.058887 0.028114 -0.035856 -0.279562 -0.601647 -0.003351 0.118673
id_291 0.478519 0.011172 -0.057866 -0.416171 0.163716 0.249332 -0.320986 0.210402 -0.481166 0.355749
id_293 0.022372 0.465370 0.465653 -0.034965 -0.328562 -0.484728 -0.181165 0.037020 -0.274515 -0.335277
id_294 0.310510 0.641023 -0.497305 -0.027597 -0.210812 -0.314052 0.024242 0.314714 0.041708 -0.012494
id_296 0.283253 0.421271 -0.224116 -0.622769 -0.216191 -0.095751 -0.309743 0.348579 -0.012083 -0.175295
id_300 0.001458 0.157512 -0.211787 0.138848 0.329758 -0.252844 0.359742 0.453948 -0.594171 -0.223299
id_304 0.385075 -0.116640 0.322783 -0.456252 -0.043829 -0.329289 -0.269333 -0.506651 -0.084281 0.281187
id_305 -0.052397 0.226770 -0.419901 -0.366480 0.113071 -0.306905 0.071328 0.206199 -0.663230 -0.201867
id_307 0.346460 -0.186775 -0.605790 -0.031905 -0.126438 -0.454467 0.134048 -0.228004 -0.025168 -0.428913
id_309 0.522599 -0.199751 0.360233 -0.467049 0.098464 -0.050663 -0.312755 -0.287303 -0.292765 -0.246486
id_319 0.031298 -0.011385 -0.417259 -0.327624 -0.224953 -0.360166 0.123496 0.410501 -0.589047 0.079915
id_321 0.665346 -0.198110 -0.110079 -0.180855 -0.208803 0.246605 0.125155 -0.091771 -0.386238 0.442225
id_322 0.348601 0.221903 -0.033780 -0.062869 -0.110917 -0.264966 0.144847 0.111824 -0.604179 -0.585761
id_327 0.466078 -0.164670 0.676164 -0.219142 -0.159608 -0.216376 -0.175236 -0.341124 0.143772 -0.101970
id_330 0.324613 -0.014609 -0.066232 -0.356045 -0.118428 -0.309431 0.165789 0.474100 -0.584833 -0.243308
id_364 -0.162072 -0.449720 -0.357171 -0.515679 0.275248 0.340646 -0.111830 0.393948 0.015448 -0.135081
id_370 0.504218 -0.424915 0.593785 -0.277754 0.305975 0.082167 -0.008543 0.028829 0.137325 0.123889
id_392 0.173039 -0.022260 0.379714 -0.448933 0.690703 0.252058 -0.128472 0.206591 -0.039880 -0.149862
id_398 0.334415 -0.028698 0.229386 0.016102 0.403936 -0.183215 -0.199379 -0.655588 0.166472 -0.374798
id_401 0.564439 0.249340 0.472056 -0.236228 0.125708 0.209057 0.067798 -0.473714 0.096209 0.206959
id_406 0.270951 -0.323957 0.153653 -0.401573 0.502562 -0.019781 -0.367327 -0.321038 0.359848 0.127752
id_407 0.429102 -0.076680 0.264733 -0.492994 -0.380133 -0.054050 0.280387 -0.264230 -0.241207 -0.377924
id_414 -0.126378 0.021980 -0.506153 -0.074558 -0.143470 -0.023342 -0.028714 0.680905 -0.445468 0.194344
id_416 -0.068744 0.243558 -0.492740 -0.183440 -0.062750 -0.386265 -0.198956 0.575028 -0.368916 -0.005735
id_419 0.491718 -0.331234 0.156957 0.162750 0.426350 -0.144305 -0.115499 -0.539720 -0.179058 -0.240990
id_425 0.340301 0.458384 0.365125 -0.207688 -0.112612 -0.544549 -0.135954 -0.127237 -0.386814 0.064150
id_432 0.259388 0.469435 -0.155215 -0.046264 0.008179 0.412100 -0.512065 -0.065376 -0.420130 -0.270610
id_434 0.122706 -0.289056 -0.234982 0.027071 -0.096038 -0.284675 -0.492963 0.654714 -0.217458 -0.190334
id_439 -0.108481 0.247534 -0.205976 -0.277074 0.128408 -0.367485 0.221324 0.279870 -0.598643 -0.412968
id_442 -0.096145 0.253332 -0.479053 0.001331 0.328993 -0.583288 -0.248775 0.408379 -0.140810 0.011635
id_443 -0.177646 0.078331 -0.065680 -0.032659 0.115159 -0.520572 -0.094657 0.473549 -0.657105 0.087594
id_460 0.335322 -0.019922 0.487993 -0.363608 0.261702 -0.050897 -0.233361 -0.529632 -0.314365 -0.109285
id_463 0.139126 -0.262725 0.053516 -0.548759 -0.053700 -0.334465 0.333004 -0.196937 -0.517475 -0.274614
id_465 -0.065054 -0.043598 -0.200324 -0.121973 -0.087782 -0.043948 0.268355 0.698784 -0.596088 -0.116572
id_469 0.158497 -0.181823 0.571772 -0.191233 -0.142253 -0.093284 0.041822 -0.664806 -0.001512 -0.325067
id_471 -0.034121 0.229928 0.486734 -0.206685 0.521632 -0.129461 0.334415 0.149609 -0.032151 -0.492169
id_472 -0.139561 -0.118310 -0.257331 0.385232 -0.005398 -0.465137 -0.150106 -0.491834 -0.091611 -0.512538
id_477 0.487334 0.202875 -0.344023 -0.109291 -0.324041 -0.021621 -0.198256 0.396711 -0.519686 -0.137192
id_490 0.443689 -0.199559 0.444886 0.345066 -0.256625 0.024700 -0.110322 0.143260 -0.361800 -0.465040
id_493 0.298314 0.208555 0.229954 -0.328899 0.217673 -0.201857 0.004396 -0.247533 -0.626476 -0.405670
id_510 0.527615 -0.109793 0.179917 -0.240846 0.347398 0.228635 -0.067422 -0.311097 0.219923 -0.544553
id_520 0.423120 -0.070921 -0.146526 -0.522931 0.562288 0.281406 0.311181 -0.048934 0.132715 0.093884
id_524 0.231539 0.003181 -0.455642 -0.238869 0.166616 -0.376699 0.176717 0.547516 -0.354517 -0.235293
id_525 0.497100 -0.381197 0.311590 0.052533 -0.233576 -0.040795 -0.309561 0.019145 -0.567040 -0.183799
id_532 0.209698 -0.084075 0.197396 -0.494460 0.092150 0.138131 0.057510 -0.440263 -0.656772 -0.097171
id_534 0.684317 -0.152573 -0.101212 -0.153695 0.135334 -0.310048 -0.382122 -0.274246 0.042478 -0.370254
id_537 0.334411 0.190604 0.143407 -0.492072 0.304338 -0.424682 -0.314217 -0.153695 -0.246157 -0.364985
id_550 0.002807 0.262172 -0.115447 0.419631 0.271925 -0.336918 0.386187 0.520526 0.133582 -0.341248
id_552 0.248490 0.306842 0.045997 -0.343380 0.042086 0.166672 0.028853 0.053491 -0.710873 -0.430686
id_554 0.463419 -0.088634 0.414598 -0.420772 -0.311580 0.086213 -0.245857 0.373038 -0.286066 0.206142
id_563 0.520013 0.031111 0.008599 -0.314012 0.098217 -0.390357 -0.344361 -0.022490 -0.572088 0.146768
id_570 0.202787 -0.122667 -0.673551 -0.329468 0.236088 -0.314431 0.361892 0.273660 -0.122352 0.078614
id_589 0.033958 0.319620 -0.036178 -0.126707 -0.182152 -0.001891 0.241143 0.443925 -0.672584 -0.372229
id_592 -0.087291 -0.420247 -0.366729 -0.319167 0.113773 -0.371352 -0.169611 0.335308 0.251226 -0.473555
id_596 0.480841 0.025145 -0.387211 -0.014935 0.011299 -0.599385 -0.123175 -0.465497 -0.154868 0.052626
id_602 -0.172454 0.271370 0.631028 0.192568 -0.087306 0.052225 -0.444774 0.326685 -0.002053 -0.382673
id_605 0.046635 0.153821 0.251298 -0.505510 0.508779 0.124376 -0.540031 0.258678 -0.041853 -0.144391
id_606 0.319379 0.034671 -0.118567 -0.238379 0.047028 0.029293 -0.133827 0.428126 -0.780412 -0.112241
id_610 0.511639 0.274702 -0.011194 0.015722 0.100420 -0.108385 0.010318 0.221393 -0.571790 -0.514291
id_617 0.046479 -0.400338 0.488861 0.328164 -0.179489 -0.294267 0.123282 -0.031839 -0.477678 -0.357344
id_621 -0.291132 -0.161678 -0.527981 -0.192202 -0.484615 -0.202780 0.422483 0.066778 -0.009429 -0.338208
id_632 0.452141 0.094526 0.447254 -0.035221 0.019543 -0.328179 -0.018418 -0.518582 -0.369908 -0.266786
id_633 0.525529 0.079136 0.294783 -0.165641 0.524129 -0.114452 -0.087978 -0.476779 0.131720 -0.251006
id_660 0.240292 -0.453351 0.363769 -0.468478 0.271942 0.296325 0.062322 0.303586 -0.273220 -0.229073
id_668 0.418931 -0.386182 -0.014368 -0.284925 0.247834 0.149740 -0.276706 0.644838 0.093818 0.094573
id_669 0.244113 0.185934 -0.086465 -0.362499 0.536341 0.002075 -0.546303 -0.298921 0.248308 0.172722
id_673 0.224188 0.049953 -0.480172 -0.014338 0.622231 0.250959 0.274650 0.313546 -0.300538 0.047485
id_677 -0.047428 0.294625 -0.303904 -0.058186 -0.014284 0.098214 0.327731 0.661554 -0.408050 -0.306248
id_679 0.216899 0.035841 0.032584 0.313172 -0.153810 -0.328926 0.163598 -0.107780 -0.083689 -0.821765
id_680 0.612471 0.212555 -0.035427 -0.215437 0.399089 -0.202502 0.042594 -0.365765 -0.262820 -0.356483
id_686 0.454075 -0.321793 0.319193 -0.160706 0.055849 0.222234 -0.092816 -0.566617 -0.250022 -0.343319
id_696 0.189561 -0.356816 0.030592 -0.124783 0.201498 -0.204583 -0.157108 0.313085 -0.758362 -0.199924
id_697 0.163211 -0.082211 -0.276241 -0.186300 0.167780 -0.451235 -0.251446 0.281380 -0.649170 -0.244954
id_703 0.251632 0.253132 0.361211 0.298741 0.147826 -0.326051 -0.412514 -0.593223 0.050806 -0.007866
id_708 0.205937 -0.289063 -0.402778 -0.005232 -0.070887 0.129203 -0.123732 0.209027 -0.782871 0.134789
id_715 0.284810 0.071623 0.558505 -0.109422 0.058017 0.488066 -0.286867 -0.494313 0.145968 0.018241
id_719 0.286934 0.279546 0.115237 -0.500580 -0.014450 -0.438063 0.137358 0.036285 -0.473269 -0.373347
id_723 0.104282 -0.222375 -0.406051 -0.439590 -0.215543 -0.381385 -0.126751 0.477739 0.256263 0.282267
id_729 0.205795 -0.453267 0.461138 0.269338 0.448024 0.064202 0.200895 0.323223 -0.070219 -0.335255
id_733 -0.403662 0.306860 0.061850 0.411492 0.234464 -0.584131 -0.047039 -0.252855 -0.200040 -0.259608
id_737 -0.058255 0.030413 -0.331925 -0.296128 -0.310371 -0.121330 -0.100773 0.554551 -0.581729 0.175142
id_739 0.569842 0.101649 0.318641 0.100177 0.180470 0.184085 -0.175029 -0.561776 -0.323086 -0.190555
id_741 0.535979 -0.276050 0.160294 -0.318872 0.592186 0.086474 0.259560 0.079661 -0.076833 -0.267146
id_743 0.087750 -0.424603 -0.407936 -0.438439 -0.080155 -0.260331 0.417271 -0.220088 0.060859 -0.391046
id_746 0.003882 -0.058634 -0.543265 -0.192568 -0.135161 -0.318303 0.142097 0.408416 -0.596803 -0.039656
id_750 0.212137 -0.005090 0.206484 0.024320 0.518332 0.291351 0.359514 -0.450440 -0.213774 -0.424671
id_753 0.086871 -0.109953 -0.229022 0.220141 0.543624 -0.271549 0.332051 0.423558 0.200695 -0.424554
id_756 0.487455 0.181135 0.349874 -0.251713 0.156728 0.085218 -0.459272 -0.539553 -0.089906 0.042991
id_759 0.726647 -0.366768 -0.229210 -0.089621 0.237433 -0.296848 -0.054066 0.177867 -0.311466 -0.028862
id_760 0.479960 -0.362872 0.546405 -0.036779 -0.012375 0.037340 -0.216258 -0.305770 0.122898 -0.425602
id_766 0.680267 -0.241218 0.414553 0.122834 -0.312861 -0.080607 0.215632 -0.182897 0.091942 0.315163
id_786 -0.029991 0.306911 0.019224 -0.489073 0.473102 -0.478128 -0.214356 -0.363020 0.017282 -0.186767
id_789 0.301430 -0.022659 0.430389 -0.211330 0.297897 -0.153030 -0.519873 -0.522663 -0.127669 -0.082621
id_796 -0.022075 0.368455 0.028921 -0.321615 -0.181385 -0.508530 0.007932 0.265468 -0.571398 -0.266357
id_803 -0.482411 -0.349720 0.039884 -0.267204 0.412858 0.363515 -0.029200 0.032625 -0.467973 -0.220174
id_817 0.087932 0.303571 0.161170 0.116557 0.343931 -0.227971 0.621209 0.075882 -0.085339 -0.539768
id_823 0.288293 -0.024716 -0.475992 -0.519348 0.226508 0.062418 -0.497584 -0.054092 -0.276519 -0.194435
id_829 0.129533 0.045978 -0.744770 -0.360630 0.274697 -0.392613 -0.164814 0.131333 -0.147350 0.025369
id_847 0.203122 0.222369 -0.385458 -0.511080 0.146188 -0.072038 -0.072876 0.138383 -0.658580 -0.121504
id_871 0.337246 -0.243061 -0.194419 0.228536 0.513665 0.204214 0.076255 -0.303391 -0.127732 -0.563407
id_13 0.240538 -0.406033 0.139626 -0.576657 0.174014 -0.215917 0.426372 0.110586 -0.370705 -0.130015
id_38 0.022998 0.414563 -0.084436 -0.135870 -0.189528 -0.261030 0.480911 0.483873 -0.359635 -0.321270
id_43 -0.108799 0.332020 0.065444 -0.165835 0.455088 0.067063 -0.026312 0.698565 -0.366831 0.106244
id_63 -0.005516 0.394593 -0.401963 0.078019 -0.061212 0.178199 -0.113489 0.409921 -0.672355 0.090147
id_71 -0.378448 -0.317920 -0.515623 0.170063 -0.083895 -0.304579 0.115854 -0.189048 0.021689 -0.558101
id_75 0.304915 0.230345 0.574167 -0.013797 -0.399790 0.202197 -0.544810 -0.046259 0.156156 0.007190
id_84 -0.083591 -0.135628 -0.219147 -0.044651 0.592251 0.466114 0.453033 -0.235476 -0.246330 0.187639
id_107 0.318320 -0.180217 0.271328 0.327040 0.326809 -0.071759 -0.364444 -0.388129 0.127372 -0.523431
id_134 0.619542 -0.065534 0.212411 -0.317949 0.416620 -0.286359 -0.395456 -0.153580 -0.025314 0.171685
id_141 0.311938 0.177783 -0.186670 -0.367114 0.129330 -0.526395 -0.057323 0.446294 -0.183272 -0.414245
id_165 0.466166 0.299655 -0.377720 -0.459891 0.262837 -0.336063 0.015116 0.345395 -0.066793 -0.180871
id_172 0.233938 -0.381568 0.341151 0.246889 -0.002299 -0.590601 0.156469 0.030095 -0.494021 -0.063887
id_180 -0.172135 -0.001659 -0.177075 0.330077 0.157402 -0.403048 -0.053136 -0.603728 -0.493393 0.179139
id_191 0.075071 0.412347 -0.321682 0.132305 -0.271782 -0.392394 -0.298526 -0.134880 -0.538010 -0.280616
id_197 0.072861 -0.291276 0.453946 0.200631 0.011413 -0.200614 -0.576001 -0.193847 0.231250 -0.447574
id_202 0.208654 0.535945 -0.241576 -0.030219 0.098606 -0.080388 -0.209545 0.407761 -0.562149 -0.259959
id_224 0.111460 -0.243983 0.333206 -0.300384 -0.400580 0.322056 0.232868 0.112376 -0.569261 -0.267757
id_231 0.150445 -0.369362 0.109548 -0.519741 -0.125669 -0.392382 0.067720 -0.215564 -0.571627 -0.106015
id_242 0.009962 -0.464535 -0.434555 -0.327565 0.035937 0.276004 0.270215 -0.133042 -0.341097 -0.451041
id_248 0.439993 -0.369559 -0.180200 -0.425112 0.382983 -0.100342 0.180613 -0.436193 0.235394 0.146969
id_249 0.348098 -0.041713 0.312995 -0.245140 0.014153 0.195626 0.002072 -0.740928 0.252215 -0.260704
id_252 0.318966 0.194565 0.532875 0.253245 -0.220057 -0.204955 0.034656 -0.516705 0.269139 0.285069
id_303 0.290033 -0.017778 -0.318146 -0.449265 0.326028 -0.004626 -0.086647 0.135041 -0.544432 -0.429004
id_313 0.019156 -0.390503 -0.181119 0.175550 -0.394649 -0.147256 -0.410320 -0.262866 0.121363 -0.594892
id_314 0.398307 0.434332 -0.356792 0.117423 -0.198962 -0.205739 0.008281 0.541927 -0.244029 0.276406
id_315 0.392851 0.042067 0.442009 -0.280380 -0.108386 -0.356279 -0.538306 -0.218085 -0.048481 0.302568
id_320 -0.044120 0.335208 0.036861 0.181899 0.101226 -0.090729 -0.047697 -0.125675 -0.870868 0.237245
id_335 0.039668 0.398720 -0.178610 -0.423385 0.277840 -0.259955 -0.268025 0.465975 0.172718 -0.405856
id_341 0.074983 0.361350 0.143228 -0.074895 0.045682 -0.595801 -0.682755 0.037532 0.038002 0.107738
id_343 0.406107 0.224776 -0.396554 0.181166 -0.170610 0.191323 0.098677 0.463592 -0.424001 -0.352610
id_345 0.397707 -0.409507 0.006120 -0.272877 0.553109 -0.279065 -0.034375 0.197970 -0.387627 -0.158743
id_351 -0.097589 -0.216051 0.149659 -0.224020 -0.143296 -0.338127 -0.305526 -0.069020 -0.776106 0.189479
id_360 -0.075101 0.055047 -0.455491 0.013563 -0.009881 -0.457175 0.034475 0.161308 -0.735301 -0.081801
id_363 -0.014728 0.183119 -0.173072 -0.222111 0.390947 -0.176497 -0.081188 0.304374 -0.691713 -0.353936
id_367 0.001164 0.411417 -0.169170 0.088000 -0.361165 -0.516822 0.052891 0.096843 -0.460214 -0.415757
id_371 0.258042 0.293177 0.532781 -0.141875 -0.228403 -0.269155 -0.444531 0.010995 -0.153824 -0.444380
id_376 0.113094 0.460799 -0.097390 -0.116840 -0.380320 0.118850 0.102427 0.100951 -0.659217 -0.371107
id_378 0.292681 0.051864 0.345951 -0.426083 -0.168040 -0.330094 0.224279 0.462057 0.143872 -0.434423
id_390 -0.027862 0.421004 -0.109791 0.428791 0.089784 -0.531876 0.096606 -0.151085 -0.443992 0.325304
id_394 0.557346 -0.298167 0.099363 -0.361537 -0.179676 -0.139826 -0.429502 -0.443356 -0.138118 -0.089066
id_399 0.049888 0.026063 -0.658709 -0.129219 -0.213041 -0.142594 0.010314 0.573289 -0.389550 -0.000711
id_400 0.738333 -0.168816 0.003159 -0.270176 -0.265831 -0.172230 -0.283693 -0.184575 0.180364 -0.325501
id_402 0.394778 -0.120796 0.522227 0.328928 0.062074 0.200598 -0.581578 0.006965 0.231358 -0.112884
id_409 0.484786 -0.067983 0.487680 0.152588 0.170358 0.015985 -0.114208 -0.562624 -0.089472 -0.363833
id_411 0.248133 0.300948 0.087397 0.157340 -0.227773 -0.339234 0.276914 0.473476 -0.540072 -0.236575
id_415 -0.040336 0.143583 -0.174048 -0.634548 0.028514 0.152666 -0.276075 0.192629 -0.295201 0.565885
id_417 -0.299596 -0.055142 -0.106125 -0.279423 0.470526 0.280035 -0.051428 -0.529256 0.360483 -0.324565
id_424 0.121039 -0.220273 -0.322726 -0.375946 0.489132 0.311559 0.477296 -0.347404 0.067337 0.044581
id_426 -0.155639 0.031071 0.032311 -0.353313 0.368574 -0.361563 0.339982 -0.104564 -0.642916 -0.206156
id_435 0.035523 -0.217519 -0.438538 0.261818 -0.143870 -0.314661 0.286482 0.030006 -0.427104 -0.552684
id_438 -0.107353 -0.500898 -0.216597 0.005447 -0.075587 -0.118180 -0.320067 0.477162 -0.577891 0.082867
id_451 0.168213 0.096490 -0.018806 -0.174558 -0.424412 0.079702 -0.097525 0.473086 -0.699084 0.151828
id_454 0.402905 -0.562207 -0.119992 0.012663 0.210028 0.169015 -0.219161 -0.606614 -0.047737 -0.126746
id_464 -0.115542 0.486818 -0.578091 0.049595 -0.026588 -0.308599 0.016686 0.130935 -0.463610 -0.291052
id_476 -0.564364 -0.121004 -0.098677 0.137312 0.508868 0.050996 0.410892 0.217895 -0.077669 -0.392899
id_478 0.517215 -0.164906 -0.199555 -0.021216 -0.066166 0.353501 -0.086097 -0.179735 -0.449939 -0.541774
id_483 -0.052010 -0.163847 -0.344505 -0.081255 0.064416 -0.126359 -0.165062 0.545850 -0.645655 0.288062
id_486 0.062687 -0.154230 0.564705 0.040234 0.439788 0.193593 0.127997 -0.622599 -0.125007 -0.035253
id_496 0.273296 -0.107414 -0.492268 -0.296268 -0.338745 -0.089068 -0.380752 0.487031 -0.251743 -0.124269
id_499 0.007609 -0.271641 0.418512 -0.537328 -0.091031 -0.036679 0.313910 -0.077216 0.470135 -0.356537
id_501 0.050051 0.378173 -0.373204 0.298917 0.283866 -0.074418 0.253458 0.593659 -0.240115 0.255740
id_506 0.505820 -0.188952 0.017647 -0.374267 -0.353918 -0.360309 -0.104690 0.006709 -0.270679 0.478229
id_514 -0.100185 0.139486 -0.166341 0.025355 0.028130 0.339983 -0.395701 -0.361217 -0.511833 -0.526104
id_526 0.415443 -0.164552 0.279101 -0.202910 0.441036 -0.220953 -0.274920 -0.592517 -0.060745 0.087059
id_536 0.212218 -0.056241 -0.463898 -0.619217 0.147919 -0.350513 -0.257335 0.020629 -0.331695 0.178215
id_543 0.040035 0.176811 -0.226047 0.293629 -0.381737 -0.584809 0.074032 0.044607 -0.567377 -0.112732
id_544 0.276943 -0.015038 -0.529930 0.196947 -0.067987 0.231024 0.035095 0.285107 -0.562182 -0.383278
id_545 -0.336977 0.159577 -0.068989 -0.510989 -0.474002 -0.530213 -0.217016 -0.138016 0.093146 -0.120366
id_549 0.393604 -0.262863 -0.380958 0.176849 -0.238658 0.193422 -0.035084 0.069591 -0.627507 -0.324600
id_559 0.198133 -0.443412 0.546964 -0.311387 0.267314 -0.365286 -0.331905 0.126028 0.107051 -0.160009
id_560 0.137986 0.032050 0.221150 -0.052572 -0.549463 0.376260 -0.185295 0.176067 0.481748 0.432858
id_561 -0.246293 0.129311 0.327321 -0.425537 0.344545 -0.400199 -0.342244 0.196823 -0.411564 -0.173991
id_569 0.634732 0.098777 0.242110 -0.451032 0.204648 -0.397626 -0.055390 0.070797 0.066093 -0.335970
id_571 0.121387 -0.289037 -0.565865 -0.213148 0.183029 0.026439 0.081873 0.105912 -0.695675 0.002189
id_580 0.036292 0.340518 -0.483791 0.059028 0.241746 -0.607684 0.307977 0.287971 -0.192067 -0.052952
id_583 0.344611 0.039526 -0.069525 -0.131068 -0.085870 0.022221 0.174321 0.415666 -0.567955 -0.569265
id_585 0.270856 -0.052439 -0.099298 0.247101 0.159262 -0.074084 0.021929 0.090000 -0.521331 -0.736036
id_603 -0.253384 0.006485 -0.155079 0.051058 -0.227652 -0.036692 -0.176651 0.849971 -0.194469 0.253872
id_604 0.176082 -0.324298 -0.057641 0.395714 0.077142 -0.412451 -0.434417 -0.027581 -0.131685 -0.566592
id_607 0.395468 -0.304004 0.345844 -0.103333 -0.277153 0.333044 -0.430457 0.047845 -0.466171 -0.168140
id_611 0.292799 -0.157736 -0.150655 -0.135075 -0.275653 -0.524157 -0.315465 0.593936 -0.205117 -0.058052
id_612 -0.160222 0.261551 -0.214664 -0.625609 -0.043411 -0.101946 -0.064805 0.216398 -0.611573 -0.176425
id_619 0.593264 -0.130499 -0.266281 0.138854 0.099920 0.379255 0.322791 -0.469529 0.204860 -0.142774
id_624 0.219583 0.308175 -0.102038 -0.296691 0.340040 -0.281599 -0.195278 0.514141 -0.458869 -0.224531
id_631 0.498977 0.132822 0.380898 0.036346 -0.022178 -0.299531 0.236267 -0.402876 -0.521402 -0.082307
id_634 -0.009514 0.427388 -0.784073 0.183679 0.251079 -0.186212 0.071309 -0.120534 -0.208156 -0.089906
id_636 0.101434 -0.306917 -0.267941 0.000794 -0.285456 -0.619314 -0.059469 0.351377 -0.194773 -0.440166
id_644 0.064943 -0.200642 -0.178918 -0.262558 -0.117647 -0.393375 0.185394 0.373279 -0.635210 0.329837
id_649 0.368788 0.025251 -0.110100 -0.574184 0.110151 -0.399601 -0.549929 -0.018068 -0.203857 -0.073671
id_651 0.336470 0.306939 0.118169 -0.343794 0.213425 -0.046823 -0.450404 0.201718 -0.537299 -0.283603
id_657 0.210546 0.413489 0.351092 -0.444165 -0.179559 -0.540369 -0.243102 0.065586 -0.166139 0.221150
id_670 -0.381649 -0.073272 -0.114214 -0.600415 -0.166441 0.192147 0.486996 0.162759 -0.383300 0.015325
id_672 0.249175 -0.022006 -0.071471 -0.189382 -0.107289 -0.480074 0.459760 0.624171 0.218925 -0.074675
id_676 0.305110 0.164708 -0.025059 -0.367578 -0.236182 -0.417622 0.283223 0.425630 -0.456693 -0.209531
id_683 0.512331 0.102919 -0.173633 -0.306983 0.434700 0.070836 -0.049824 -0.029295 -0.194362 -0.606167
id_684 -0.313647 0.038042 -0.544755 0.038484 -0.367291 -0.448552 -0.060112 0.027582 -0.344887 0.377515
id_685 0.202153 -0.341906 -0.069347 0.140128 -0.037682 -0.179293 -0.614112 -0.281046 -0.471403 0.325396
id_692 0.155818 0.356011 0.094840 -0.204904 0.131271 -0.389324 0.282806 0.127545 -0.550258 -0.479750
id_695 -0.112007 0.093565 0.017858 -0.466489 -0.040210 0.276147 0.414426 -0.000783 -0.678886 -0.224187
id_698 0.506833 -0.312908 -0.053707 -0.039606 0.179926 0.399011 0.095297 -0.451863 -0.057397 -0.482304
id_704 -0.367273 -0.063061 -0.142022 0.348201 0.637719 -0.449967 -0.085972 0.009120 -0.321075 -0.000334
id_707 -0.029328 0.275401 0.237326 0.363515 -0.078771 0.590438 -0.043272 0.063148 -0.140451 -0.595331
id_716 0.024042 -0.327098 0.366547 0.268255 -0.295321 -0.440974 -0.328791 -0.332850 -0.430461 0.015782
id_718 0.403823 -0.314145 0.166380 -0.215594 0.346217 -0.113543 -0.289638 -0.575559 0.166736 -0.297253
id_720 0.532601 0.163076 0.472553 0.143374 0.518802 -0.142626 -0.035801 -0.297160 0.211037 -0.149199
id_721 -0.391511 -0.511727 -0.392401 0.169291 0.264850 0.108788 -0.182429 0.304658 -0.365138 0.246603
id_725 0.166020 0.158629 -0.548299 -0.295580 -0.057862 -0.164898 0.147073 0.520961 -0.378615 -0.303899
id_728 0.308355 0.115241 0.247157 -0.530649 0.072469 0.044779 -0.459303 -0.372161 0.429621 -0.087561
id_735 0.441516 -0.520948 0.299146 0.379794 -0.206556 0.235222 0.042629 -0.097335 0.282466 -0.332974
id_736 0.429147 0.431880 -0.166603 0.082370 -0.209455 -0.303792 -0.301075 -0.298177 -0.188158 -0.493610
id_740 0.219461 0.173174 -0.465335 -0.119862 -0.273040 -0.326734 -0.336556 0.208293 -0.594074 0.007579
id_742 -0.122270 0.220739 -0.115052 -0.102328 0.628062 -0.374326 0.041861 -0.316859 -0.268928 -0.451176
id_747 -0.024629 -0.237000 0.151740 -0.641297 0.187350 0.051050 -0.226375 0.464928 -0.451358 -0.010173
id_748 -0.194282 0.187430 -0.235338 -0.193644 0.342502 -0.326325 0.291574 0.576451 -0.325801 -0.294940
id_749 -0.036067 0.001744 0.364094 -0.330192 0.199115 -0.542540 -0.326721 -0.212174 0.050650 -0.518438
id_751 0.464818 0.082979 -0.126513 -0.607191 -0.262393 -0.344743 -0.405399 -0.191401 0.052258 0.031000
id_752 0.054264 -0.106236 -0.208621 -0.205712 0.356958 0.047418 0.047238 0.440936 -0.611948 -0.446234
id_755 0.159197 0.128222 -0.093586 -0.235493 0.103950 -0.520353 0.076695 0.562329 -0.479326 -0.246126
id_761 -0.182684 -0.244195 0.002114 -0.543153 0.489686 -0.481942 -0.136004 -0.108739 -0.278578 -0.178852
id_768 0.427536 0.046759 0.419700 0.238360 -0.272366 -0.243044 -0.287945 -0.294091 -0.480785 0.219664
id_769 -0.025294 0.385521 0.213482 0.366608 0.158133 -0.409897 -0.397259 -0.441395 -0.341538 0.091888
id_771 -0.120932 0.049335 -0.566518 -0.155006 -0.273009 -0.195543 -0.323525 0.350910 -0.472848 0.271678
id_774 -0.020364 -0.444017 0.521170 -0.067727 0.263201 0.224055 -0.211447 -0.289795 0.163269 -0.501405
id_775 0.012348 0.294070 0.174276 -0.020021 -0.177162 -0.141557 -0.158969 0.624564 -0.505602 -0.400234
id_781 0.115409 0.308303 -0.257864 -0.287979 0.163365 0.008473 0.193734 0.395391 -0.677213 -0.250917
id_787 -0.271602 -0.020832 -0.196720 0.033007 -0.211340 -0.294943 -0.089870 0.406625 -0.625972 -0.434848
id_790 -0.173078 0.137804 0.254537 0.405394 0.361166 0.288449 -0.345184 0.507909 -0.293165 0.212623
id_791 -0.214435 0.415265 -0.191232 -0.265965 -0.138139 -0.012112 0.003302 0.023212 0.639903 0.494986
id_793 -0.349623 -0.361647 -0.204201 -0.106072 0.226260 -0.440846 0.307197 -0.412178 -0.387291 0.185017
id_800 0.137064 0.483806 -0.148618 0.011992 -0.418820 0.398581 -0.117645 0.057776 -0.329448 0.514706
id_807 0.575331 -0.050209 -0.334540 -0.348880 -0.017207 -0.098640 0.557286 -0.047319 -0.228529 0.240376
id_810 0.185341 -0.442083 -0.271097 -0.161483 -0.600254 0.085536 -0.268087 0.331736 -0.187084 0.293426
id_814 -0.051420 0.143314 -0.410775 -0.201879 0.130921 -0.302916 0.155760 0.520537 -0.602637 0.006038
id_815 0.066774 -0.457407 0.443866 -0.210993 -0.182264 0.302942 -0.199150 -0.260121 -0.510639 -0.227409
id_816 -0.016369 -0.427808 0.349264 -0.542741 -0.360544 0.091524 -0.239936 0.396406 -0.049702 0.211218
id_818 0.463417 -0.344586 0.368895 0.100651 0.001978 0.314510 0.013403 -0.592368 -0.029974 -0.263426
id_822 0.136621 0.296668 -0.036333 0.190614 -0.144097 -0.384081 0.167176 -0.036075 -0.785711 0.201981
id_826 -0.430179 -0.300079 0.441655 -0.071947 0.212504 -0.551914 0.113490 0.224727 -0.324146 0.080266
id_828 0.701694 -0.166122 -0.520602 -0.033986 0.160868 0.098630 -0.068830 -0.127050 0.031058 0.387810
id_830 0.236046 -0.385510 0.127479 -0.273036 -0.237069 -0.331882 -0.342882 -0.436980 -0.271913 -0.395045
id_831 0.348248 -0.342560 -0.105205 -0.299521 -0.371358 0.261174 -0.017424 -0.583150 0.063053 -0.331863
id_836 0.267006 -0.077969 -0.426735 -0.042950 0.301736 -0.407166 0.375208 0.315659 -0.487261 0.063298
id_838 0.058286 -0.085137 -0.108659 -0.522241 -0.351038 0.013308 0.490177 0.206771 -0.099633 -0.537078
id_843 0.579676 0.036940 0.423845 0.122689 0.247500 0.169407 -0.397378 0.023907 0.195526 -0.425732
id_844 0.732977 -0.284054 0.251609 0.043673 -0.189558 -0.012101 -0.159401 0.139882 -0.199687 -0.442622
id_850 0.159333 -0.391860 0.044997 0.197074 -0.065348 0.325423 -0.702340 0.410924 0.074170 -0.048829
id_852 0.124634 -0.243197 -0.253775 -0.381036 0.113341 -0.381692 -0.254017 0.246600 -0.635485 0.167392
id_874 -0.331169 -0.196209 -0.251403 0.101522 0.256255 0.293027 0.253226 0.372003 -0.472386 -0.448475
id_878 -0.152882 -0.227124 0.287745 -0.396907 0.141196 -0.646653 -0.327653 0.164260 0.008576 0.334965
id_882 -0.010468 0.004208 -0.586054 -0.469438 -0.099470 0.076988 0.236241 0.485514 -0.270124 0.236048
id_887 -0.409986 0.311547 -0.008821 0.174180 -0.146039 0.026318 -0.317237 0.618667 -0.443840 -0.045066
id_897 -0.068383 0.486076 0.617775 -0.307060 0.402203 -0.035772 0.212177 -0.264937 0.028385 -0.063703
id_908 -0.004508 0.149676 -0.763558 -0.342068 0.171098 -0.383968 -0.076613 -0.080417 0.296025 -0.029533
id_918 -0.124876 0.444540 -0.443150 -0.488983 0.454628 0.042627 -0.181861 -0.097037 -0.316680 -0.004782
id_922 0.371372 -0.020324 -0.290190 0.172829 0.003798 -0.703319 0.123157 0.338146 -0.336290 -0.101569
id_925 -0.306043 0.474270 -0.278970 -0.429231 0.133155 -0.517406 0.062656 0.169939 -0.313759 -0.051509
id_931 0.192255 0.406950 -0.101639 -0.418518 -0.312111 0.011430 -0.254732 0.643012 -0.090948 0.166651
id_6 0.563927 0.231697 -0.206100 -0.273832 0.153469 0.173792 -0.475229 -0.441457 -0.186555 -0.039438
id_16 -0.453704 0.294360 -0.352961 0.251490 0.264019 0.217730 0.103351 0.138740 -0.510479 0.334730
id_23 0.053300 0.361858 -0.486213 -0.343158 -0.071526 -0.182361 0.499369 -0.333772 0.156638 0.297283
id_41 0.158869 -0.222152 -0.115839 -0.034755 0.260655 0.528467 0.477252 -0.039291 -0.391558 -0.425363
id_59 -0.518697 0.407636 -0.492533 0.416292 -0.201179 0.197277 -0.169022 -0.148656 0.056644 -0.125021
id_77 0.466088 -0.274471 0.081188 0.246405 -0.420752 -0.059312 -0.419495 0.160926 -0.190660 0.470474
id_98 0.096097 -0.542566 -0.358659 0.223851 0.091933 0.070229 -0.162487 0.044391 -0.689735 -0.012345
id_128 -0.314933 0.082317 0.446773 0.492837 -0.259730 -0.018166 0.209629 0.371976 0.217937 0.392365
id_130 0.503185 -0.029956 -0.093591 -0.337128 0.177866 0.305602 -0.420202 0.019359 -0.162681 0.543189
id_147 0.154852 0.143914 -0.036383 -0.272421 -0.474937 0.349236 -0.540184 -0.137276 -0.217739 0.417357
id_162 0.558683 0.023208 0.162477 -0.409257 -0.249194 -0.253828 -0.328943 -0.243401 -0.069407 0.441196
id_169 0.126456 -0.062306 0.229455 -0.301335 0.143915 0.030695 0.466502 -0.273366 -0.608269 0.390739
id_183 -0.277963 0.206592 0.153741 -0.259271 -0.119097 0.000282 0.038175 -0.625568 -0.263817 -0.559127
id_185 -0.309523 -0.375296 -0.313558 0.024710 0.006219 -0.397582 -0.454288 0.434391 -0.263470 -0.204500
id_186 0.174270 0.111487 -0.494051 0.382551 0.476153 0.013801 0.288022 0.389983 -0.229382 -0.228468
id_196 -0.340217 -0.275670 -0.391772 -0.455830 0.197659 0.108355 -0.087932 0.043834 -0.130334 -0.607899
id_199 -0.171876 0.097636 0.044082 0.316051 -0.503840 -0.557292 -0.401304 -0.236788 0.205738 0.187679
id_208 -0.248511 -0.239999 -0.142960 -0.592190 -0.313442 -0.096124 -0.316684 -0.252107 0.302086 0.383311
id_212 0.434567 0.439401 -0.414469 0.279540 0.192146 0.222119 -0.327978 0.047477 0.183355 -0.372090
id_221 0.435495 0.056496 0.275634 0.057974 0.200791 0.299205 0.538513 0.248670 -0.449112 0.210812
id_240 -0.200731 0.252613 0.231988 -0.560572 0.501348 0.142319 0.345419 0.298301 -0.209690 0.062948
id_246 -0.221443 -0.133779 0.074350 -0.232136 0.371174 -0.348992 -0.194277 -0.051357 -0.710228 -0.263214
id_250 0.557616 0.240743 0.336717 -0.046183 0.425992 -0.233280 0.323173 -0.176132 0.126023 0.358276
id_251 0.164359 0.450089 0.010655 0.351287 0.379270 0.307788 0.010120 -0.266002 -0.510941 -0.276389
id_258 0.581579 -0.005763 0.203017 0.339097 0.278101 -0.469123 -0.002118 0.291182 0.146784 -0.319025
id_266 0.025005 -0.349960 -0.444761 -0.056485 -0.298979 0.053641 -0.396523 0.518370 -0.391119 -0.068721
id_267 -0.020147 -0.355119 -0.508870 -0.386106 -0.004999 0.244904 -0.152828 -0.312815 0.454820 0.278182
id_270 0.113231 0.320133 0.397736 -0.387722 0.185265 -0.243385 -0.317598 -0.400584 -0.352079 0.311956
id_282 -0.364536 0.502078 -0.419673 0.162240 0.442357 0.273536 0.063080 0.302101 -0.212420 -0.041423
id_283 0.304224 -0.403275 0.200095 0.103432 -0.242566 -0.312040 -0.375997 -0.121937 -0.611176 0.089969
id_284 0.283564 -0.363510 0.199324 0.063346 -0.345545 -0.274220 0.384766 0.185362 0.308148 -0.521298
id_286 0.200622 0.387996 -0.348388 0.090625 -0.041633 -0.477363 -0.092874 0.025842 -0.626709 -0.218988
id_297 0.306723 0.351026 -0.018301 -0.447892 0.152030 -0.631000 0.141773 -0.334034 -0.096597 -0.139560
id_299 -0.432740 0.149222 -0.083314 -0.560697 -0.274423 0.005654 -0.151859 0.498356 0.137972 -0.321481
id_308 -0.392842 0.344600 0.168875 -0.211811 0.393667 -0.401373 -0.350197 0.092640 -0.124663 0.436702
id_310 -0.358495 0.119463 0.463510 0.219874 -0.106094 0.567304 -0.330831 0.153932 -0.050131 0.353944
id_311 0.106913 0.325962 0.042498 0.234644 0.316049 -0.319092 -0.294379 0.440119 -0.569690 0.137251
id_324 -0.118350 -0.206375 -0.005407 -0.707928 -0.532951 0.042437 0.020962 0.361183 -0.058432 -0.148549
id_366 -0.339367 0.244130 -0.104435 -0.157454 -0.320471 -0.425775 -0.328490 0.053189 -0.584471 0.230661
id_368 0.195357 -0.246814 0.126506 0.194721 -0.397964 0.081485 -0.363151 0.476233 -0.488282 0.291355
id_369 0.642925 -0.109169 0.372421 0.080465 0.119080 0.069522 0.042897 -0.436780 -0.383843 -0.265690
id_381 0.510292 -0.321327 0.180930 0.234280 0.212353 -0.350543 0.072217 -0.542888 -0.250408 -0.134566
id_386 -0.448316 -0.204962 0.091854 -0.106722 -0.120143 -0.124630 -0.396493 0.678120 -0.149163 0.260589
id_388 0.516990 0.022002 -0.322134 0.371952 -0.331555 -0.026550 -0.507909 -0.251824 -0.234410 0.056123
id_389 -0.147497 -0.229705 0.264928 -0.433039 -0.213370 0.375153 0.253756 0.144596 -0.549760 0.306542
id_418 0.061588 -0.201946 0.366096 -0.132926 0.595528 0.129578 0.202367 -0.107292 -0.607602 -0.103155
id_422 0.374389 0.292876 0.132586 -0.482816 0.341011 -0.345036 0.114490 0.416437 0.177356 0.264661
id_423 0.307943 -0.049884 -0.223169 -0.496404 -0.547763 -0.116111 -0.421301 0.009051 0.072252 0.331871
id_430 0.043453 -0.323846 0.129218 -0.507864 0.010656 -0.327319 -0.261710 0.222066 -0.587559 -0.219840
id_453 -0.057277 -0.355546 -0.000861 -0.423305 -0.081861 -0.415594 -0.506646 -0.085920 -0.436314 0.239283
id_455 0.022001 0.486778 0.563423 0.014545 0.370296 0.252830 -0.297159 0.138016 -0.262307 0.260205
id_457 0.295654 -0.051689 -0.001563 -0.482105 -0.461395 0.482631 0.246568 -0.282930 -0.004537 0.301339
id_458 -0.178284 -0.069071 -0.432296 -0.104208 -0.100116 0.382619 -0.006086 0.238544 -0.686364 0.285042
id_459 0.365238 0.181585 -0.185596 -0.370346 0.365155 0.242562 -0.293305 -0.302164 -0.420846 -0.339719
id_461 0.284971 0.007265 -0.325183 -0.361653 -0.325700 0.137443 0.062346 0.101269 -0.673442 0.299271
id_467 0.351068 0.048607 0.198482 -0.320527 -0.181740 0.114713 -0.423749 -0.246497 -0.461915 -0.482056
id_474 -0.544922 -0.102437 0.052588 0.154598 -0.140795 -0.122469 -0.320818 0.609642 -0.374657 0.126977
id_484 -0.310134 0.457813 -0.280680 -0.233974 0.357152 0.279416 0.443209 -0.027000 -0.393991 0.051741
id_495 0.163145 0.453622 0.131256 0.158226 0.379043 -0.054679 0.376736 -0.463097 -0.211675 0.421294
id_502 -0.225309 -0.501750 -0.276726 -0.148614 0.330700 0.161354 0.392667 -0.079155 -0.301056 -0.460798
id_504 0.470959 -0.158727 0.560320 -0.493120 -0.008689 0.189757 -0.121742 -0.196938 -0.033324 0.324157
id_515 -0.240807 0.240865 0.467755 0.247802 -0.272160 0.245668 0.253801 0.369679 -0.214455 0.471490
id_517 0.097506 -0.277017 0.002889 -0.359780 0.188204 -0.011170 0.288690 -0.631134 0.108501 -0.505286
id_518 -0.187488 -0.313605 -0.096283 -0.381015 -0.302561 0.133497 -0.484880 0.446538 0.182649 0.367189
id_521 0.401499 -0.449373 -0.120373 0.022159 0.470314 -0.183059 -0.278579 0.206033 -0.120831 -0.482203
id_523 0.032984 0.443656 -0.432899 -0.319356 0.066162 0.092883 0.406933 0.255128 -0.442496 0.270555
id_528 0.461007 -0.051383 0.329525 -0.400731 0.274128 -0.266577 -0.249038 -0.402447 0.030188 -0.380205
id_531 0.448133 0.294576 0.237611 0.194258 0.378065 0.229859 -0.172418 0.056135 -0.569484 -0.255436
id_541 -0.476560 -0.397717 -0.022037 0.386048 -0.031711 0.141377 -0.128688 0.419359 0.423515 -0.269096
id_546 0.064679 0.612920 -0.339958 -0.514042 -0.202264 0.120472 0.044662 -0.160769 -0.053056 0.392751
id_547 0.264527 -0.381680 0.059090 -0.469425 0.176989 -0.133964 0.185584 -0.517113 0.269635 -0.369692
id_548 0.200007 -0.167727 0.333122 -0.163649 0.169868 0.567859 -0.493085 -0.228411 -0.264074 -0.278847
id_556 -0.627764 0.183948 -0.150427 -0.370048 0.534370 0.021776 -0.108525 -0.256956 -0.219859 0.018561
id_558 0.000687 -0.185038 -0.263938 -0.415101 0.142012 -0.295261 0.131668 0.097391 -0.734999 -0.222256
id_564 0.078911 -0.403726 -0.061071 -0.237632 -0.236660 -0.582565 0.013025 0.528576 -0.219718 -0.217605
id_566 -0.405523 0.048620 -0.605313 -0.131154 0.250336 -0.542171 -0.130374 -0.011246 -0.004994 -0.275347
id_567 0.042205 0.505748 -0.384582 -0.389432 -0.029586 0.400153 -0.431331 -0.194156 -0.163602 -0.177122
id_568 -0.275068 0.007278 0.072044 0.343965 -0.119695 -0.466449 0.243340 0.495400 -0.481611 -0.179711
id_575 -0.136923 0.217731 0.017923 -0.406940 -0.452174 -0.497052 -0.385790 -0.120986 -0.318567 0.226817
id_578 0.469391 -0.499226 0.518197 -0.289095 -0.190081 -0.237056 0.057581 0.268062 -0.087062 -0.057115
id_582 -0.095289 0.154689 -0.247425 0.521448 0.270502 -0.395112 -0.279149 -0.135745 -0.324448 0.450512
id_594 -0.140920 -0.344352 0.247632 0.273218 0.228339 0.202791 -0.466956 -0.486485 -0.168127 0.386456
id_597 0.276849 -0.370375 0.327559 0.274596 -0.380749 -0.198136 -0.316636 -0.363617 -0.332992 -0.275484
id_600 -0.100622 -0.250476 -0.233361 -0.199832 0.110722 -0.175712 0.215375 0.590927 -0.489984 0.392363
id_613 0.304436 0.264022 -0.314335 0.275277 0.123011 0.204729 -0.542028 -0.382637 0.274601 -0.300616
id_614 0.115311 -0.054570 0.225746 -0.451565 0.189785 0.426295 -0.326988 0.106207 -0.597869 0.188307
id_618 0.271686 0.105059 0.356119 -0.144268 0.503747 0.385922 -0.122245 -0.446954 0.364876 -0.130276
id_622 -0.113439 -0.205204 -0.222848 -0.441968 -0.450305 0.038489 0.357887 0.523899 -0.193038 0.236545
id_628 0.282748 0.397966 -0.401674 -0.032137 0.158281 -0.330779 0.473675 0.334283 -0.320847 -0.160556
id_629 0.044471 -0.470104 0.294175 0.113659 -0.106246 -0.275779 -0.259492 -0.499993 0.071745 -0.517444
id_635 -0.166986 0.229039 -0.450058 -0.567323 -0.177863 -0.030027 -0.083683 0.141311 -0.406991 0.412430
id_638 -0.382541 -0.265979 0.000493 0.140414 -0.211855 0.228106 0.200236 0.562822 -0.374623 -0.411194
id_640 0.278525 -0.455459 0.321895 0.033014 0.452700 -0.121846 -0.206831 0.293230 0.063943 -0.507582
id_641 -0.106521 0.152398 -0.549482 -0.058052 -0.289945 -0.439236 0.090027 -0.335068 -0.500757 -0.109536
id_648 -0.352245 -0.445002 -0.007648 -0.242598 0.395666 0.196370 0.096576 -0.421676 0.020110 -0.486139
id_650 -0.109124 -0.585793 0.550128 -0.173752 0.262525 -0.248106 -0.111026 -0.064607 0.035092 0.404844
id_655 0.339122 -0.211592 0.371932 -0.373748 0.212055 -0.231791 -0.299425 0.380275 0.216995 -0.426801
id_661 -0.078225 -0.031592 0.390456 -0.617948 0.363479 0.381958 0.105995 -0.294353 0.241475 -0.156108
id_662 -0.308259 0.394854 -0.174875 0.313123 -0.046382 0.089433 -0.246747 -0.056219 0.365042 0.642642
id_663 0.226859 -0.320082 -0.491407 0.027360 0.022682 -0.033097 0.365460 0.423200 -0.480946 0.241403
id_665 0.234838 -0.024235 -0.069802 -0.128299 -0.518197 -0.261021 -0.523969 -0.372677 0.300331 -0.287473
id_666 -0.053201 -0.078375 0.107936 -0.024291 -0.335884 0.501177 -0.417026 -0.547369 0.119261 0.356431
id_667 0.165085 -0.240261 0.387524 -0.445026 -0.216964 0.169690 -0.273807 0.477131 -0.063604 -0.429257
id_674 -0.105709 -0.209401 -0.325985 -0.306056 0.479892 -0.047249 0.463474 -0.326870 0.058017 -0.433005
id_681 0.344885 0.197677 0.634042 -0.138572 0.449329 -0.204000 -0.170209 0.000985 -0.015272 -0.384769
id_682 0.279198 -0.178411 0.446086 0.272096 0.424830 0.331155 0.199398 0.003546 0.228602 -0.484783
id_688 -0.375711 -0.498864 0.299813 -0.505335 -0.130854 0.225154 -0.097770 -0.226765 -0.069621 0.362049
id_691 0.484821 -0.397060 -0.355094 0.109237 -0.423366 0.316297 -0.072966 -0.283702 -0.107315 0.304397
id_693 0.233740 0.040459 0.665704 0.140820 0.172450 -0.208110 -0.141342 -0.534939 -0.285447 0.141670
id_694 0.299928 0.128401 0.387078 -0.407323 -0.136683 0.162781 -0.221902 -0.485261 -0.039971 -0.496305
id_699 0.219904 0.425996 -0.008744 0.248095 0.153139 -0.216012 0.333830 -0.225360 -0.043730 -0.688685
id_700 0.519230 0.443242 -0.056266 -0.429020 0.043144 -0.000391 0.147865 -0.204902 -0.353412 -0.395097
id_701 0.337954 0.399481 -0.196226 -0.002239 -0.256173 -0.182810 -0.415258 0.010742 -0.530471 -0.367007
id_702 0.009846 -0.069246 0.117129 -0.089262 -0.556450 -0.151688 0.138881 0.393232 -0.669889 0.134553
id_706 0.028247 -0.434597 0.427405 -0.200404 -0.043359 -0.230455 -0.130405 -0.601580 -0.175413 -0.350466
id_709 -0.448494 0.035816 0.255466 0.325689 0.346586 0.276721 -0.089748 0.473059 0.071929 -0.438776
id_711 0.298580 -0.118622 -0.243541 -0.124316 0.012428 0.034524 -0.410272 0.401506 -0.615945 0.334288
id_713 -0.410358 -0.183803 -0.444216 0.197789 0.015538 0.218620 -0.246817 0.574980 -0.198798 0.286877
id_714 0.266844 0.073543 -0.209413 -0.185041 0.266005 0.203180 0.361965 0.662158 -0.246820 0.320715
id_717 0.057339 0.394588 -0.303975 -0.314625 -0.166514 -0.330512 0.307989 -0.413562 0.440563 0.229504
id_722 -0.034590 0.464121 0.193032 0.141624 0.110248 0.438068 0.489653 0.318336 0.123912 0.406898
id_724 -0.038552 -0.132058 -0.488567 0.098561 -0.200545 -0.437392 0.266708 0.504944 -0.233549 0.347111
id_726 -0.041622 0.148133 -0.572169 -0.158962 0.167021 -0.408731 0.078474 0.343493 -0.389206 -0.391273
id_730 0.183145 -0.235537 0.223772 -0.175721 0.511774 0.151279 0.137033 0.492966 0.164816 -0.506234
id_731 0.469671 0.316332 -0.001695 -0.231056 0.269448 0.406522 -0.290074 -0.111620 -0.534827 0.073822
id_734 0.259766 -0.194285 -0.427164 -0.102111 -0.290714 0.472543 -0.116820 -0.294219 -0.343471 -0.419385
id_738 0.052814 -0.058195 -0.451086 -0.584689 0.175480 -0.325764 0.128512 0.443004 0.109198 0.294748
id_745 0.186394 -0.346578 -0.081360 -0.257456 -0.166639 -0.610983 -0.283631 -0.395892 0.017035 -0.365653
id_757 -0.391093 0.230744 0.306359 -0.517993 -0.263005 0.374871 0.403821 0.170271 0.154835 -0.076775
id_758 0.351014 0.389893 -0.283099 0.015847 -0.047943 -0.220208 0.549370 0.473195 -0.258040 0.035801
id_762 0.292616 -0.264534 -0.456904 -0.094264 0.283989 -0.460977 0.029749 0.186325 -0.541320 0.070512
id_763 0.373320 -0.399356 0.189523 -0.094538 -0.370856 -0.436873 0.052649 -0.419236 -0.081645 0.377759
id_765 0.431559 0.403251 -0.142369 0.143499 -0.011668 -0.415785 -0.048929 0.062945 -0.509372 -0.414072
id_767 -0.469067 0.105241 -0.134787 0.171714 0.141514 -0.199476 0.520723 0.310622 -0.352330 0.411893
id_776 -0.032387 0.358862 -0.160387 -0.613820 0.457820 -0.271759 -0.149859 -0.067678 0.177201 0.354654
id_777 -0.091094 0.047392 0.525214 -0.530917 0.237259 0.368714 -0.118219 -0.149169 0.175669 -0.415217
id_780 -0.084513 -0.114907 -0.314230 0.081323 -0.390316 0.317200 -0.450256 0.477426 0.030135 -0.435619
id_783 -0.116195 0.071137 -0.192490 -0.483589 -0.413396 0.010878 -0.129206 -0.218211 -0.619165 0.303048
id_784 -0.140529 -0.513195 0.061216 -0.252517 -0.048068 -0.321727 -0.499561 -0.152612 0.515580 -0.069837
id_788 0.488579 -0.091163 -0.598283 0.178805 0.081828 -0.080172 -0.180930 -0.133411 -0.411928 0.360172
id_792 0.325923 -0.397015 0.354539 0.318545 0.391174 0.277044 -0.313736 0.296819 -0.018911 0.303848
id_795 0.552601 -0.317780 -0.385593 0.315703 -0.044375 -0.347716 -0.292881 -0.007958 -0.152823 0.336488
id_798 0.546078 -0.291162 0.137545 0.347967 0.404371 0.280832 -0.119366 -0.349919 0.309315 -0.047696
id_799 0.609187 0.456756 0.287865 -0.354441 0.258974 -0.020917 0.354376 -0.079119 0.099262 -0.050704
id_801 -0.237587 0.383364 -0.017337 -0.338478 0.361674 -0.123037 -0.355546 0.529124 -0.222997 0.282237
id_802 -0.420316 0.019394 -0.433737 0.184092 0.338587 -0.522679 0.087020 0.180747 -0.314467 -0.271983
id_804 0.360416 -0.065657 0.678481 -0.086851 -0.180310 0.084263 0.010697 -0.096914 0.407683 -0.427301
id_805 -0.267911 -0.401433 0.538053 -0.252045 -0.416013 0.018001 -0.086990 -0.412405 -0.169782 -0.184894
id_808 0.474878 -0.160610 -0.170442 -0.506561 -0.022653 0.296458 -0.359935 0.429303 -0.246315 -0.010673
id_809 0.371949 0.476440 -0.025304 -0.292246 -0.410353 0.253670 -0.399219 -0.242448 -0.170930 0.261722
id_811 0.102191 0.500158 0.461094 -0.364578 0.022734 -0.383955 0.147428 0.325191 -0.267472 -0.216586
id_812 0.582104 0.407044 -0.093015 0.091283 0.474960 0.078641 -0.033857 0.216175 0.363071 -0.258872
id_813 0.283478 -0.325695 -0.360895 -0.029501 -0.267910 -0.156796 -0.243967 -0.722967 0.058825 0.020633
id_819 -0.296123 -0.379978 -0.486367 -0.046975 0.300344 -0.090683 -0.428354 -0.184307 -0.447249 -0.115110
id_820 0.058523 -0.483974 -0.580123 -0.148105 0.250985 -0.077462 0.086932 0.039932 -0.008754 0.570652
id_821 0.191599 0.081243 -0.404734 0.043908 0.429172 0.074279 -0.223320 0.471863 -0.490427 0.296986
id_824 0.058999 0.253190 -0.122510 0.123394 -0.031364 0.164919 0.247910 0.600625 -0.671899 0.018408
id_825 -0.377847 -0.133292 0.431213 0.363484 0.467837 -0.192875 0.348455 -0.032371 0.155042 -0.344704
id_827 0.431567 0.377771 0.109316 0.303319 -0.347840 -0.402147 0.301661 -0.287987 -0.319842 0.090205
id_832 0.102894 0.430737 -0.064897 -0.581235 0.325319 0.044028 -0.118981 -0.475000 -0.094139 0.324681
id_833 -0.061902 -0.560274 0.413180 0.123773 -0.068505 0.459723 0.024533 -0.229393 -0.033077 0.475257
id_834 -0.183990 -0.413509 0.227570 0.010639 0.281934 -0.343832 -0.313676 -0.165506 -0.622616 0.179203
id_835 0.151466 0.511161 -0.282867 -0.218745 0.087127 0.540767 0.287794 0.276676 -0.053147 -0.354528
id_837 -0.022583 0.393724 0.126740 0.030266 -0.227871 0.022751 0.132422 0.333345 -0.577570 0.559293
id_839 0.139406 -0.407379 -0.497396 -0.101476 -0.343265 0.020462 -0.482042 0.077023 0.314603 0.318412
id_840 -0.032764 -0.109149 0.612773 -0.253346 0.087661 -0.215869 -0.248179 -0.237504 0.164058 -0.590032
id_841 -0.350656 -0.042530 -0.694446 -0.141192 -0.011072 0.240788 -0.285933 0.102811 -0.469324 0.048442
id_842 -0.375504 0.437247 -0.479066 -0.313114 0.111873 -0.227445 0.060950 -0.307338 -0.402086 0.127184
id_845 0.290135 0.258906 0.407575 0.112501 -0.558834 -0.198633 0.069907 -0.471394 0.034448 0.299964
id_848 0.474248 -0.291398 0.572137 -0.043273 -0.166469 0.119845 -0.288975 -0.057954 -0.481362 -0.017696
id_849 0.106153 0.319332 0.328440 -0.307747 0.454590 -0.362140 0.236579 -0.179930 0.255634 -0.438962
id_851 -0.474215 -0.390939 -0.257301 0.262589 -0.104307 -0.428493 0.480862 -0.017367 0.026233 0.245814
id_853 -0.124789 0.334869 -0.080789 0.096368 0.304628 -0.491019 -0.527253 -0.242901 -0.371500 0.218104
id_854 -0.121219 -0.339316 0.593416 -0.396037 0.436756 -0.279154 -0.223803 -0.117324 0.152088 0.074273
id_855 -0.186094 0.251198 -0.407916 -0.215586 -0.090364 -0.421430 -0.146810 -0.028970 -0.690478 -0.066901
id_856 0.259442 0.295366 -0.435639 -0.429248 0.183791 0.079455 0.343687 0.544894 0.108795 -0.066752
id_857 -0.097441 0.239691 -0.146515 -0.411595 0.432556 -0.547718 0.153147 -0.103112 0.110349 0.456960
id_858 -0.078382 -0.080577 0.303034 -0.325168 0.063230 -0.132811 -0.856052 -0.111673 0.068829 -0.134644
id_859 -0.133330 -0.145441 -0.102255 -0.576011 0.160281 -0.217051 0.428304 0.378113 -0.386317 0.265272
id_860 0.382541 -0.415016 0.255856 -0.438013 -0.234952 -0.195542 -0.148539 -0.376477 0.323516 0.249413
id_861 0.651692 -0.528871 0.101509 0.425604 -0.253388 -0.047423 -0.031349 0.048487 0.163528 -0.087289
id_862 0.033171 0.288957 -0.031509 -0.020968 0.326911 -0.485927 -0.102733 -0.673847 -0.214089 -0.246002
id_863 -0.116385 0.273176 -0.436894 0.231221 0.148564 -0.227770 0.030987 0.460300 -0.553449 0.272758
id_864 -0.184912 -0.266035 -0.796276 0.147932 0.150196 -0.074992 -0.187746 0.212086 0.214802 -0.290760
id_865 -0.051027 0.122189 0.053600 0.126436 0.271697 0.429718 -0.608197 0.417735 0.225298 0.331608
id_866 -0.231903 -0.534625 0.286056 -0.237277 -0.514545 0.426980 -0.138889 -0.114206 0.191541 -0.078612
id_868 0.431652 -0.327536 -0.283890 -0.040916 0.184981 0.107746 -0.447615 0.236433 -0.336068 0.457276
id_869 0.488821 0.419002 0.302959 0.340064 0.231688 -0.381736 0.121310 -0.209783 0.158268 -0.308039
id_870 0.040120 0.289994 0.211486 -0.247283 -0.567986 -0.275242 0.389941 0.457810 0.219803 -0.009712
id_872 0.414186 0.177303 -0.291282 -0.311220 -0.097067 -0.314030 0.402689 -0.009795 0.516970 -0.278855
id_873 0.437585 0.206975 0.050486 -0.447240 -0.400938 -0.249163 -0.273611 0.439897 0.144075 -0.226152
id_876 0.057143 0.310093 0.257331 -0.319597 0.372080 -0.174070 -0.056202 -0.328279 -0.501434 -0.448453
id_877 0.325325 0.197095 -0.640671 -0.140644 0.207922 0.003230 0.396651 -0.465424 0.084367 0.027679
id_879 0.139835 -0.503538 0.288075 0.275870 -0.010864 0.270088 0.128651 -0.676426 -0.126695 0.067701
id_880 0.290040 -0.140583 -0.125078 -0.340289 -0.120199 -0.090669 0.210349 0.621176 -0.438686 -0.345618
id_881 0.386474 0.054660 0.463708 0.227184 0.263231 -0.204466 -0.223041 -0.046640 0.366162 -0.532840
id_883 0.089999 -0.331705 0.429039 0.349211 -0.137003 0.124680 0.270863 -0.525311 -0.024646 0.437732
id_884 -0.310441 -0.082726 0.299569 0.100978 0.463025 0.360659 -0.294735 -0.091699 0.255725 -0.540097
id_885 -0.200271 -0.024634 0.390758 0.060871 0.478633 -0.444651 -0.477084 -0.086810 0.037032 0.373587
id_886 0.075369 -0.428656 0.228447 -0.376963 0.431006 0.221863 -0.437289 -0.253409 -0.266027 -0.234707
id_888 -0.069458 -0.375775 0.314541 -0.192897 -0.360302 -0.421839 0.277061 -0.180283 0.188998 -0.514853
id_889 -0.229998 -0.504339 -0.190917 -0.414240 0.338218 -0.314280 -0.293105 0.219435 -0.349178 0.124694
id_890 0.610300 -0.197520 0.250130 0.098230 0.388581 -0.372425 0.093894 0.028356 0.205152 -0.418212
id_891 -0.061470 -0.193235 0.539766 -0.467145 0.401561 -0.360038 -0.312018 -0.088956 0.220785 -0.066454
id_892 -0.279103 -0.279620 -0.117812 -0.099731 0.482817 0.229803 -0.163759 0.204127 -0.607408 -0.311027
id_893 0.046036 0.360708 0.644164 0.066695 0.098480 0.276164 -0.427871 -0.139203 0.138408 -0.375236
id_894 0.361555 -0.476274 -0.280320 -0.292098 0.366414 0.119677 -0.253186 -0.263342 0.078671 -0.436255
id_895 0.272304 -0.161996 0.264812 0.430425 -0.214680 -0.242467 0.303035 -0.388921 0.177063 -0.514682
id_896 0.525323 -0.103102 0.481547 -0.083103 0.206071 -0.238069 -0.248081 -0.042016 0.506008 -0.236888
id_898 -0.219231 0.365845 -0.412209 0.247391 -0.356428 0.156150 -0.372401 0.236575 -0.286678 0.398396
id_899 -0.285085 -0.256916 -0.435447 0.431062 -0.368922 0.302021 0.278713 -0.069165 0.272330 0.305521
id_900 0.480825 -0.186984 0.590076 -0.075590 0.319043 0.215264 0.078777 -0.237149 -0.030136 -0.410439
id_901 0.245564 -0.278946 0.381114 -0.264932 0.047246 0.096854 -0.192088 0.443338 -0.482244 0.410890
id_902 0.303101 -0.342619 0.378775 -0.351639 0.341612 -0.155726 0.135813 -0.440862 -0.117362 -0.395088
id_903 -0.107854 -0.330280 -0.498832 -0.129812 -0.448970 -0.156940 -0.045249 0.552566 -0.261038 0.108978
id_904 0.316668 -0.303500 -0.167103 0.181337 -0.340033 0.275400 -0.026610 0.444046 -0.574135 0.166794
id_905 0.197947 -0.102473 -0.527934 -0.261839 0.403450 0.087987 0.343696 0.265422 -0.493598 -0.017738
id_906 -0.426723 -0.186744 0.057614 -0.295270 -0.242238 -0.456182 0.222692 0.078721 -0.408591 -0.450571
id_907 -0.173953 -0.161448 -0.132199 0.173200 0.229479 -0.669993 -0.213928 0.187057 -0.463095 -0.315336
id_909 -0.065384 0.082690 0.397275 -0.275438 0.456320 0.361754 -0.376032 -0.358554 0.187801 -0.332971
id_910 -0.184823 0.179136 -0.377938 -0.395373 0.235650 -0.433909 0.325794 0.303868 -0.437418 -0.031211
id_911 0.009931 -0.299143 -0.134672 0.026536 -0.158616 -0.419914 -0.643563 0.447130 -0.266913 -0.068891
id_912 -0.522381 -0.097692 -0.156475 0.178239 -0.171536 -0.096559 0.535077 0.448018 -0.304917 -0.206326
id_913 -0.170569 0.236266 0.283898 -0.279047 0.528498 -0.011172 -0.254734 0.057228 0.327098 -0.549570
id_914 0.580700 -0.088073 0.131773 0.370307 -0.077089 -0.400936 -0.393190 0.406658 0.057901 0.102595
id_915 0.590505 -0.264358 -0.174464 -0.408183 0.397491 0.082701 -0.237950 0.007387 -0.004213 -0.403530
id_916 0.116403 -0.362962 0.527813 0.328635 0.349681 -0.140706 -0.511307 0.167284 -0.128573 -0.141765
id_917 0.135552 0.358200 0.217675 -0.236126 0.105473 -0.535985 -0.317147 -0.349488 -0.457848 -0.139381
id_919 0.005664 -0.367134 0.100814 -0.378912 -0.034555 -0.421444 0.154992 0.152016 0.459345 0.523931
id_920 0.037494 0.200688 -0.375671 0.010567 -0.415968 0.360684 0.543589 0.236474 0.221955 0.336576
id_921 -0.133058 -0.433449 0.243232 -0.004849 0.110684 0.092826 -0.036412 0.447009 -0.546314 -0.463426
id_923 0.415333 -0.196676 -0.291632 -0.392246 -0.342284 -0.554799 0.185921 0.147017 -0.220178 0.142447
id_924 0.143995 0.119878 0.620762 0.392995 0.009570 -0.140251 0.334150 0.460487 -0.185403 -0.217403
id_926 0.038015 -0.115564 -0.028898 0.473944 -0.427465 -0.521380 0.301384 -0.253968 0.071800 -0.380382
id_927 -0.316424 0.330621 0.069558 -0.545721 0.404851 -0.023800 -0.065895 -0.071242 -0.396351 -0.396148
id_928 0.488491 0.271614 0.413184 -0.091592 0.314039 -0.063332 -0.529835 -0.258172 -0.218125 -0.104423
id_929 0.027223 0.240210 0.082415 0.382034 0.362016 0.472135 0.231920 0.307005 -0.400872 0.355122
id_930 -0.382998 -0.240785 -0.237509 -0.422282 0.527486 -0.124145 0.123560 -0.430595 0.056537 -0.251146
id_932 0.203904 0.335480 -0.440403 0.506525 0.034563 -0.056481 0.432060 -0.128172 -0.417201 0.117513
id_933 0.020988 -0.439767 0.277981 0.296425 0.210270 0.529249 -0.196491 0.447503 0.209722 -0.183996
id_934 0.057120 -0.518361 0.328101 -0.017726 -0.235772 -0.210603 0.381854 -0.179080 -0.244701 -0.531387
id_935 -0.090416 -0.093904 -0.430853 -0.027571 0.255507 -0.139988 0.475865 0.155873 0.161393 -0.659500
id_936 -0.321378 0.102354 -0.414421 -0.119446 0.532576 -0.414393 0.243579 -0.327563 -0.210360 0.184364
id_937 0.175093 0.247077 0.218923 -0.485641 -0.122256 0.338958 0.260913 -0.299558 -0.580064 0.019944
id_938 -0.278319 -0.035071 0.328853 -0.098705 -0.188582 0.215266 -0.308212 0.532335 -0.554105 0.190031
id_939 0.079920 0.033719 -0.135428 -0.522971 0.253016 0.277007 -0.334955 -0.302742 -0.442888 -0.399860
id_940 0.443314 -0.111300 -0.310465 -0.207190 0.107211 0.229371 0.050041 0.152512 -0.567473 0.489770
id_941 -0.341815 0.414374 -0.191898 0.128747 0.262720 -0.165811 0.372726 -0.092607 -0.632376 -0.118915
id_942 0.243262 -0.289312 -0.428732 0.244081 -0.056359 -0.405114 0.308205 0.516783 -0.156799 0.244541
id_943 0.527013 0.462833 -0.048553 0.148800 -0.118069 -0.071213 -0.028386 -0.420275 -0.322880 0.427603
id_944 -0.286869 -0.079833 0.532981 -0.160383 -0.318725 -0.374352 0.420739 -0.368088 -0.137528 0.168497
id_945 -0.171463 -0.440406 0.014910 -0.228764 -0.374186 0.461264 0.338610 -0.420341 0.270133 -0.083625
id_946 -0.427125 -0.576360 -0.520409 0.036318 -0.313089 0.052952 -0.197735 0.194109 -0.141202 -0.125239
id_947 -0.141303 0.338313 -0.417682 -0.375968 0.619159 0.050456 -0.255378 -0.171695 0.115007 -0.236516
id_948 -0.204262 0.124391 -0.301372 0.053594 -0.510557 -0.362911 0.282681 -0.606248 -0.023469 0.093471
id_949 0.016765 0.009739 0.127071 -0.562301 -0.504903 -0.134169 -0.332756 0.280616 -0.447887 -0.065509
id_950 0.676247 0.432276 0.124381 -0.174379 0.071542 -0.250414 -0.296851 -0.358373 0.118082 -0.107834
id_951 -0.123372 -0.321392 -0.039369 -0.220459 -0.131338 -0.046792 -0.324936 0.340047 -0.765994 -0.062718
id_952 -0.328510 -0.212730 -0.203743 -0.192703 0.444362 -0.128025 0.510052 -0.006073 -0.255612 -0.478336
id_953 0.613115 -0.069446 0.018060 -0.137900 -0.059372 -0.091251 0.360872 -0.142284 -0.443455 -0.490864
